775 10
flavour 0.14817266 -0.4597394 -0.059091035 -0.07375029 0.92616814 -0.010566912 -0.30938125 0.52844673 0.66189903 0.17256048
tast 0.17866014 -0.47104368 -0.06876479 -0.0014840119 0.7903723 0.1259671 -0.2999317 0.39632574 0.62931204 0.19294274
skin 0.16697542 -0.52389836 -0.066249624 0.18946683 1.0089744 0.06847409 -0.37041646 0.48227108 0.7201284 0.23724943
fresh 0.18903969 -0.3747158 -0.04464731 0.0888982 0.8007569 0.046785798 -0.39419332 0.47145617 0.62802714 0.22034433
soft 0.12512685 -0.46690044 -0.034148507 0.14196391 0.8611929 0.13569878 -0.21374667 0.35337994 0.6508055 0.3013345
refresh 0.141936 -0.48864144 -0.00076246844 0.017592981 0.82023275 0.096732244 -0.40463462 0.49114534 0.6675732 0.20534833
fruit 0.19289778 -0.3864611 -0.11995031 -0.023361048 0.87274534 0.03205208 -0.33426192 0.524019 0.6297284 0.227949
good 0.12738138 -0.45194644 -0.080704354 0.035036065 0.8529423 0.021598892 -0.39379674 0.4884911 0.6508673 0.290373
water 0.19139338 -0.47546592 -0.05686119 0.05191125 0.9602694 -0.003975149 -0.36665475 0.43979037 0.5937609 0.20995466
enjoi 0.18193637 -0.45309976 0.003276225 0.019224744 0.8137675 -0.0013533352 -0.3039886 0.4837884 0.6369334 0.20630898
babi 0.15904692 -0.43136546 -0.0809549 0.18179041 1.0631698 0.010121739 -0.49457553 0.5182793 0.7113633 0.35830685
beer 0.24346314 -0.49799174 -0.055642698 0.033408336 0.7877582 0.042121213 -0.40542912 0.49713922 0.68473965 0.23184763
fat 0.28887436 -0.3318244 -0.036293413 -0.028387697 1.0448239 0.04297547 -0.32188472 0.531089 0.71951586 0.21261634
drink 0.10386245 -0.41397148 -0.016425492 0.03043297 0.7748387 0.10286311 -0.28032282 0.25952807 0.6108138 0.2312913
natur 0.13707343 -0.40576592 -0.014407174 0.10492078 0.9826645 -0.054290812 -0.4142679 0.5324624 0.59322304 0.180819
rang 0.24301349 -0.3691146 -0.09810542 -0.06343262 0.91027224 0.059816677 -0.36433938 0.4373915 0.6484957 0.1724033
free 0.23696241 -0.32202473 -0.10103879 0.029995175 0.9765176 0.0929074 -0.33897907 0.55232817 0.6823062 0.20039038
dai 0.17486319 -0.39759746 -0.060543656 0.081416704 0.92076546 0.08155813 -0.3673398 0.5255258 0.64117616 0.19458608
white 0.13951339 -0.45106718 -0.021836216 -0.010561748 0.86510754 0.07564595 -0.41402766 0.52718294 0.63209796 0.23777162
special 0.22349979 -0.37579006 -0.027708711 -0.04666103 0.9138952 -0.010248232 -0.38481167 0.47052372 0.7396377 0.2615591
coca 0.11938611 -0.40871787 -0.086979955 0.09722583 0.71622634 0.18227336 -0.14534889 0.2362193 0.59907776 0.1545527
cola 0.1116807 -0.39067066 -0.1365617 0.032592412 0.78539807 0.16434525 -0.12218591 0.22688048 0.54476964 0.23521075
bodi 0.23939589 -0.4626823 -0.090038694 0.09817417 0.9571134 0.08028105 -0.3544512 0.52900016 0.679354 0.1836339
balanc 0.2244701 -0.48874766 -0.057700682 0.10086329 0.93754286 0.043593924 -0.38655162 0.503655 0.70299464 0.2431836
protect 0.18882838 -0.50607395 -0.11172445 0.13017295 0.9991189 0.15595457 -0.34972003 0.577135 0.6163965 0.2576952
milk 0.20407417 -0.3404439 0.013945529 0.052570198 0.9472522 0.11764446 -0.43682623 0.51897377 0.6034255 0.28958473
help 0.21608391 -0.46968314 -0.04394714 0.10646984 0.89606744 -0.016726136 -0.43121406 0.5263641 0.68565243 0.24267474
high 0.19664453 -0.3497939 -0.044328142 0.062625706 0.95755625 0.029467838 -0.3540743 0.46335497 0.59236896 0.28932714
crisp 0.17659736 -0.45847344 0.011552789 -0.035292387 0.85264456 0.10737447 -0.3847892 0.5005627 0.60705894 0.19369057
clean 0.23476936 -0.43419307 -0.036313027 0.1138123 0.82009035 0.14070036 -0.40296093 0.56645405 0.6291263 0.22631674
beef 0.21576089 -0.38251755 -0.12196963 -0.020482887 0.9714909 -0.047332108 -0.36345828 0.51689607 0.68272394 0.21170133
mass 0.1416153 -0.14006819 0.07700701 -0.1537164 1.0419635 -0.114488825 -0.58135 0.89670205 0.69733435 0.2852697
south 0.22611073 -0.39936247 0.007731288 0.034631085 0.8552491 0.123906836 -0.49715054 0.54201746 0.6392754 0.26234895
bread 0.089389175 -0.3496552 -0.047366835 0.047441572 0.90103245 0.062180314 -0.40642858 0.5036746 0.6055653 0.32269877
perfect 0.24823901 -0.4333348 -0.05656714 0.0026449808 0.8775352 0.011439691 -0.32830682 0.5791499 0.7084865 0.17214794
sweet 0.17909452 -0.46021563 -0.06516985 0.06540161 0.8716122 -0.034396734 -0.42051408 0.54357326 0.623805 0.19483982
delici 0.16221663 -0.45777652 -0.04565697 0.07700428 0.8636894 0.02101376 -0.299626 0.45903045 0.61192757 0.266113
great 0.2053981 -0.44722158 -0.068324186 -0.026961513 0.81047076 0.019981856 -0.32326442 0.4913903 0.5660298 0.17572667
nthi 0.132318 -0.326105 -0.015634699 -0.18936495 0.9972171 -0.0822864 -0.5204366 0.7744719 0.7150559 0.19918999
care 0.10275669 -0.48679066 0.010810826 0.15945323 0.91682917 0.017347837 -0.37351358 0.5411304 0.6866045 0.28075957
best 0.22270021 -0.39215696 -0.09443976 0.021028722 0.9215055 0.03816295 -0.42411473 0.4333394 0.69690335 0.26456168
product 0.14145687 -0.29611406 -0.022549972 -0.0899045 0.9634629 -0.052812964 -0.46483147 0.7520848 0.6280383 0.22466666
feel 0.14622375 -0.38419008 -0.058717012 0.16642483 0.8571811 0.08359198 -0.3205102 0.45869684 0.61486703 0.31805432
appl 0.21706605 -0.4218283 -0.03998193 -0.040562667 0.8830835 -0.024373533 -0.37470236 0.52548456 0.61696315 0.16642366
blend 0.1898185 -0.4099581 -0.07610481 0.017599512 0.8813992 0.05672349 -0.33470482 0.48783556 0.6816207 0.26518986
select 0.2012037 -0.3754006 -0.0025302737 -0.103431165 0.9003361 0.046908822 -0.33208734 0.4862027 0.63202965 0.18657953
qualiti 0.15729101 -0.3892179 0.043013137 0.056938935 0.89810884 -0.027001455 -0.3521519 0.44228995 0.62791854 0.1733834
extra 0.1418693 -0.43145204 -0.052661553 0.0600179 1.0077213 0.08699859 -0.32484928 0.50223464 0.6258793 0.3073669
sugar 0.112544075 -0.38057813 -0.1310172 0.11700754 0.7667601 0.12739483 -0.15739442 0.22115415 0.58224666 0.14749308
brown 0.14474155 -0.33261883 -0.052373774 -0.0044027045 0.8758746 0.0464218 -0.32358718 0.4635738 0.5789085 0.3039467
famili 0.16998868 -0.3942526 -0.009416862 0.08172073 0.8873989 0.016465388 -0.3817624 0.50204694 0.624359 0.2942007
vitamin 0.2243526 -0.44871378 -0.05356109 0.07431507 0.9473822 -0.00044876483 -0.36721495 0.51548743 0.6624547 0.2138722
miner 0.12521915 -0.45228702 -0.050852127 0.050945174 0.91645706 -0.020941563 -0.38917637 0.4526108 0.56817853 0.20436487
dry 0.11669023 -0.4588215 -0.01823195 0.13595054 1.0945061 -0.00013295386 -0.31769028 0.5419166 0.7542141 0.2481909
hand 0.23348111 -0.43886164 -0.057653684 0.04577972 1.0375499 0.083222985 -0.3899912 0.46241412 0.63244027 0.317832
colour 0.20486301 -0.4820546 -0.0067256037 0.0007797744 0.8306389 0.06125476 -0.36290878 0.5212755 0.6168636 0.23765902
daili 0.16344713 -0.4335457 -0.122256264 0.04695917 0.9945635 0.027444249 -0.4295332 0.5863243 0.70747936 0.20666805
brew 0.32860503 -0.53456825 0.037966292 -0.09516074 1.0587399 0.12905012 -0.33766738 0.49681348 0.68232554 0.29726005
absorb 0.22874872 -0.4749737 -0.044311643 0.12026807 1.0122038 0.10409207 -0.4624745 0.59839696 0.8341895 0.31883845
wash 0.13266325 -0.5024125 -0.03290345 0.13551332 1.0638624 0.11010273 -0.3077956 0.6605568 0.7535442 0.285123
cream 0.104426496 -0.44135892 0.0007595605 0.15494883 0.99274915 0.017247902 -0.31383228 0.46921414 0.7080523 0.27610573
pamper 0.10686728 -0.430503 0.015924254 0.0795206 0.9197591 -0.014906642 -0.3372445 0.4847865 0.67639786 0.26527035
africa 0.23289384 -0.3817462 0.06858655 0.11722015 0.8207803 0.13754715 -0.36775887 0.4815943 0.6774645 0.26373032
pack 0.15264258 -0.47566885 -0.08122464 -0.032065738 0.94466144 0.051487677 -0.40904558 0.52774084 0.7024222 0.2853787
premium 0.123668596 -0.4631316 -0.04265685 0.01564583 0.8721874 0.025607646 -0.3567719 0.52103305 0.6648915 0.34208715
moisturis 0.11947613 -0.51194143 -0.03575993 0.17985894 0.9275032 -0.0383489 -0.38202563 0.43452203 0.70041996 0.29924697
uniqu 0.18727684 -0.46253502 0.03410934 -0.056171607 0.91081494 0.058415145 -0.37281635 0.5651084 0.7546074 0.20580357
spring 0.1711482 -0.353705 -0.00023047105 0.07372758 0.79092616 -0.033577617 -0.35014015 0.37875098 0.51927114 0.13964123
hop 0.3022784 -0.5410304 0.048293926 -0.0050184918 0.9140962 0.060953476 -0.36108235 0.52793574 0.80688465 0.27208668
relief 0.17719439 -0.5358062 -0.06687169 0.11698491 1.0431724 0.09438368 -0.3909868 0.60515976 0.6360836 0.23615828
carefulli 0.17343016 -0.3864506 0.0014368504 0.031498294 0.92943686 0.06385479 -0.34176555 0.46622524 0.66852856 0.24463437
juic 0.19338116 -0.35230267 -0.09834272 -0.026553698 0.8872525 0.049030256 -0.26378736 0.5202875 0.63460356 0.26152328
contain 0.17781493 -0.4695698 -0.014185794 0.06960782 0.951191 0.03378758 -0.32337198 0.40190357 0.6375571 0.20484938
sensit 0.13206422 -0.52336264 0.00057861075 0.06545974 0.9056679 0.03883559 -0.38056886 0.45931402 0.6616049 0.24828014
aroma 0.29275948 -0.5185865 -0.060853694 0.012772206 0.9083894 -0.008365659 -0.48064885 0.4914827 0.807412 0.16531885
layer 0.10565271 -0.44493312 -0.042205203 0.18676709 1.1857477 0.025573744 -0.43005252 0.58437026 0.76750994 0.32465518
lager 0.2564818 -0.40764216 -0.00025602453 -0.016645202 0.7797811 0.15238805 -0.32936847 0.56009763 0.6102923 0.20679358
life 0.14603072 -0.4506378 -0.04106511 0.05158107 0.86869776 0.06042264 -0.3497925 0.48617476 0.7061136 0.20649444
minc 0.22537175 -0.38288426 -0.048991404 -0.06780949 0.89680403 0.018043922 -0.2873211 0.49727333 0.6986744 0.2474766
love 0.16248657 -0.35302725 0.023038195 0.028128 0.9133464 0.015739433 -0.33913642 0.512064 0.58123624 0.27731737
bake 0.14093049 -0.28252286 -0.01152414 0.017791476 0.9309316 0.101589106 -0.3853505 0.49971515 0.6048343 0.23992056
longer 0.13299812 -0.3570155 -0.017117066 0.06872204 0.9238602 0.08133089 -0.42883462 0.5647814 0.6730282 0.20497985
superior 0.14709236 -0.3293789 -0.12181332 0.04656069 0.78181505 0.0021656908 -0.39617503 0.45522675 0.52946144 0.22840896
wai 0.23766808 -0.36871415 -0.07622488 0.0833388 0.86822766 0.10754762 -0.3262299 0.5380716 0.58968425 0.23464106
malt 0.21902782 -0.502668 -0.09405936 -0.026646247 0.9558119 0.020081896 -0.42047966 0.5034467 0.7428134 0.28349575
rich 0.19305028 -0.36563602 -0.05752988 0.06900501 0.82505506 -0.00033994293 -0.41433182 0.538726 0.5992748 0.1837684
chicken 0.13131729 -0.37031442 -0.068150215 0.03016621 0.91161597 0.066921785 -0.38303712 0.51667297 0.69532526 0.2084585
tender 0.14249483 -0.43345788 -0.059066616 0.01668617 0.8830243 0.05005932 -0.35276708 0.47557893 0.6324332 0.16130319
growth 0.26669398 -0.49059433 -0.01770142 -0.20764744 1.1931927 -0.1867201 -0.43532327 0.6263686 0.85008776 0.18253954
new 0.1497382 -0.4523031 -0.14413765 0.016647214 0.79162425 0.010795446 -0.37010264 0.57263905 0.5330937 0.27435404
alcohol 0.18159758 -0.4220599 -0.059802957 -0.036381096 0.8776308 -0.013686087 -0.35821542 0.519511 0.64240056 0.23852274
activ 0.17560904 -0.48764503 -0.012447107 -0.0011093481 0.92206144 0.015078011 -0.33855316 0.53243196 0.66842246 0.2969638
pain 0.10913447 -0.5273353 0.013768644 0.007914569 1.003665 0.13917169 -0.44906572 0.53013206 0.56971866 0.20746484
ad 0.13716283 -0.4354425 -0.04117621 0.02239577 0.9327566 0.05569893 -0.43282506 0.47077706 0.69773245 0.19135292
diet 0.21175729 -0.36344934 -0.088306494 0.05628682 1.0378851 -0.0012379845 -0.3036521 0.5227657 0.6710218 0.20713742
random 0.13084832 -0.21103145 -0.041662127 -0.2260015 1.0172224 -0.13231333 -0.46593922 0.8350355 0.67144525 0.21461153
averag 0.20269874 -0.2388592 0.07979037 -0.18506931 0.9482558 -0.035335917 -0.53337365 0.77840763 0.64640033 0.2873229
displai 0.16992146 -0.24072771 0.03987097 -0.11331954 0.86141837 0.00036343132 -0.5339975 0.7292284 0.612951 0.28730303
deliv 0.10025103 -0.42647716 -0.13951035 0.059015036 0.8758087 -0.017670877 -0.43073007 0.53271616 0.56391925 0.17515725
control 0.26918238 -0.28923827 -0.05310764 0.055831596 0.8680927 0.058660075 -0.28121558 0.42337784 0.59735984 0.2736702
comfort 0.17845228 -0.49990058 -0.096891366 0.088658735 0.908756 -0.007492182 -0.43709937 0.5078527 0.7576071 0.3181341
stain 0.15451878 -0.488 -0.05675789 0.046216853 0.92199284 0.10850638 -0.4418829 0.51370996 0.6518116 0.22772202
content 0.22132772 -0.35607615 -0.118177556 -0.037278082 0.9071097 -0.0017130577 -0.29825228 0.38885143 0.64504814 0.27593175
nappi 0.17721912 -0.48008934 0.0055485605 0.06895723 0.99990517 0.08197006 -0.44644302 0.49811497 0.6526305 0.33850515
tasti 0.11616297 -0.39449024 -0.027502785 -0.03838254 0.77086973 -0.013498606 -0.3719459 0.46041867 0.5593395 0.18219732
citru 0.19813195 -0.47391078 -0.06854994 -0.061558682 0.8235284 0.013944389 -0.3476974 0.544828 0.6385916 0.17749129
headach 0.10553203 -0.48475954 -0.008083926 0.039960235 0.9885773 0.087544285 -0.47183958 0.53301525 0.6201884 0.25943333
note 0.19402276 -0.48849392 -0.023089573 0.0018074478 0.8887424 0.054345723 -0.37650776 0.4744049 0.7041754 0.16474397
gentl 0.19234093 -0.46451813 -0.047043838 0.074832626 0.99368924 -0.018723778 -0.42714834 0.5327636 0.63562953 0.2681782
formula 0.17452462 -0.44480366 0.026876848 0.12742126 0.8981649 0.06895827 -0.35771126 0.5069515 0.6725849 0.19788106
soap 0.20765664 -0.44380254 -0.092903525 0.12746233 1.0031158 0.012628282 -0.33504146 0.5281037 0.74671066 0.29324487
nnever 0.25017226 -0.48648205 -0.09317907 -0.18641298 1.2112815 -0.099376984 -0.52707475 0.617214 0.89339215 0.11738803
given 0.23088178 -0.5732674 -0.09680641 -0.19789897 1.288177 -0.19193923 -0.41290683 0.6859838 0.93739265 0.10294545
easi 0.20718618 -0.36398718 -0.06615217 0.027432565 0.83323026 0.061812393 -0.402236 0.48654306 0.61035675 0.22911662
bun 0.18756992 -0.21296924 -0.04969494 0.041107234 0.8772256 0.0661648 -0.3904861 0.4381683 0.60375756 0.31277198
recip 0.08380841 -0.43854523 -0.14690912 0.040856414 0.84189135 0.01115146 -0.45979947 0.5853265 0.58169526 0.18398073
low 0.16853847 -0.3174689 0.008532406 0.07180694 0.7999162 0.07339834 -0.24067229 0.3482637 0.5430681 0.24799506
quench 0.10856952 -0.30914497 0.025712244 0.03499551 0.57046443 0.024037993 -0.2849441 0.35481995 0.44079754 0.19790986
thirst 0.112813935 -0.33747065 0.013383222 -0.044723146 0.621823 0.005859926 -0.3041521 0.2871171 0.4152975 0.20319538
time 0.12305001 -0.37459406 -0.06273395 -0.037965477 0.7767067 0.029584352 -0.32516134 0.48342055 0.5114554 0.15925391
snack 0.2258001 -0.37778556 -0.068145715 0.08051042 0.8534321 0.09466642 -0.4159799 0.4550328 0.64061826 0.24775723
start 0.1702042 -0.46175453 0.0011205564 0.0816742 0.87702394 0.09045321 -0.37870073 0.5127218 0.65552914 0.25590253
spice 0.20236163 -0.41906986 -0.10493505 0.07993711 0.91840255 0.036573652 -0.3494357 0.5511628 0.7472617 0.20527612
style 0.317426 -0.50445366 -0.047280535 -0.084409274 0.99843067 0.15698442 -0.3426421 0.49826398 0.6621084 0.2399681
barlei 0.1521283 -0.50271374 -0.011127647 -0.074905016 0.88108575 0.051370904 -0.35499382 0.53130156 0.7403002 0.29324168
teeth 0.20803924 -0.43319213 -0.09596503 0.016222958 0.9482911 0.13623418 -0.4426062 0.53351736 0.629817 0.21034616
hoppi 0.27235907 -0.43440825 -0.026694141 -0.04991252 0.89024615 0.104516275 -0.4675965 0.55840933 0.79911196 0.22664343
lightli 0.24042773 -0.45203397 -0.035438515 0.037187137 0.9058464 0.017542217 -0.44163987 0.5304656 0.68466306 0.22339346
bitter 0.18219411 -0.47964883 -0.09155367 0.05012833 0.87997687 0.06592615 -0.33048093 0.43606532 0.69718826 0.28065863
sourc 0.17961013 -0.38644361 -0.073800065 0.030328054 0.9514627 0.036168713 -0.38374943 0.5522768 0.61234397 0.25243175
smooth 0.24636453 -0.43538114 -0.042850975 0.09920494 0.9685374 -0.016052926 -0.34024727 0.5515085 0.767274 0.23878779
lean 0.26269203 -0.4046816 -0.049614914 0.02405373 0.8797241 0.026414758 -0.25851792 0.39419404 0.65109426 0.21162808
routin 0.17055795 -0.41924587 -0.10444015 -0.2308568 1.1540043 -0.18491456 -0.43232358 0.70639306 0.78823507 0.1599981
antibiot 0.24288061 -0.4163346 -0.047030393 -0.11361091 1.1115816 -0.1306506 -0.4102606 0.69554305 0.8457844 0.1432957
health 0.23197274 -0.4047558 -0.034048483 0.014397965 0.9590048 0.08272494 -0.3646392 0.44630134 0.65169215 0.26955974
energi 0.1758102 -0.37589267 -0.06483484 0.01894644 0.881992 0.103625625 -0.35243145 0.5144618 0.6055574 0.28264654
long 0.2011953 -0.36065078 -0.0484409 0.023559378 0.89571315 0.021901788 -0.39615855 0.4321523 0.60494345 0.27314165
healthi 0.19940501 -0.43361333 -0.09349882 0.10762427 0.8690926 0.007251219 -0.3870491 0.48490655 0.6062512 0.27091816
bottl 0.16403647 -0.40603757 0.0108831385 -0.0019787464 0.8927007 0.023923205 -0.3441432 0.40007758 0.5439328 0.23175669
oil 0.13237901 -0.37250397 -0.03156144 0.09135032 0.86301583 0.04047523 -0.32237238 0.5097598 0.5789464 0.24483155
creat 0.16405891 -0.40553764 -0.08819481 0.007850828 0.8073621 0.078230456 -0.3320248 0.48481828 0.634171 0.17434762
clover 0.17515825 -0.36009207 0.042280514 0.047503904 0.7800086 0.03684304 -0.36794752 0.450696 0.5785312 0.20336384
lamb 0.18413085 -0.33933192 -0.06831111 0.029614681 0.8677176 0.06857498 -0.3060381 0.45410213 0.6138016 0.18314973
african 0.22665317 -0.37899852 -0.0064909128 -0.039617836 0.9229274 0.042886898 -0.38114536 0.5150164 0.6060435 0.24450521
mild 0.1570291 -0.46129057 -0.073430516 0.06963072 1.0197216 0.062259655 -0.35950863 0.5426447 0.76023334 0.2879748
egg 0.11337894 -0.28481445 -0.009888732 -0.034457844 0.7029992 -0.008998016 -0.23261063 0.42917874 0.52761734 0.19492789
dryness 0.23107459 -0.4035772 -0.052634656 -0.0396991 1.0191635 0.05393394 -0.5052157 0.49723718 0.7606271 0.30062613
dermo 0.12237959 -0.51579064 0.0082130525 0.08984053 0.997513 0.10783218 -0.3369779 0.552905 0.689764 0.21250442
number 0.18918914 -0.32688838 -0.016767342 -0.0029170604 0.8146661 0.037731536 -0.41655594 0.4434929 0.6750612 0.16447903
softer 0.09652509 -0.41582605 -0.10983518 0.067447215 0.7859132 -0.008713492 -0.34487128 0.44861752 0.5641795 0.17303997
provid 0.18249796 -0.3899006 -0.051132277 0.08223733 0.99503917 0.014275788 -0.31947878 0.53196883 0.6228368 0.256953
micro 0.14647047 -0.45664665 -0.05844821 0.12706617 0.97928286 0.061639752 -0.4008386 0.5351367 0.71673805 0.25215364
leav 0.19487849 -0.3814455 -0.025533548 0.121203706 0.8015845 0.067649126 -0.3343497 0.52191937 0.564218 0.21738923
kid 0.10800269 -0.47566763 -0.05279325 -0.00079711364 0.87765294 0.077162854 -0.25218636 0.53850985 0.6349441 0.18945089
brand 0.21536826 -0.4037705 -0.0483929 -0.0130956 0.87529993 0.098668434 -0.43781063 0.5083661 0.6304182 0.2067214
subtl 0.19179848 -0.46010223 -0.0894218 -0.062490784 0.9033058 -0.0156217655 -0.39077818 0.5443043 0.71190214 0.27562377
creami 0.17976065 -0.27899504 -0.0032010349 0.030238025 0.711848 -0.011410941 -0.31724155 0.44771504 0.4788397 0.12262103
fruiti 0.15543132 -0.49410623 -0.043725323 -0.030259212 0.83481044 -0.0147651415 -0.32850862 0.52422905 0.7049994 0.1970163
ag 0.22560279 -0.36359528 0.008419446 0.05120579 0.8440095 0.071807325 -0.35158268 0.41661018 0.6175289 0.22791639
roast 0.15603815 -0.37000728 -0.04246148 0.020645658 0.95421416 -0.027220575 -0.39051872 0.48758328 0.6713761 0.21603714
bath 0.1325298 -0.5218095 -0.11726186 0.105111696 1.0825285 0.12894692 -0.31809694 0.6215452 0.73476094 0.31940645
bring 0.1042101 -0.34928176 -0.035962015 -0.025515145 0.73130566 0.040741425 -0.3381765 0.41831127 0.55793875 0.14758095
fibr 0.12536748 -0.31725928 -0.07822041 0.058687124 0.8231756 0.08048005 -0.34379616 0.4635724 0.51280016 0.23962052
develop 0.13749453 -0.49287474 -0.017361676 0.04487791 0.97478366 -0.018356346 -0.33198363 0.4968102 0.6700015 0.25416955
indulg 0.12361318 -0.39152822 -0.05022536 0.027984258 0.7625305 -0.019388253 -0.39898756 0.50307715 0.6135111 0.2270064
origin 0.1291935 -0.3794372 -0.02583653 0.01772584 0.76509714 0.092628285 -0.23368219 0.33490622 0.53860617 0.21429163
lemon 0.17312934 -0.34760398 -0.066284 0.018754646 0.7781934 0.03395638 -0.26882872 0.45940095 0.57860357 0.2496466
hint 0.21631275 -0.45537603 -0.049549967 -0.03337271 0.86927646 0.010896164 -0.3706171 0.5319846 0.6198399 0.27470395
try 0.19020677 -0.39933974 -0.07603247 0.0570107 0.8041576 0.01380607 -0.28754157 0.49415895 0.5708085 0.2042054
fever 0.12017521 -0.44937235 0.006180003 0.017674513 0.9994782 0.10355137 -0.42777663 0.52355486 0.5662271 0.20409934
world 0.2701794 -0.3892513 0.015788125 -0.021856325 0.94471437 0.077914506 -0.37297657 0.42277095 0.6065135 0.22619377
clinic 0.12119497 -0.47521335 -0.083093084 0.05726676 0.86947834 0.111319505 -0.40071815 0.51540065 0.663855 0.28727144
proven 0.19981532 -0.48663887 -0.037320603 0.011577064 0.92469984 0.07073147 -0.44180954 0.5151405 0.61894834 0.28529412
awai 0.1498133 -0.41879073 -0.01097472 0.08770089 1.0286936 0.021425474 -0.50126344 0.588961 0.73839945 0.316748
add 0.21838282 -0.3272594 -0.07690194 0.048953142 0.818953 0.043604806 -0.3725639 0.512867 0.5221755 0.22917588
bulk 0.16655716 -0.46967664 -0.027156511 0.06347412 0.97304565 0.025383625 -0.4182939 0.53175056 0.76802516 0.29361367
chop 0.18434824 -0.29815236 -0.030173557 -0.06878327 0.80967814 0.0053280653 -0.3055909 0.46203774 0.6419237 0.182604
grass 0.17162642 -0.3759895 -0.027905105 0.025548432 1.0448353 -0.05680138 -0.35994923 0.46633157 0.6932344 0.20823011
hansa 0.2860072 -0.3786155 -0.018246982 0.029149223 0.8593866 0.09414645 -0.29520983 0.42986012 0.59710604 0.21526255
pilsen 0.30732647 -0.43886364 0.04418863 -0.087319285 0.99166954 0.14134535 -0.34478685 0.4812299 0.711489 0.22884104
farm 0.09613309 -0.24543725 -0.004923035 -0.039631117 0.6107 0.050483096 -0.28683457 0.39936328 0.48392874 0.12953267
end 0.17855413 -0.44332293 -0.10002149 0.003066307 0.8904291 0.065259464 -0.42668074 0.45483673 0.6433816 0.19439955
albani 0.11580106 -0.27864614 -0.0007588319 -0.0074765817 0.6907254 -0.01711951 -0.2834947 0.34377843 0.48040473 0.2195549
it’ 0.14148429 -0.4337702 -0.07761997 0.053684846 0.8104173 0.06485565 -0.35958847 0.4691413 0.5719538 0.25938106
everydai 0.1801082 -0.4068793 -0.045574155 0.08298858 0.8669513 0.04836765 -0.36511177 0.48338485 0.6488859 0.21321057
anytim 0.15964046 -0.29266775 0.02332981 0.053712524 0.694543 -0.019872779 -0.3524486 0.39456853 0.5325549 0.13184817
improv 0.063074425 -0.35261738 -0.14685066 0.014530004 0.83706576 -0.031794176 -0.36720526 0.55082554 0.50457907 0.18766096
bar 0.20705676 -0.40000907 0.007130617 0.069048055 0.9074731 0.04464925 -0.3237487 0.3958476 0.6106209 0.28835174
sparkl 0.17334919 -0.40916666 0.005049976 0.07021931 0.7629654 -0.025009386 -0.3523499 0.39636704 0.5500061 0.24334075
moment 0.14650828 -0.44414434 -0.063421674 0.03304344 0.8170293 0.017287286 -0.32044387 0.479423 0.65826434 0.18368788
formul 0.18088722 -0.41421482 -0.066782415 0.0744636 0.8799669 0.07788766 -0.31211385 0.5068386 0.68164915 0.27437016
us 0.16279724 -0.3424186 0.01652409 0.057070937 0.8615293 0.043846425 -0.36286175 0.43814018 0.6099156 0.19499272
tissu 0.18931101 -0.3721839 0.006872439 0.0010914622 0.8598841 0.010165889 -0.38500586 0.42654905 0.6781278 0.2219327
tea 0.12268748 -0.4240386 -0.071937904 0.0372107 0.79292923 0.07130046 -0.32245564 0.44822282 0.551966 0.20855516
varieti 0.113264225 -0.38291284 0.0016289131 0.010937885 0.8439283 -0.017554194 -0.37888825 0.48865494 0.582013 0.24170132
peopl 0.1617348 -0.35645542 -0.059318442 -0.037003852 0.81654686 0.095209934 -0.25859204 0.4464029 0.5842589 0.22677821
real 0.1564816 -0.4275807 -0.01670928 -0.006882432 0.78564763 0.10406311 -0.3248751 0.48169613 0.55622846 0.16795033
chill 0.21704845 -0.40542606 -0.070236504 -0.03996746 0.89228636 0.0447108 -0.30664387 0.45085913 0.60907453 0.23215605
chocol 0.13666804 -0.2957378 -0.08397331 0.05850203 0.75702804 0.051352084 -0.268437 0.43950868 0.4775219 0.14110391
germ 0.25280327 -0.39779204 -0.026970547 0.06580519 0.92276245 0.0490429 -0.41709724 0.49210307 0.6449124 0.19868799
mix 0.15847759 -0.4129068 -0.030668925 0.042541966 0.8011327 0.06250305 -0.26486284 0.47901484 0.5951927 0.19444147
nextra 0.14401294 -0.47834232 0.00041859673 0.101637 0.9813846 0.084679805 -0.4682146 0.48606214 0.7301305 0.24309516
cold 0.19851893 -0.42712063 -0.056227494 0.04515987 0.82213295 0.019991612 -0.33711708 0.42992297 0.6361559 0.2122507
flu 0.09567359 -0.3400813 -0.040877428 0.07587018 0.8728669 0.049038865 -0.36007854 0.40188834 0.5637267 0.20375508
side 0.17633468 -0.4781149 -0.094399415 0.046233878 0.9951257 0.002379332 -0.45577547 0.59080017 0.73497164 0.3291952
delic 0.13797931 -0.39157355 -0.053685617 0.13391303 0.91705585 0.061321117 -0.36727294 0.5071471 0.6504214 0.2723126
child 0.1567009 -0.46319425 -0.057638153 0.08419085 1.053871 0.0066922074 -0.3467544 0.5446873 0.69770867 0.2502895
sanex 0.15464613 -0.42039648 -0.028104898 0.031891152 0.8337673 0.055404462 -0.30712572 0.49223953 0.6219021 0.18854998
fresher 0.17305093 -0.25758842 -0.028306033 0.04525699 0.75842583 0.0131509295 -0.40650162 0.46972644 0.5812418 0.27648577
last 0.13323465 -0.36768824 0.016490793 0.029446693 0.8021029 0.07486214 -0.32781327 0.45148557 0.5231738 0.25218794
loav 0.10432527 -0.3736825 -0.1297369 0.011631525 0.66924685 -0.023582805 -0.34693637 0.48237103 0.43441197 0.21987887
import 0.14951165 -0.39748713 0.01767331 0.010686428 0.8929043 0.010102671 -0.31674683 0.4625005 0.7396696 0.288384
green 0.13036436 -0.37473622 -0.045580428 -0.00077027205 0.7928814 -0.0093160765 -0.29226804 0.47035274 0.55374354 0.21645331
remov 0.12427001 -0.4266482 -0.048117254 0.1069335 0.8255104 0.033356376 -0.4052167 0.4778225 0.6491264 0.28062284
baby’ 0.13428837 -0.3208237 0.0074116644 0.02475494 0.72275794 0.004574664 -0.28461665 0.3774695 0.489586 0.19108647
classic 0.18725504 -0.4148815 -0.017194012 0.011313492 0.8019427 0.08809556 -0.31985646 0.40570608 0.57775706 0.21043362
conveni 0.12758482 -0.2975497 -0.013807946 0.04829858 0.7906743 0.019097073 -0.31300902 0.4915195 0.526905 0.22377534
stronger 0.18641154 -0.3108423 0.02081378 0.08328645 0.64794004 0.04667806 -0.37229842 0.41336307 0.5051654 0.20105934
depth 0.12636486 -0.4797995 -0.03127136 -0.034796555 0.75347835 0.04986944 -0.4019325 0.42172283 0.5955782 0.24147964
finest 0.28113055 -0.39386874 -0.024046587 0.012313285 0.9104042 0.121228814 -0.327134 0.5263368 0.700821 0.22529197
volum 0.1495018 -0.34628594 -0.049545877 0.023859316 0.7989835 0.01659582 -0.35998797 0.5265671 0.5557636 0.17538534
nnot 0.16973315 -0.42950058 0.018307382 -0.004069146 0.7549629 0.061123285 -0.286408 0.49127844 0.58528113 0.25748637
sale 0.20767626 -0.4346849 0.014890712 0.07723191 0.74922305 0.021174772 -0.3030252 0.39381322 0.60003227 0.2641845
person 0.101842254 -0.3817531 -0.0098178 0.05703053 0.70479405 -0.014263688 -0.31175628 0.36519253 0.5700033 0.24908563
cleans 0.14772679 -0.41177854 -0.051424842 0.05676843 1.007396 0.10482945 -0.3084086 0.60623485 0.6957688 0.19405933
soup 0.1601089 -0.41882053 -0.081873 0.022667974 0.77406085 0.08015173 -0.36754972 0.44452876 0.5918193 0.1704851
nfree 0.24208438 -0.461029 -0.043687575 -0.08322968 0.89919084 -0.028853515 -0.41865587 0.49130678 0.7133139 0.18147676
roam 0.26530367 -0.43378392 -0.0070935735 -0.04804569 0.97995293 -0.08326702 -0.34472612 0.5628891 0.70087314 0.1172163
stimul 0.19929715 -0.4251026 -0.09901127 -0.16969395 1.0377636 -0.106975794 -0.3841629 0.5490572 0.808299 0.12856743
shell 0.12637033 -0.2297766 -0.06774859 0.024054512 0.61857384 0.0090130875 -0.2554939 0.39809206 0.41489992 0.17167705
paraben 0.2315774 -0.5345414 -0.1394509 0.10133889 1.0014124 0.135494 -0.36448616 0.55464137 0.7163062 0.25809792
base 0.17077282 -0.40138817 -0.04715352 -0.017310727 0.751153 0.023036635 -0.2951361 0.42923015 0.58992076 0.19334279
home 0.197979 -0.34574375 -0.045370016 0.014008087 0.81114376 0.037775613 -0.33009058 0.46088755 0.6276979 0.19802901
stai 0.117917344 -0.28223208 0.024375202 0.015735356 0.77415484 0.056216624 -0.3729576 0.4636482 0.5719122 0.25385517
kilojoul 0.062355433 -0.28254664 -0.033288505 0.04931317 0.723503 0.0510935 -0.24810322 0.30978054 0.43156806 0.20584178
expertli 0.12096485 -0.3643135 -0.026818968 0.052630525 0.74090993 0.0020151506 -0.32807383 0.3538076 0.5481631 0.22697039
make 0.16361742 -0.33927172 -0.08385163 0.057062145 0.7972908 0.043148424 -0.28807452 0.4470125 0.5487223 0.23798117
celebr 0.124683104 -0.32476145 -0.01930172 -0.001937256 0.69585943 0.07739843 -0.23757586 0.39846712 0.42350122 0.19910142
except 0.063056044 -0.26279128 -0.0142057175 -0.029787863 0.50929075 -0.031792518 -0.22790931 0.30006436 0.30772716 0.16433038
drawn 0.14923742 -0.31268588 0.0026883152 -0.036653265 0.6446291 0.008883019 -0.21737187 0.30226338 0.45960087 0.18063971
underground 0.10493968 -0.2647318 0.018828196 -0.024491988 0.6378131 -0.048989546 -0.23150496 0.2985509 0.42958447 0.14986779
give 0.19069901 -0.40541115 0.015845008 0.09741873 0.8352626 0.0818694 -0.3699486 0.39883342 0.5507461 0.21390939
fill 0.22229673 -0.3344205 -0.046957016 0.03250175 0.80092734 0.032485425 -0.307786 0.40901807 0.6120685 0.23955822
readi 0.11461572 -0.32808322 0.007547263 0.08756206 0.7380215 0.022833731 -0.33408666 0.36337948 0.53061724 0.1561677
know 0.18330388 -0.37613115 -0.025432738 0.02036484 0.7202782 0.07069683 -0.34550387 0.47143888 0.48864415 0.23332687
littl 0.21395974 -0.40742257 -0.08004595 0.057538096 0.79924816 0.08955474 -0.36185807 0.46913424 0.61896235 0.1515677
thing 0.16470747 -0.44625133 -0.05128043 0.07895519 0.8434969 0.08604281 -0.31775922 0.486992 0.6547545 0.15353821
medium 0.18298234 -0.2874332 -0.015917862 0.0070993397 0.716255 0.043583512 -0.3028769 0.3425993 0.47680938 0.20131178
spici 0.21514627 -0.40101162 -0.06863946 -0.009505571 0.66257566 0.11766507 -0.3949857 0.5013482 0.61248475 0.1543765
complement 0.18457484 -0.450165 -0.063955314 0.060577355 0.7412477 0.038624108 -0.35558292 0.5299483 0.6558117 0.2719143
kiln 0.1559906 -0.41774422 -0.0018085844 -0.011880491 0.8856478 0.008748725 -0.3392909 0.4845013 0.7103389 0.27806398
dens 0.17980912 -0.4550335 -0.020942545 -0.01604475 0.7389226 0.10048447 -0.40036964 0.49340346 0.58376324 0.16140932
head 0.19599634 -0.37745783 -0.040108543 0.012873811 0.79421365 0.04003535 -0.35321113 0.39577726 0.58147514 0.15277132
straw 0.17669354 -0.3801934 -0.045133714 0.019328548 0.6635881 0.09918098 -0.38712534 0.47417432 0.5854802 0.1352739
characteris 0.12864882 -0.30868053 -0.051382206 0.013797452 0.6075475 0.047368973 -0.26437438 0.39528677 0.4331835 0.20472147
linger 0.17787462 -0.40214163 0.00587267 0.048062567 0.6963997 0.015303536 -0.36214966 0.3986238 0.57518405 0.23219076
castl 0.16519278 -0.3097298 -0.023036722 -0.0001335498 0.6734452 0.028816853 -0.26882374 0.35335135 0.50835454 0.17732097
combin 0.2372101 -0.43179193 -0.062640674 -0.048129357 0.8140102 0.016391413 -0.38881892 0.5173096 0.64671683 0.22821823
pure 0.15707906 -0.34161338 -0.08123709 0.030262535 0.709554 0.007090334 -0.25919342 0.39888597 0.49110427 0.18762244
valu 0.10536159 -0.41699934 -0.061906137 0.05198039 0.8097096 0.09135103 -0.2499287 0.42166948 0.56460285 0.22137345
bag 0.12822951 -0.3742367 -0.019158145 0.061893404 0.8595634 -0.00978231 -0.31584916 0.4922979 0.58304304 0.23061168
tradit 0.2188744 -0.35385275 -0.06205998 0.015116319 0.89291865 -0.032686867 -0.38407007 0.48915038 0.6037005 0.25719863
powder 0.1600126 -0.40927964 -0.017208993 0.043664277 0.9091984 0.10592717 -0.3934539 0.49523488 0.6426223 0.24709114
cooler 0.13532539 -0.3283635 -0.037114702 0.07689414 0.65570563 0.07136406 -0.32280436 0.41363978 0.53486633 0.18237537
nivea 0.08530044 -0.3749324 0.011957822 0.082465865 0.77096325 0.037008148 -0.25833637 0.39273548 0.46292442 0.20005137
shower 0.11927121 -0.43593043 -0.020004416 0.081903644 0.9314602 0.012943102 -0.30559152 0.55161947 0.68161976 0.21875188
foam 0.17340903 -0.42781973 -0.11311613 0.106980264 0.94801915 0.11094042 -0.38024467 0.6043756 0.6498877 0.20505944
trust 0.2148301 -0.42604187 -0.010072107 0.010719982 0.8424588 0.052381895 -0.37661293 0.5052987 0.6292274 0.22948393
gel 0.18107094 -0.4205627 -0.00052048033 0.110441856 0.81552273 0.028081696 -0.3093717 0.43665105 0.55081046 0.21009587
better 0.15043548 -0.34834188 -0.019858105 0.051270563 0.7637189 0.06638677 -0.25720063 0.41866037 0.49365845 0.12962885
prevent 0.13204211 -0.3751649 -0.018805973 0.090565205 0.77297807 0.043877903 -0.33529773 0.4120091 0.6024396 0.20106354
leakag 0.1242865 -0.43926632 -0.05163227 0.064722665 0.98357713 0.061019123 -0.36020947 0.4975308 0.66263217 0.23944773
amaz 0.1213456 -0.33479422 -0.045172103 0.044221494 0.643363 -0.021469723 -0.30538434 0.36794832 0.45789796 0.13248444
treat 0.12943208 -0.3637889 -0.07173775 0.06665424 0.6948841 0.06850469 -0.26504678 0.4328589 0.4974301 0.21557464
cook 0.13910192 -0.40166265 -0.05171116 -0.057529066 0.8665748 0.035159145 -0.36899668 0.44422773 0.58147866 0.1395372
brutal 0.1467383 -0.32251135 -0.023688748 0.017677292 0.62266886 0.053180974 -0.2671564 0.31597853 0.4255975 0.21224827
spritzer 0.17411695 -0.40489298 -0.09609972 0.028856877 0.7857252 0.0047670314 -0.37569353 0.42350107 0.5245034 0.27739328
ingredi 0.09847023 -0.3347802 -0.06868361 0.056455355 0.7085684 0.08662221 -0.2679182 0.40334964 0.50985557 0.19095054
toothach 0.0906589 -0.35356465 -0.0486611 -0.019084476 0.78331566 0.11605668 -0.3699244 0.39103073 0.49050924 0.25361034
coffe 0.1968921 -0.3795725 -0.051219486 -0.0022250507 0.663685 -0.0049637193 -0.3346239 0.39045364 0.5430021 0.20861411
spread 0.2037043 -0.36249015 -0.017253103 0.07199872 0.77112603 -0.014044992 -0.30832052 0.44123235 0.5934453 0.25017107
household 0.16058002 -0.38115394 -0.0029059635 -0.034394775 0.7315216 0.065542184 -0.32243127 0.34451067 0.56128347 0.18594033
need 0.13898969 -0.4053095 0.0030257693 0.053372428 0.835628 -0.0022912207 -0.38097444 0.40543458 0.588159 0.17409699
braai 0.1469213 -0.36122528 -0.079605065 -0.04385777 0.86161345 -0.041798007 -0.32940906 0.4656861 0.62587065 0.13063644
eat 0.16366047 -0.3319007 -0.026159447 0.009163061 0.9132545 0.0067351013 -0.31237146 0.42188781 0.5767166 0.1693867
fragranc 0.18336305 -0.37784797 -0.016406205 0.06651522 0.76582575 -0.014065643 -0.3164551 0.45060408 0.52054495 0.15958084
essenti 0.124855556 -0.39430073 -0.01642617 -0.0027063359 0.8882004 0.010289936 -0.32772717 0.5340397 0.6540738 0.19793974
rice 0.2157895 -0.41366115 -0.04253517 -0.011786721 0.86960256 0.07458942 -0.38500094 0.50842434 0.64831215 0.20477538
liqui 0.19370064 -0.3886371 -0.018320743 0.0048252284 0.7397311 0.062253073 -0.26182437 0.38496533 0.48063144 0.23698378
grade 0.15808406 -0.21012728 0.031824123 -0.012470717 0.59044266 0.014428656 -0.18538105 0.34203982 0.3550797 0.17110825
hydrat 0.14116773 -0.44468585 -0.050580807 0.042767476 0.90179783 0.063810974 -0.39987406 0.53848916 0.61868507 0.19953914
spong 0.1528473 -0.1920156 -0.016632378 0.06412403 0.48846266 -0.024279268 -0.25436294 0.31750563 0.35054663 0.08191494
cake 0.063964464 -0.19234143 -0.066571705 0.037898567 0.49042803 0.029019168 -0.24062964 0.28579876 0.34586805 0.118851736
nfeatur 0.1832922 -0.30832464 -0.05926578 0.068299435 0.7624118 0.08976197 -0.34061515 0.40857193 0.5831096 0.2182972
handl 0.1537963 -0.33735523 -0.03483844 -0.0024493698 0.69700193 0.040311627 -0.3009977 0.32785273 0.46856824 0.201046
technolog 0.1879752 -0.36073282 -0.037383217 0.093026884 0.7174193 0.0331141 -0.33971444 0.40243524 0.48862237 0.20051184
multigrain 0.1046589 -0.30728373 0.0052716425 0.040354814 0.7515408 0.006421201 -0.24066342 0.38451234 0.51523095 0.19344121
mind 0.11397784 -0.2760739 0.027850028 -0.013170258 0.6413486 0.01822903 -0.2891766 0.31001425 0.43679047 0.15787785
understand 0.12670936 -0.33309355 -0.030250037 0.052583605 0.8313104 0.035770223 -0.34284598 0.47632936 0.5520556 0.23690669
barrier 0.17979048 -0.45249498 0.0004094795 0.016415387 0.9301328 0.037098706 -0.38132396 0.5401414 0.66105455 0.29665807
distinguish 0.08804066 -0.35900816 -0.026379537 -0.0088689 0.67864907 0.07942083 -0.28997335 0.3777513 0.43991324 0.17232856
luxuri 0.1597522 -0.3232748 -0.0600427 0.024550762 0.7800807 0.009751605 -0.33268133 0.43563992 0.5961796 0.2549849
biscuit 0.15722813 -0.33941576 -0.068119325 0.0709754 0.63580024 0.03320643 -0.24975935 0.33940294 0.5025698 0.12295285
favourit 0.14682823 -0.24451202 0.0059346985 0.052088026 0.6718778 0.05076486 -0.25876212 0.3909484 0.44455892 0.17474131
meat 0.12965201 -0.3199027 -0.07082397 -0.015109083 0.66031086 -0.016510697 -0.3110731 0.3709892 0.45233083 0.13436113
enhanc 0.15668577 -0.34401956 -0.03801191 0.081441134 0.7654612 0.022937195 -0.30160856 0.41788 0.5824971 0.22453934
breakfast 0.12233725 -0.31547666 0.004970105 0.025760088 0.5868186 0.07421966 -0.2902339 0.29739645 0.4603788 0.19364919
ideal 0.1422857 -0.29863548 -0.005954792 0.017071659 0.7510401 -0.010759679 -0.27213553 0.3798794 0.5167514 0.1694329
tropic 0.17932375 -0.32538876 0.0002843077 0.008273567 0.69364375 0.053484615 -0.3048066 0.41183656 0.492576 0.13300401
splash 0.0845303 -0.37196538 -0.031727925 0.062470898 0.71563715 -0.0041251485 -0.28537208 0.4332343 0.44859892 0.21914497
honei 0.18006529 -0.30980745 -0.006686626 0.008767695 0.7313231 0.05232452 -0.28672287 0.47935474 0.5918451 0.17674188
serv 0.124231555 -0.37596604 -0.07053771 -0.019651797 0.7276684 0.03836616 -0.30101737 0.4510374 0.5126091 0.16533813
corn 0.17478319 -0.4011373 -0.061780732 -0.023972807 0.7907852 -0.012724484 -0.2745987 0.48066458 0.5703515 0.18995278
light 0.08757719 -0.34760335 -0.042777788 0.067757964 0.70970047 0.05023136 -0.20394886 0.32465997 0.45077202 0.16804808
ensur 0.16269532 -0.41550562 0.013969222 0.08073154 0.8361482 0.05499992 -0.32066754 0.48938993 0.5886772 0.20739754
bui 0.11441025 -0.29696256 0.014160989 0.076697 0.71194017 0.08089222 -0.30005285 0.4329465 0.45050496 0.16700716
nmax 0.10929541 -0.39488196 -0.050143026 0.021438066 0.69522727 0.10974272 -0.22504157 0.30899733 0.55245167 0.21906976
onlin 0.13874702 -0.3350316 -0.022464268 -0.0075083016 0.6443946 0.085049026 -0.29883122 0.36765477 0.42362753 0.1588311
order 0.06397212 -0.30503464 -0.0054438766 -0.024922965 0.5926794 0.078833185 -0.18080483 0.34197992 0.36909854 0.12578587
fun 0.17737377 -0.3133967 -0.076540284 0.039112706 0.685787 0.07449353 -0.33402982 0.42779624 0.5378371 0.23536225
hour 0.17644876 -0.38527092 -0.02778756 -0.014490565 0.85665786 0.010146587 -0.4076922 0.4435366 0.6313424 0.18331347
fish 0.16878621 -0.35486943 -0.0056637265 -0.0066362433 0.7881719 -0.003563514 -0.32903764 0.43159753 0.55752885 0.17206639
aromat 0.12180081 -0.29733306 -0.0051805684 -0.00041328894 0.6491139 0.023874635 -0.24165203 0.37365323 0.47844413 0.21032824
like 0.12485856 -0.37887645 -0.00922187 0.048221566 0.69853497 0.08047756 -0.25040033 0.44057873 0.47240803 0.22294128
clear 0.112946905 -0.35071072 -0.07181063 0.050736044 0.71175057 0.0800158 -0.30033478 0.43415302 0.5287996 0.14625682
nup 0.12930065 -0.39184928 -0.07930824 -0.034717932 0.82861936 0.05582384 -0.3702158 0.486578 0.6520187 0.24782515
knorr 0.093794085 -0.3165747 -0.029656505 -0.009729595 0.61430264 0.057786234 -0.27182317 0.40625438 0.41277522 0.19810282
butter 0.09284985 -0.3296524 -0.04496682 0.013034135 0.74511164 0.019571895 -0.29761556 0.3953502 0.4559696 0.18611394
scent 0.1015492 -0.334233 0.012959663 0.028543722 0.8266931 0.08375464 -0.34892964 0.46130788 0.6174677 0.27814764
wet 0.20474802 -0.43407315 -0.046699066 0.057190917 0.89237344 0.069078304 -0.43798319 0.55752444 0.72029483 0.22297733
distribut 0.19600612 -0.37073392 -0.087807044 0.0072357357 0.9236346 -0.0018575606 -0.46430513 0.5272138 0.642317 0.2816491
evenli 0.17506932 -0.35642612 0.011516066 0.001960342 0.91253585 0.037177943 -0.44062057 0.44972932 0.6966778 0.23065971
nwet 0.22178005 -0.38338643 -0.09925002 -0.0036658875 0.87875736 0.091965474 -0.41076326 0.5399445 0.7004908 0.23707171
indic 0.14644758 -0.43119788 -0.09695347 -0.016391443 0.9334627 0.03669574 -0.418636 0.46690756 0.6732573 0.2048595
stretchi 0.11814838 -0.438359 -0.0750055 0.04886142 0.8641894 0.03582747 -0.38975418 0.50871545 0.58853835 0.19750027
fit 0.10956398 -0.38774455 -0.03206429 0.08697065 0.8960236 0.06328282 -0.36832124 0.49285433 0.6116807 0.19538534
nsilki 0.16065256 -0.33969307 0.0069315396 0.026285922 0.7946067 0.046663787 -0.4010721 0.42701697 0.63181365 0.19821599
biom 0.1637716 -0.37020314 -0.099582225 0.008525269 0.7969999 0.08955904 -0.25104517 0.48206925 0.59222835 0.21665064
gentli 0.18501973 -0.4006228 -0.041565325 0.09678815 0.99726 0.07169039 -0.29569766 0.5687504 0.63969564 0.17685784
sunlight 0.1901859 -0.43173248 -0.0011720683 0.062153913 0.8342402 0.059539635 -0.33810544 0.42260876 0.6438093 0.1822304
power 0.11382334 -0.25550678 0.0057321773 0.07745557 0.6309168 -0.0067952145 -0.28603578 0.39149016 0.3970783 0.18295462
materi 0.20639546 -0.31880093 -0.035398655 -0.01730751 0.7270565 0.07744636 -0.34930432 0.4432843 0.5122767 0.16835003
innov 0.17906709 -0.31595477 -0.06635907 -0.023593988 0.7219776 -0.016746907 -0.30264375 0.3449785 0.4625749 0.19387026
rooibo 0.1710546 -0.31098303 -0.078138426 0.03701989 0.5925772 -0.0067913183 -0.21485746 0.37443623 0.4219365 0.20160255
heart 0.081833325 -0.29253048 -0.023478579 0.02349562 0.61761105 0.020478774 -0.22013523 0.38250357 0.44343445 0.22784132
ultim 0.16100271 -0.22170462 -0.041631218 0.051290438 0.5727138 -0.008104198 -0.18732698 0.3126465 0.41286093 0.17077245
smart 0.12751642 -0.29971123 -0.019319488 -0.021293784 0.6827465 -0.018260665 -0.29471087 0.41086861 0.43954846 0.18536586
choic 0.13247421 -0.23154575 -0.008071666 0.010318767 0.6284191 -0.008734386 -0.26963863 0.31993207 0.45077893 0.1782666
roll 0.15276659 -0.21722679 -0.0434328 0.013561558 0.66377753 -0.015011686 -0.22554761 0.3611745 0.47733125 0.18984991
variant 0.14812389 -0.24030204 -0.055479914 -0.03501879 0.6113326 0.033736717 -0.3280669 0.3833862 0.5297974 0.11738073
wholewheat 0.14363918 -0.25349915 0.017301288 0.021274295 0.59310734 0.011287514 -0.27813056 0.37115192 0.4843431 0.19966483
extraordinari 0.13583565 -0.3218711 -0.07664464 0.07880396 0.70461917 0.064727284 -0.23523533 0.33384973 0.51985353 0.12694827
strength 0.091818236 -0.27385226 -0.010163442 0.091448426 0.61841327 0.078347936 -0.2984562 0.35021803 0.40103364 0.20812228
irresist 0.08938982 -0.31222004 0.008493443 0.032214917 0.6588489 0.046322823 -0.23135471 0.36717132 0.4835796 0.18728442
mash 0.11923221 -0.35189965 -0.05790704 0.022251997 0.67004746 -0.032461606 -0.21885794 0.36286435 0.48238152 0.14851272
look 0.1202819 -0.24672265 -0.06446392 0.012998729 0.5545947 -0.004363583 -0.23122644 0.33707866 0.45505708 0.12875672
especi 0.16670497 -0.40782335 -0.07890007 0.079305366 0.75376695 0.033548966 -0.3632138 0.41599062 0.58061004 0.19397688
nbonaqua 0.09567678 -0.1766519 -0.054790504 0.04336239 0.41733518 0.022647562 -0.22344345 0.24597992 0.29510707 0.15138692
beverag 0.078242496 -0.28743774 -0.052205898 0.02716656 0.64392376 -0.016791718 -0.26565236 0.37872374 0.4599878 0.17992431
bon 0.17311953 -0.32984394 -0.0028888008 -0.015346803 0.7144281 0.03349028 -0.22419272 0.34849986 0.42109767 0.1423172
aqua 0.13643952 -0.31966802 -0.035718597 0.018326223 0.631842 0.07066446 -0.19172099 0.3862991 0.40874723 0.15074125
french 0.06928867 -0.2875507 -0.037068926 0.05133369 0.59528846 -0.0047239247 -0.18546265 0.31062543 0.41749987 0.14612676
bonaqua 0.06708269 -0.15525648 0.010086513 -0.004910407 0.4127975 0.0056435284 -0.1891852 0.27800933 0.3038235 0.12804858
finish 0.21144307 -0.38561758 -0.03581085 0.028022913 0.81259227 0.058430497 -0.37345102 0.45843473 0.6031849 0.18474104
effervesc 0.090102375 -0.3553488 -0.08372255 0.025519907 0.6607745 0.0709709 -0.21273208 0.36812997 0.5137691 0.13885225
right 0.08479062 -0.33562773 -0.014230561 -0.00769068 0.6780759 0.009414682 -0.21981637 0.33412158 0.5140858 0.20030023
orang 0.17691413 -0.32761976 -0.08823907 0.054381218 0.70953286 0.025987793 -0.25935042 0.35706425 0.52395713 0.18801387
tablet 0.10434095 -0.34605762 -0.04561036 0.039392497 0.72139144 0.09622488 -0.31609067 0.33774903 0.46592543 0.18160151
carbohydr 0.11867942 -0.35270023 -0.027375523 0.025889117 0.7503297 -0.0037057532 -0.26045522 0.40645123 0.5349522 0.22383814
juici 0.07044718 -0.19073379 -0.0048755254 0.017161505 0.5313438 0.06028583 -0.20683296 0.26850742 0.4131416 0.103051215
live 0.1551485 -0.3761349 -0.046300843 0.022696238 0.6858783 0.040604156 -0.2346581 0.36088634 0.54394156 0.16475672
aftertast 0.09840948 -0.35281026 -0.045724127 0.010063714 0.6709999 0.063519225 -0.3277773 0.37541768 0.47082788 0.14690234
air 0.1960794 -0.32161808 -0.011039022 0.022064017 0.77405775 0.016205328 -0.31251866 0.39375535 0.6048338 0.26180902
sure 0.13148537 -0.2365689 0.0392965 -0.008470037 0.6679644 0.077726126 -0.3098493 0.38267982 0.4192111 0.113922976
toothpast 0.11266716 -0.36992493 -0.05493617 0.028316598 0.76766694 0.016450081 -0.29274234 0.3695787 0.54516816 0.24896349
deep 0.2054976 -0.38493666 0.013047282 0.04623652 0.7726708 0.06810672 -0.3463205 0.41185758 0.57021606 0.24190295
year 0.13739489 -0.33312586 -0.03692046 0.0154399825 0.6893031 0.051858366 -0.31305468 0.37163123 0.47787544 0.15492688
dove 0.092767596 -0.28682938 0.02597532 0.0073703746 0.5655839 -0.028714048 -0.18765539 0.32032892 0.41807073 0.1222309
beauti 0.1075207 -0.30463293 -0.074756734 0.06633199 0.6365329 -0.035943396 -0.19211498 0.34449115 0.49226713 0.14542373
nwash 0.12467972 -0.3154296 -0.04233926 0.09039104 0.7752696 0.02209162 -0.28006744 0.3998175 0.5308123 0.18324523
frequent 0.14295757 -0.39408872 -0.009510397 0.07265588 0.7385008 0.016573805 -0.3450407 0.34901398 0.596312 0.20113842
defenc 0.16006346 -0.3634421 -0.030498676 0.046186227 0.7327797 -0.009642758 -0.33744675 0.3569516 0.51007366 0.16197099
accord 0.17565797 -0.39920133 0.010070824 0.0034291297 0.8358315 -0.012451142 -0.30769095 0.4138789 0.57924 0.18355593
organis 0.20783788 -0.33958623 0.020388039 -0.020016642 0.7494524 -0.00036548846 -0.30375716 0.4270806 0.5611937 0.15338121
nation 0.1583578 -0.33271003 -0.009344091 -0.045765925 0.7151972 0.03891946 -0.3410437 0.4626362 0.48359665 0.14115474
institut 0.15389815 -0.29156417 -0.066992305 0.020419413 0.69642407 0.0016884301 -0.338754 0.42636573 0.47079888 0.18252245
communic 0.09267961 -0.30565828 -0.02960529 0.022333771 0.6333606 0.06649661 -0.26698625 0.3526003 0.43827143 0.19442199
diseas 0.10412642 -0.25850096 -0.057327785 -0.037197847 0.5504204 0.0043962793 -0.2265258 0.30627707 0.4036088 0.14734955
smoother 0.13727309 -0.2962878 -0.0019881353 0.072143614 0.7031649 0.012140795 -0.2977865 0.36207938 0.4921797 0.15212056
salad 0.16657558 -0.28291556 -0.026892792 -0.024397615 0.6347091 0.015310026 -0.23336536 0.40289137 0.4330959 0.20113474
grain 0.15926826 -0.2849436 -0.06882071 0.0029280414 0.7031781 0.04660378 -0.27797207 0.4231684 0.54274964 0.14427717
cattl 0.19480783 -0.26395163 -0.059268314 0.05559646 0.76092595 -0.025307864 -0.28752527 0.36693454 0.5171343 0.23529902
contribut 0.11269648 -0.35295334 -0.069917 0.06801707 0.8124676 0.02091908 -0.35153297 0.37306127 0.576315 0.22884332
yellowish 0.15404081 -0.30112374 -0.03746526 -0.030846804 0.80939186 0.024835365 -0.31383157 0.3924924 0.5473658 0.13608994
appear 0.09929343 -0.26383895 -0.061094288 -0.040142544 0.7383822 0.050490662 -0.28121936 0.371997 0.5034918 0.22706689
stew 0.10341042 -0.31540006 -0.037587095 -0.024912458 0.6333239 0.011096484 -0.21402708 0.3075282 0.4092414 0.17826386
nguarante 0.20141089 -0.35258064 -0.040063087 0.018688442 0.8666753 0.005295692 -0.29233822 0.4548025 0.53498906 0.20411827
max 0.18661408 -0.362164 0.006805603 -0.034742832 0.8461449 -0.0033528488 -0.25446528 0.42120144 0.567684 0.17643777
food 0.17533714 -0.32411334 0.002866458 0.072945796 0.7084915 0.006766421 -0.34434262 0.37828058 0.49031886 0.17111266
pork 0.112705946 -0.3388751 -0.012193179 -0.03263183 0.7333219 0.027690541 -0.32569918 0.4274191 0.541531 0.22251523
true 0.19690917 -0.35269 -0.041306686 -0.04795099 0.7251198 0.047600184 -0.25944132 0.39566964 0.56547487 0.17855716
saaz 0.1620556 -0.42158195 0.03411939 0.04165879 0.82440007 0.034849335 -0.2652552 0.43787476 0.5765255 0.17570099
czech 0.19601384 -0.41811526 -0.06949824 -0.014451716 0.8074759 0.0719614 -0.3247258 0.42334223 0.6144218 0.1790308
republ 0.14695948 -0.4055098 -0.025199935 -0.02682459 0.7848544 0.08558359 -0.31172952 0.4371146 0.69765335 0.1791797
respons 0.18853092 -0.40106013 -0.06444019 -0.046645157 0.76895386 0.03383636 -0.37601262 0.4596789 0.66306216 0.1514129
hansa’ 0.19773966 -0.4007473 -0.058350462 -0.06758995 0.83721554 0.064831324 -0.31779662 0.41283625 0.6383243 0.18475723
importantli 0.23272088 -0.37445444 -0.007919707 -0.010149696 0.8240239 0.096214466 -0.39106235 0.44395444 0.58523947 0.15234819
flavoursom 0.1945166 -0.22694726 -0.021751655 0.012410481 0.5809782 0.048312742 -0.17185572 0.29725674 0.3873684 0.1839281
intens 0.15764979 -0.35284853 -0.06265716 0.07423109 0.6189474 0.04102282 -0.2517203 0.31108403 0.47332492 0.16834773
kellogg 0.12655367 -0.38425282 -0.07471956 0.064852834 0.6840156 0.034226317 -0.24606396 0.4404227 0.523639 0.18097858
crunchi 0.10769634 -0.27038297 -0.0690909 0.01456391 0.5975981 0.00032556872 -0.21424393 0.34253907 0.4170769 0.10912472
season 0.11992569 -0.34242433 -0.058162667 -0.017283976 0.72918326 0.06617868 -0.3245165 0.35066164 0.5194105 0.14865385
supercharg 0.14694023 -0.3356407 -0.033186287 0.031863935 0.64824694 0.06266764 -0.25328624 0.37213266 0.46599087 0.15357819
fed 0.20451468 -0.31200498 -0.00412205 0.06610421 0.83463514 -0.012967702 -0.35582 0.42004067 0.5576109 0.18672168
cloth 0.19105838 -0.33465263 -0.031916227 0.06495512 0.72970414 0.06279401 -0.3496843 0.41855246 0.5814397 0.19603854
allergi 0.12472009 -0.3355971 -0.027246695 0.070915334 0.74714416 0.08639683 -0.35284588 0.3745431 0.5560879 0.22865245
pearl 0.13025662 -0.43632197 -0.055054158 0.068256706 0.8825624 0.029045427 -0.33710027 0.49606353 0.6060431 0.2593305
sleep 0.18109958 -0.3796755 -0.004149967 0.08741956 0.89486486 0.060141332 -0.37175265 0.49892956 0.6036247 0.18025427
flexi 0.15447123 -0.40714836 -0.087436944 0.07441142 0.85329616 0.03881187 -0.39679945 0.47623304 0.66131216 0.28066778
movement 0.13072537 -0.4322646 -0.061567146 -0.0056024333 0.8390181 0.0522785 -0.41351432 0.46919584 0.60953236 0.21283136
njumbo 0.19705337 -0.383996 -0.004660791 -0.0037511075 0.8162879 0.06908411 -0.4043166 0.44953424 0.67061937 0.21630302
nbreathabl 0.113523915 -0.31794834 -0.019844422 0.037853096 0.7074355 0.00041137566 -0.31414595 0.38028362 0.52044135 0.15938564
excel 0.2102135 -0.37015992 -0.08084686 0.020755088 0.8990859 0.0962167 -0.31661776 0.51978576 0.6273094 0.2076822
safe 0.06576316 -0.16870517 -0.06703489 0.018326256 0.39490443 0.06096182 -0.19581407 0.25280052 0.2936841 0.10594907
heaalthi 0.05362334 -0.19653693 -0.06945248 0.022464119 0.51245993 0.068299234 -0.20957074 0.2948815 0.3107373 0.14976662
hygien 0.15308987 -0.24704283 -0.039735187 0.054087713 0.57793784 0.06513497 -0.27942306 0.3504795 0.3486554 0.16398707
waterless 0.10734468 -0.27022907 -0.0025159772 0.062614344 0.5850058 0.018834522 -0.18555582 0.31300482 0.3589171 0.096583694
bristl 0.17760834 -0.2721472 -0.02811667 0.07406911 0.65190697 -0.016982581 -0.31057405 0.34260002 0.39267665 0.16923775
quick 0.12022232 -0.2800322 -0.00021120216 -0.012746222 0.5709676 0.073924914 -0.26707003 0.29435945 0.42306185 0.19262478
offer 0.11925474 -0.27664417 0.01730671 0.056630578 0.58258694 0.038877025 -0.22166032 0.30361673 0.36085117 0.19475055
lifestyl 0.12266295 -0.26098928 -0.06385706 0.008673128 0.530437 0.060383048 -0.258585 0.29873025 0.4393501 0.10738954
textur 0.13451639 -0.2736343 0.011807347 0.06430122 0.61114776 0.06660802 -0.27399397 0.33207643 0.3783282 0.15683116
rye 0.06983558 -0.29814836 -0.06622948 0.016035317 0.5877277 -0.015709573 -0.20390683 0.34805343 0.44677237 0.11496732
approv 0.11217583 -0.23870163 -0.07407386 -0.0045899255 0.62038994 0.024305508 -0.2782172 0.35824898 0.40498617 0.20333487
load 0.17220594 -0.29600337 0.018748274 0.0020392756 0.67040277 0.021456227 -0.280518 0.36803004 0.44970754 0.15948823
maxi 0.090285815 -0.2859842 -0.02152797 0.017550377 0.6309183 0.009099231 -0.3038455 0.29924706 0.42594188 0.1199035
produc 0.15468307 -0.26033378 -0.021685584 -0.007333584 0.5200375 0.05970176 -0.21390666 0.3208742 0.3943037 0.15800558
appletis 0.07279354 -0.2167649 -0.07793728 0.07647718 0.5549046 -0.028859649 -0.23195125 0.35402477 0.41203257 0.11052357
worth 0.0831882 -0.249412 -0.060139608 0.04832385 0.5992838 0.07118319 -0.19188266 0.32069454 0.41110247 0.14349353
healthier 0.07438432 -0.26227573 -0.015750429 -0.017332066 0.4844442 -0.010582658 -0.16337147 0.22500934 0.33907452 0.13414308
nourish 0.08914382 -0.31979272 -0.0038755692 -0.009999276 0.67789114 0.0445264 -0.23428944 0.3000327 0.48929167 0.19234377
suitabl 0.13466118 -0.34082535 -0.06996751 0.004929253 0.6685234 0.072712496 -0.3117763 0.4220879 0.50020653 0.21190695
toilet 0.065306544 -0.25212097 -0.05488596 0.04558279 0.48897535 0.011215448 -0.2313835 0.32329175 0.3943105 0.109007694
pillow 0.13356839 -0.28573537 -0.022786047 0.011799698 0.6056399 0.030710774 -0.25461456 0.37213752 0.47703227 0.15986992
confid 0.05702192 -0.15092994 0.0057503614 0.05511555 0.32426947 0.04272 -0.1232426 0.24049212 0.2854044 0.14531995
syrup 0.08100872 -0.27471617 0.014471651 0.0007669438 0.61517495 0.059421804 -0.22531758 0.3705111 0.40264186 0.10693826
baker 0.05529876 -0.23132537 -0.0021512208 0.0667161 0.48905277 0.021760391 -0.15819384 0.28382212 0.4034068 0.13294983
strawberri 0.089516364 -0.27237055 -0.035365503 0.047239326 0.49690968 0.0518518 -0.17963918 0.22639836 0.39109945 0.10311583
surfac 0.15246764 -0.3357099 -0.082153864 -0.014000124 0.75658405 0.07250849 -0.3001925 0.41408545 0.5069657 0.14776665
bowl 0.10038098 -0.3008552 -0.030459153 0.013227396 0.65282345 0.04633268 -0.25888506 0.40941298 0.5265309 0.15748128
vibrant 0.1161391 -0.27887172 0.014695794 0.043287132 0.58847237 0.031036615 -0.2876664 0.39417112 0.4636083 0.10829528
bit 0.15679571 -0.2314609 -0.07962774 0.006192926 0.56446004 -0.005386257 -0.23429087 0.3737009 0.43632498 0.1688519
women 0.07412184 -0.26750198 -0.069167435 0.037523374 0.58890516 -0.0107787205 -0.24177814 0.3190783 0.43286258 0.11559987
flake 0.11617173 -0.30302566 -0.03888897 0.030077355 0.62595046 -0.0051506553 -0.2956295 0.3860577 0.44764465 0.1405334
plu 0.1386057 -0.30815688 -0.06709461 0.06466984 0.6118114 0.013175065 -0.2131982 0.34058586 0.46201277 0.1712096
experi 0.13389876 -0.2813562 -0.07232906 0.051146016 0.49471062 0.0584965 -0.26371592 0.24814995 0.34865522 0.11724944
crispi 0.10099047 -0.23504326 -0.029824883 0.024543352 0.5093689 0.039427977 -0.24594834 0.3188984 0.3095805 0.1444422
get 0.15652767 -0.23762456 0.017546024 0.052327055 0.56108916 0.04336835 -0.26400533 0.31211454 0.36719772 0.1376969
want 0.11887912 -0.3293101 0.010513524 0.013581799 0.60732645 0.021959864 -0.29265565 0.33222455 0.42823768 0.1811688
ador 0.1420372 -0.29051825 -0.054610275 -0.04480765 0.5974868 0.006205029 -0.26450568 0.26797098 0.45649028 0.20835413
unrival 0.073888734 -0.17696336 -0.049399093 -0.031806964 0.3722209 -0.021795228 -0.21192093 0.20769171 0.30565152 0.11357997
uplift 0.09116486 -0.15490423 -0.047508106 0.039929897 0.36990815 0.045756254 -0.13198201 0.20387201 0.25979662 0.057723176
boerewor 0.122700185 -0.22118688 0.011066903 0.03588271 0.5240492 -0.00553516 -0.24085413 0.23556042 0.36961254 0.16821112
twist 0.10685421 -0.28420275 -0.04113903 -0.012292436 0.6703825 0.063874625 -0.31415665 0.38628003 0.4863646 0.2077044
stroganoff 0.09334276 -0.22605546 -0.06375594 -0.011697605 0.3967262 0.021122884 -0.21299617 0.24638353 0.33262312 0.0750438
slow 0.14113177 -0.2905923 -0.02756927 -0.034050204 0.7380293 -0.016816467 -0.27207032 0.37126943 0.4829943 0.20180903
ground 0.16685575 -0.3302384 -0.009315666 0.006090983 0.6856807 -0.024749434 -0.26778692 0.37493291 0.5030841 0.18246056
support 0.13400143 -0.36465448 0.017777288 -0.012695326 0.67727613 -0.0028645797 -0.33468568 0.34792742 0.54902345 0.18511336
multi 0.0968163 -0.37339902 -0.050518904 0.04945231 0.6737387 -0.0007011236 -0.3133784 0.35132027 0.52444834 0.16622692
come 0.18092819 -0.3243369 -0.06414527 -0.027416492 0.7678638 0.027326684 -0.28658885 0.46255592 0.53168064 0.19251446
cranberri 0.12712611 -0.3341871 -0.07915624 0.015504785 0.6083572 0.011376731 -0.30304205 0.4226803 0.43460894 0.16033916
exact 0.12395601 -0.3987786 -0.0055674566 0.020035302 0.76566654 -0.006895201 -0.3636904 0.4147534 0.5666044 0.16609438
ncontain 0.07432546 -0.2860072 -0.0282 0.0009916152 0.65789163 0.010587759 -0.2892476 0.37519464 0.50127316 0.18462841
cocoa 0.08544303 -0.244237 -0.024490688 0.012197889 0.5527919 0.04324581 -0.2301429 0.3367512 0.42077222 0.1469581
lotion 0.17638186 -0.36136115 -0.04034285 0.02474878 0.7340581 0.054610632 -0.28299168 0.41879648 0.45389438 0.20598015
multipl 0.1265066 -0.3023541 -0.010777775 0.07647117 0.71554255 0.016214605 -0.32409945 0.41456753 0.53079087 0.22949883
softest 0.16220999 -0.29035002 -0.05820653 0.060935974 0.7049379 0.06917855 -0.3045083 0.36597034 0.48355803 0.2187628
runni 0.20352529 -0.35862067 -0.033717487 0.10172735 0.81992996 0.0035337845 -0.40019137 0.52507544 0.5868538 0.18648867
mess 0.19893329 -0.35752842 0.008959447 0.05951104 0.8292232 0.067772284 -0.42186958 0.5048395 0.6314374 0.19675042
nsoft 0.15611926 -0.34756887 -0.037546657 0.0544741 0.8044217 0.029500356 -0.36249083 0.51767486 0.59731764 0.25779817
channel 0.18915622 -0.28821996 -0.06771447 0.05715946 0.7229667 0.033506304 -0.3454897 0.36219522 0.5292871 0.15949693
incred 0.14301622 -0.29085073 -0.06845053 0.05933073 0.59543914 0.027451625 -0.18838121 0.3493886 0.36968127 0.13114055
level 0.13618006 -0.326725 -0.06958471 0.010266072 0.73762155 0.050147124 -0.34661126 0.40264982 0.55111396 0.22019026
brighten 0.15211263 -0.39009413 0.012104058 0.0049993447 0.7715371 0.033278354 -0.34896863 0.37524918 0.48917735 0.13038172
parboil 0.14919712 -0.34976637 -0.042969503 0.050345097 0.7512055 0.07503185 -0.35260794 0.3944362 0.58666265 0.24457006
type 0.1137245 -0.30406412 -0.016057156 -0.017955031 0.6566788 -0.012034084 -0.28065175 0.33222315 0.4302459 0.19133808
addi 0.052205853 -0.1471748 -0.0036674454 0.038930736 0.39134625 -0.022809673 -0.20512521 0.21179378 0.2629718 0.13790049
broom 0.08732963 -0.20987228 -0.048864335 -0.00012011906 0.5245013 0.06873364 -0.24175206 0.2738465 0.3243425 0.13251989
synthet 0.09125664 -0.29119495 -0.0008064915 0.044046946 0.5692026 -0.02005312 -0.23661287 0.3076726 0.38939378 0.17504981
includ 0.13774392 -0.19166571 -0.05280542 0.034956157 0.51295054 -0.023468962 -0.16682889 0.22923766 0.3774334 0.06859102
plastic 0.13615479 -0.25194663 -0.037210632 0.0108593 0.5209727 0.0052395565 -0.23197328 0.24808455 0.42178613 0.120709404
dimens 0.05685099 -0.19962208 0.022331512 0.021192582 0.5484665 0.074648365 -0.23380889 0.23935376 0.35098884 0.16077626
weight 0.121273845 -0.2107918 0.0247857 -0.009768156 0.402582 0.021258108 -0.1725891 0.17677657 0.2608116 0.09006904
comprehens 0.055113323 -0.15174802 -0.044882994 0.056608178 0.39334482 0.046039995 -0.135264 0.27764335 0.36014557 0.12894699
option 0.12509757 -0.20993413 -0.002230971 0.021564774 0.38746983 0.00993476 -0.11215383 0.24646752 0.26872748 0.055366866
consist 0.07381165 -0.1996456 -0.050530143 -0.024159368 0.509397 0.001650537 -0.17847304 0.28883848 0.33375525 0.097890235
slice 0.10767024 -0.2723209 0.022424113 0.04398869 0.5589626 0.037510492 -0.1809133 0.275435 0.3988546 0.10167892
meet 0.15619205 -0.27016973 -0.040179536 -0.014415734 0.58401704 0.024671303 -0.21136473 0.3189411 0.4486523 0.15753411
stroke 0.11133941 -0.27896923 -0.013553644 0.07118804 0.49419522 0.019953659 -0.20190258 0.30564842 0.361161 0.14039192
foundat 0.06711188 -0.2383101 -0.04191032 0.0056697275 0.5195424 0.012721905 -0.23430647 0.29694667 0.37092495 0.17302094
antioxid 0.115462705 -0.2581629 -0.020289548 -0.003253736 0.5670277 0.06054088 -0.25186995 0.28067312 0.38841796 0.12556085
night 0.1039908 -0.1454433 0.007190717 0.008163102 0.4375155 0.02158008 -0.18088326 0.21174383 0.2905274 0.14664431
outstand 0.11869108 -0.25848398 -0.055172935 -0.002751823 0.5845016 -0.0139526455 -0.2649768 0.37315407 0.43362638 0.17823939
virgin 0.085513614 -0.23218861 -0.06824261 -0.008083676 0.5415286 -0.015493065 -0.16823006 0.2986515 0.37361607 0.14819382
oliv 0.16276473 -0.299989 -0.078000665 0.048419677 0.63090074 0.008426671 -0.22818114 0.283396 0.39303356 0.15610759
sun 0.1252262 -0.21158116 -0.05962308 0.0028659957 0.5307175 0.06929298 -0.21330094 0.2631971 0.39622435 0.12713243
wheat 0.10335356 -0.24647236 -0.008872835 0.032982014 0.6398115 0.04592705 -0.24482505 0.3548391 0.38229486 0.18870267
mari 0.055191237 -0.2548561 -0.06330348 0.04278041 0.41895288 0.03528251 -0.19475657 0.23407486 0.32575274 0.07607912
tart 0.16038154 -0.26014596 0.015902426 0.052484218 0.5670707 -0.018515106 -0.18077898 0.30250216 0.3778443 0.1629754
wipe 0.15407033 -0.25106403 -0.048220202 0.06175989 0.5270909 0.027174206 -0.2462497 0.3230973 0.44945556 0.14815602
boost 0.12066256 -0.21938886 -0.060988754 -0.02548532 0.4770056 0.0035704966 -0.23496203 0.30702698 0.35352677 0.08125155
physic 0.13604972 -0.304209 -0.030205434 0.041434795 0.6070486 -0.01587406 -0.26255724 0.2889388 0.44897556 0.15831715
perform 0.07785342 -0.21043429 -0.02817604 -0.018013425 0.5135336 0.00804557 -0.18414178 0.26669973 0.3872693 0.11353226
blue 0.14198884 -0.26193604 0.0060869437 0.048913695 0.54914415 0.039921906 -0.22961444 0.31298894 0.41122317 0.17739668
infus 0.10864718 -0.26472062 -0.06354242 -0.022368409 0.64702505 0.01752127 -0.25402296 0.29454026 0.41618264 0.1130858
eleg 0.09828669 -0.2831616 0.028862739 0.06368855 0.5605124 0.037831683 -0.21450227 0.32153043 0.3425767 0.16391669
lead 0.083898015 -0.29766846 -0.05283582 -0.022642456 0.64614666 0.021320112 -0.31076437 0.31227133 0.46323296 0.12633467
tantalis 0.09747859 -0.25751185 0.023839777 0.005136355 0.57626194 0.07374814 -0.18021205 0.26086265 0.40966776 0.10541517
wink 0.1281873 -0.2592701 -0.015591165 0.0020726668 0.5838321 0.07042356 -0.1936178 0.287152 0.4066538 0.17606552
sensat 0.10339714 -0.21181318 -0.043476056 0.057784062 0.44687635 0.0043697376 -0.1800767 0.30310443 0.39117664 0.17016256
rubi 0.15744321 -0.25064933 -0.08107712 -0.025490658 0.5459805 0.0338599 -0.20175552 0.32514796 0.35654825 0.1657773
girl 0.111071795 -0.30104873 -0.011359601 0.019923193 0.57039225 0.051528476 -0.30714664 0.33355913 0.42003113 0.16447337
delightfulli 0.12623225 -0.24399179 -0.05211797 -0.025176447 0.5283459 -0.033720855 -0.28540576 0.3482298 0.3780256 0.15337555
zesti 0.07816378 -0.28031605 -0.061115194 0.027970403 0.5473819 0.0093295425 -0.19673884 0.26620966 0.40132695 0.11227527
grapefruit 0.09578119 -0.23458979 -0.04444446 0.023390193 0.5377494 0.010786168 -0.26538256 0.36061433 0.4491867 0.18960783
peel 0.10059707 -0.3032095 0.013158128 -0.039337344 0.58433616 -0.0090566985 -0.21717934 0.28780898 0.43399453 0.12009845
finer 0.11051815 -0.26332304 -0.021097561 0.043138012 0.5334491 0.038165707 -0.21435502 0.28479657 0.38469115 0.09080414
meal 0.11704078 -0.26359 -0.06588178 0.0623203 0.55085534 0.06929891 -0.2512535 0.2910875 0.39782855 0.18064938
pediatr 0.06907268 -0.23215082 0.007667616 0.020703988 0.4955274 -0.015239492 -0.15236238 0.2771882 0.29914325 0.15795559
sore 0.061708596 -0.22586174 0.013265474 0.04161858 0.55100137 0.06376598 -0.27539393 0.3399154 0.40989614 0.1094011
throat 0.09499524 -0.26130563 0.0066064745 -0.016299203 0.46610108 0.03542795 -0.16751865 0.23281638 0.35809195 0.14595246
calori 0.0381936 -0.19442745 0.014421901 -0.025368763 0.38729268 0.07601725 -0.21030365 0.19225249 0.34234703 0.06266445
dark 0.14724529 -0.2726124 -0.015197642 -0.020109989 0.6498758 0.050066963 -0.2907728 0.29779756 0.3916665 0.18337601
extract 0.16101745 -0.26254106 -0.038960535 0.051041663 0.5647547 0.0063846423 -0.20427832 0.32221675 0.41081396 0.16039321
enrich 0.12495567 -0.2665792 -0.034989346 -0.009252743 0.5691281 0.025787007 -0.2602003 0.31998354 0.4229626 0.11536434
trim 0.11598589 -0.24092904 0.01205912 -0.030111354 0.641798 0.03203961 -0.2710126 0.40001094 0.42658648 0.20286398
excess 0.16748069 -0.2982419 -0.056908138 0.045723177 0.61339927 0.03916406 -0.26477465 0.37280512 0.48261604 0.20204788
intak 0.09792162 -0.2863224 -0.0457247 -0.011728355 0.6547418 0.007364167 -0.2811784 0.38890225 0.49413 0.15454361
that’ 0.1726407 -0.36040005 0.01052775 0.06806357 0.66977847 0.0335469 -0.32379237 0.38952044 0.50668377 0.18457775
charcoal 0.13198942 -0.2841763 -0.025054887 0.014376753 0.57665646 -0.020133113 -0.20876321 0.278262 0.4285758 0.15308447
effect 0.18386565 -0.3419679 -0.07598768 -0.0113543905 0.6906254 0.01219339 -0.26282865 0.36871424 0.5346362 0.17266794
extrins 0.1643354 -0.23438281 -0.013989701 0.03664824 0.628576 0.01421235 -0.28989857 0.3057787 0.43880573 0.19304161
dinu 0.06586128 -0.30274966 -0.023347445 -0.03287749 0.56799424 0.014011738 -0.23366994 0.34483588 0.38452274 0.16378948
kill 0.16541295 -0.2686814 -0.013381567 0.012457665 0.56736237 0.0563449 -0.22502184 0.3297444 0.39077643 0.17429169
frozen 0.074885495 -0.256833 -0.029495941 0.0013649586 0.5701328 0.057485044 -0.19003035 0.32084343 0.37639508 0.12536383
lax 0.030612322 -0.14655097 -0.003956903 0.00372287 0.40202653 0.022461867 -0.19871512 0.25411874 0.31150323 0.058869682
constip 0.088065244 -0.20863165 -0.014241622 0.025541073 0.41513655 0.035337333 -0.16364226 0.17420773 0.28051904 0.07948277
tomato 0.07208043 -0.26201284 -0.0631802 0.05786579 0.62579775 0.025783982 -0.25060922 0.34511864 0.45072776 0.12962924
chees 0.073611684 -0.24053603 -0.007753552 -0.029065931 0.5155459 0.058563598 -0.22764142 0.2848965 0.33189708 0.090883106
sour 0.09461723 -0.22834691 -0.05093987 0.025307994 0.48072597 -0.037335865 -0.17738931 0.26085135 0.350136 0.06669635
normal 0.102027185 -0.16051228 -0.045140557 0.0403942 0.4346968 0.02542701 -0.19300766 0.27140036 0.31462097 0.10274724
break 0.109096475 -0.24213636 0.009789297 0.034768764 0.56216973 -0.011434418 -0.25705466 0.30574045 0.43226126 0.18679379
fly 0.0918786 -0.27812082 0.008209545 0.024414752 0.62486154 0.0524723 -0.26081914 0.3463693 0.45316118 0.15048063
enchant 0.16231145 -0.29371506 0.008125504 0.03986226 0.6018903 0.015379889 -0.28570464 0.36318335 0.47857407 0.14953987
tangi 0.13818805 -0.2692968 -0.018971134 0.006148591 0.6484964 0.075545244 -0.22586156 0.38901708 0.46779293 0.13733046
portion 0.1691821 -0.3178958 -0.008091171 0.053342268 0.6600038 -0.009552076 -0.22287527 0.34739074 0.40428105 0.20681308
bone 0.07973654 -0.23553598 -0.061768718 0.025447091 0.60698944 -0.025937384 -0.27822763 0.3522562 0.4475129 0.19399339
loin 0.113105275 -0.272269 -0.0073386445 -0.00371448 0.57441264 0.02458828 -0.17135198 0.29673195 0.39250237 0.10599879
xmm 0.06288772 -0.22991252 -0.012097205 0.059579413 0.38855588 -0.014777875 -0.17994343 0.20533074 0.30561346 0.15553774
nantibacteri 0.102335766 -0.2039916 0.0031229733 0.0483936 0.5848989 -0.017454715 -0.2457026 0.2546848 0.43524513 0.11417859
nconveni 0.1391209 -0.27495843 -0.061132304 0.008524844 0.5902528 0.026842196 -0.27730846 0.33863977 0.3703452 0.15717559
tie 0.120857306 -0.20434277 0.025718316 -0.021058414 0.5665129 0.011484191 -0.23901391 0.30014214 0.349616 0.10341938
share 0.0739204 -0.20807622 -0.0042682965 -0.0017002908 0.514496 0.018237805 -0.23678882 0.30793807 0.40420055 0.14120755
coriand 0.18554303 -0.3081396 -0.03364046 0.005191697 0.6509426 -0.0071286308 -0.25825784 0.36033115 0.4635382 0.1827508
grandpa 0.06727325 -0.23389898 -0.054442946 0.057247575 0.4203563 -0.0021611482 -0.18019766 0.25260317 0.30684912 0.16584177
recommend 0.088141665 -0.26298472 -0.029586617 -0.012843276 0.6551395 0.055426873 -0.28728855 0.36732548 0.38725936 0.14685784
symptomat 0.114114165 -0.26928437 -0.048348982 0.020374786 0.71791154 0.07915882 -0.228543 0.3209875 0.47466707 0.19912131
moder 0.11164878 -0.3428382 -0.0022037674 0.06867676 0.7247186 0.04257811 -0.33760357 0.3951363 0.4061965 0.19361159
hth 0.123068236 -0.29194486 -0.04969697 0.040084217 0.53982484 0.058885317 -0.24236691 0.33100292 0.40544572 0.09854989
pool 0.17149517 -0.2976595 0.007743716 0.06451829 0.62958336 0.042670343 -0.22163002 0.31881815 0.41101944 0.15758157
month 0.10771269 -0.23542789 0.031790882 0.05530314 0.5511318 0.0626524 -0.17952244 0.3319552 0.3966044 0.12295586
non 0.14939255 -0.23984191 -0.041840635 -0.016922731 0.6282828 0.02038448 -0.23720667 0.32280457 0.47408706 0.14869219
dissolv 0.16066673 -0.26800555 -0.0005358664 0.07320369 0.52601206 0.047806486 -0.27247894 0.26584688 0.3959262 0.16892546
ic 0.10339381 -0.1382992 0.016830223 0.036402255 0.40679604 0.05822454 -0.13527891 0.21044429 0.30276856 0.097649194
open 0.10815864 -0.27461308 -0.01960714 0.060450498 0.6695503 0.050492812 -0.23333658 0.33044147 0.4380312 0.21060829
nutrient 0.17930506 -0.32747477 -0.048660565 0.008548329 0.7004755 0.02775058 -0.32741523 0.41220498 0.52276856 0.13770162
herb 0.11965733 -0.2830197 -0.012785178 0.05622738 0.63318205 0.004027388 -0.30990264 0.3760686 0.49240646 0.18968655
bud 0.1572002 -0.24589851 0.0052924743 0.033446863 0.580352 0.0032277007 -0.22528505 0.3251523 0.4467209 0.11424329
sharp 0.12907659 -0.25686842 -0.043041535 0.005228298 0.4194788 0.04372997 -0.17915374 0.25411922 0.36188745 0.15151122
superbl 0.060667202 -0.29270905 -0.058340386 0.057411015 0.54414606 -0.016170952 -0.26320726 0.30098474 0.39399737 0.122276515
welfar 0.11782344 -0.3113931 -0.0070741456 0.06347291 0.75182843 -0.008076399 -0.25473684 0.37162378 0.48424166 0.21131629
sens 0.16093604 -0.33809876 0.015621848 0.02453746 0.69750345 0.076941624 -0.29718283 0.41672328 0.52695143 0.22562784
fast 0.13087039 -0.22704017 -0.06841553 0.06438229 0.5822192 0.03705528 -0.24735631 0.3250395 0.41541824 0.10429405
infant 0.12941518 -0.28600454 -0.0089418385 0.022350952 0.47908443 0.023181662 -0.1953373 0.3238737 0.32609317 0.17483011
protein 0.099946216 -0.2623882 -0.06856185 0.021496668 0.69130564 -0.0017087954 -0.2573424 0.3875041 0.49487934 0.13071498
omo 0.08523519 -0.281526 0.018288493 0.049997848 0.5428281 0.05053762 -0.18599062 0.31976864 0.4359894 0.12723945
auto 0.10586993 -0.28316763 -0.056923255 -0.020100258 0.6544265 0.02739499 -0.23399337 0.34394494 0.4132369 0.19279818
oro 0.09487833 -0.21115051 0.0020345692 0.024996357 0.44621608 0.063793205 -0.19676287 0.2626904 0.30485803 0.09947883
rememb 0.18874395 -0.28300264 -0.06870995 0.059353035 0.632931 0.03668635 -0.26121897 0.42056 0.4727259 0.13133776
playdat 0.18451597 -0.3580469 -0.05649526 -0.011514115 0.6976933 0.06502576 -0.25505835 0.4008337 0.4619725 0.17618409
parti 0.16755891 -0.33915707 -0.061411545 0.068741724 0.7271646 0.042503957 -0.32278183 0.41454473 0.49112314 0.17019074
sport 0.13514668 -0.36751246 -0.08242529 -0.021411821 0.7162229 0.022008736 -0.2980349 0.37888125 0.5118576 0.14982677
match 0.12191107 -0.31077108 -0.053034525 0.03779726 0.6731046 0.0031674984 -0.26996654 0.4350023 0.5186087 0.1147331
nthe 0.1731404 -0.33037683 -0.06293948 -0.0033580707 0.67082864 0.025159342 -0.2830104 0.43770242 0.5454886 0.1966135
icon 0.14199182 -0.30790117 -0.069132976 -0.020287437 0.65660894 0.011955689 -0.30818832 0.3595371 0.48284748 0.11020858
memori 0.13056862 -0.32388604 -0.041271005 -0.0035227751 0.56627625 0.027215265 -0.25852153 0.3176744 0.44662586 0.112948686
treasur 0.13001001 -0.2769393 0.011351869 0.013783618 0.63029987 -0.0019028354 -0.21715717 0.28147992 0.3968383 0.11064453
forev 0.14023168 -0.27449533 -0.0058112014 0.011313243 0.49247986 -0.0034420385 -0.21419908 0.29725647 0.41864237 0.12362131
panado 0.096796855 -0.27223614 -0.023804 0.06505453 0.54924154 0.07607737 -0.21481144 0.3194919 0.31455743 0.09290326
paracetamol 0.13183843 -0.2978862 -0.034396455 0.059897773 0.5274402 0.082891986 -0.22512229 0.3190206 0.35890868 0.13091822
discov 0.10993638 -0.18027766 0.016259292 0.017902799 0.41049665 -0.027320664 -0.14901045 0.23553483 0.3115316 0.09352853
pringl 0.09496947 -0.19818336 0.0051563955 0.047899626 0.48872656 -0.014285376 -0.18041225 0.2994044 0.35282817 0.16294183
optimum 0.1671181 -0.3336793 -0.024311453 -0.017065754 0.7573863 0.040913563 -0.2977734 0.39925814 0.52942485 0.23686534
prune 0.13683265 -0.24231789 -0.00036633847 -0.007920247 0.43967563 -0.015586762 -0.12618813 0.27305537 0.3050339 0.06998674
pro 0.07704774 -0.37605917 -0.03746141 0.073873945 0.661928 -0.0063884584 -0.29172784 0.42054474 0.5149209 0.12356239
sensodyn 0.10621649 -0.26994276 -0.014865098 -0.010572024 0.5832265 0.07044204 -0.27798522 0.30304715 0.3942636 0.203066
dorito 0.13742083 -0.28060886 -0.03669653 -0.015697941 0.6247273 0.0060909893 -0.22019841 0.3210097 0.4653317 0.19153449
far 0.08270755 -0.32733688 -0.02309379 -0.005468361 0.60853577 0.06645042 -0.28860566 0.32816505 0.44011143 0.17010646
chip 0.09907648 -0.266974 0.013347671 -0.023589235 0.58416414 0.06571695 -0.27326798 0.2979168 0.45252973 0.14115183
spirit 0.04454302 -0.14828944 0.021449298 -0.03025239 0.21616757 0.048460625 -0.06303694 0.08173646 0.12605906 0.07109432
floral 0.1754716 -0.33993825 0.0046473285 0.045933805 0.68799376 0.057372168 -0.3472362 0.37425217 0.47778752 0.19952397
filter 0.17031272 -0.29653037 -0.002373606 -0.024571296 0.72167397 0.039842088 -0.27846074 0.41419187 0.51787245 0.1336442
tru 0.09418172 -0.09623709 -0.016747836 0.027208326 0.1919158 0.028721318 -0.14018226 0.11829198 0.11857458 0.056264844
lem 0.049814183 -0.15877004 -0.0023836931 0.017011296 0.27661604 0.03459468 -0.06773462 0.15920423 0.13147941 0.10905656
twinsav 0.08775241 -0.25661135 -0.023503762 0.03699209 0.6598527 0.07106324 -0.27508378 0.3807567 0.44621927 0.20156749
ply 0.08124354 -0.27308792 0.012055182 0.04029608 0.5939337 0.055532925 -0.25881985 0.3107823 0.4211172 0.19479504
fight 0.1402572 -0.25339857 -0.053642705 0.029596718 0.5796896 -0.018468322 -0.20891042 0.33536997 0.3913438 0.14818735
cough 0.06709218 -0.22214408 -0.059624266 -0.003468594 0.5455705 0.060974643 -0.22429769 0.29331344 0.30707934 0.08573513
anti 0.12243604 -0.13558339 -0.020439878 -0.014615617 0.3844212 -0.004136229 -0.19692746 0.22261608 0.27926037 0.051563993
idea 0.09299021 -0.15051301 -0.024591671 0.018454878 0.40082368 0.031881735 -0.17219211 0.22500591 0.333603 0.11145001
avail 0.07740047 -0.20645101 0.021505028 0.057267398 0.39188835 0.068691775 -0.19757956 0.2797195 0.34465834 0.068266295
seed 0.057347946 -0.15579419 0.018252594 0.049125798 0.2194548 0.048280656 -0.08247073 0.16157444 0.19758345 0.042972807
loaf 0.120241195 -0.16815375 -0.022664659 -0.019387985 0.40030873 0.06809461 -0.12915786 0.2796674 0.32621473 0.097824566
fuller 0.054934066 -0.2362191 -0.0005853086 0.031951476 0.48632848 0.0032574784 -0.23746206 0.20211163 0.35983062 0.09977445
‘high 0.07250733 -0.18952598 -0.009198558 -0.0038516107 0.5169113 0.05254247 -0.23144092 0.2822399 0.3453477 0.095331594
lows’ 0.09989361 -0.25474116 -0.056725055 0.047131326 0.4481113 0.023284355 -0.2318801 0.2511556 0.35007873 0.17918956
regular 0.07389346 -0.24772936 -0.039788518 -0.012021809 0.45427158 0.06435586 -0.22578955 0.29555905 0.30647963 0.083985016
accomplish 0.045540266 -0.17743222 0.006872488 0.046712738 0.34496772 0.02641038 -0.16130821 0.19552255 0.27167 0.12224684
task 0.078155786 -0.153711 -0.044199463 -0.027064322 0.24442321 0.036672954 -0.12715344 0.1228441 0.14747849 0.0958664
aquel 0.09197035 -0.15335913 0.027721137 -0.039186444 0.3011782 -0.025464546 -0.10746748 0.1827985 0.20620076 0.046298087
liquid 0.033151567 -0.15160123 0.00998899 0.0053623114 0.3424553 -0.014917178 -0.105524614 0.2247901 0.2322804 0.04827669
hypoallergen 0.13003881 -0.19773088 -0.04965943 0.05080856 0.5147708 -0.0121025 -0.22883207 0.27455992 0.40608948 0.111233614
school 0.07211684 -0.11572856 -0.050787438 0.027846059 0.29568186 0.016226808 -0.11605441 0.18421125 0.28290164 0.099181294
sooth 0.06336959 -0.18914104 -0.004175171 0.054349784 0.45704293 0.014533211 -0.15680335 0.3013266 0.30850074 0.10573242
berocca 0.014462932 -0.16584682 -0.052795727 0.04440406 0.32431838 0.047972437 -0.1323708 0.16308884 0.24301226 0.101890035
specif 0.11117962 -0.25034627 -0.06908823 0.0026231392 0.37055287 0.039627377 -0.16508837 0.23687667 0.3163563 0.0583673
tailor 0.089806184 -0.25392544 -0.05965407 0.011574923 0.45309812 -0.00061020604 -0.23243067 0.29764223 0.2998665 0.12970552
supplement 0.09935361 -0.26256862 0.00089347863 0.057281725 0.5048196 -0.00015080738 -0.22981012 0.21949989 0.31455347 0.097204335
mental 0.11441896 -0.25888804 -0.003020017 -0.02643936 0.5002129 0.004514829 -0.16518979 0.3155983 0.32773256 0.10328861
taken 0.036505688 -0.21966866 0.0049557486 0.035616986 0.41144955 0.013518172 -0.12106551 0.19893244 0.2914184 0.046380408
super 0.03676426 -0.17578372 -0.026222728 0.044728033 0.41724136 0.01078956 -0.19133931 0.22711727 0.26887158 0.06634243
cereal 0.15044022 -0.21486363 -0.063049085 0.0049890564 0.5239453 0.03824477 -0.22430104 0.26707205 0.32492447 0.1588665
drop 0.15269883 -0.23563813 -0.044652868 0.009251447 0.5433391 -0.014912076 -0.2016024 0.28855905 0.39225402 0.1446801
budweis 0.1048861 -0.1186283 0.03145852 0.028725121 0.26071167 -0.027153896 -0.09199405 0.12333259 0.2003547 0.100812115
flavor 0.12251887 -0.18525714 0.011029541 0.06270632 0.409683 0.02256236 -0.1646699 0.20328698 0.29034227 0.143639
american 0.15195787 -0.26775324 -0.045245133 -0.032693718 0.4633706 0.07744424 -0.18399379 0.28103176 0.34081998 0.10382404
cadburi 0.08093497 -0.15767357 -0.06251044 -0.017311657 0.3403024 -0.022189695 -0.1589895 0.15809147 0.20420295 0.04380968
succul 0.08732197 -0.22961336 -0.012669971 0.02358555 0.41433713 0.010467885 -0.15873866 0.28627664 0.29851735 0.15201114
palat 0.12782978 -0.2095546 0.009108707 0.03625985 0.39797008 0.021997515 -0.15317905 0.2320214 0.3473716 0.09558742
award 0.16897242 -0.29302824 0.02788892 -0.032834977 0.54353535 0.06568016 -0.18333659 0.3432132 0.39964756 0.09712477
win 0.068591475 -0.2859699 -0.062168397 0.032806672 0.51459974 -0.0076251123 -0.17873335 0.2561411 0.424133 0.11420419
maiz 0.08825957 -0.17719822 -0.051577136 0.004102487 0.32947606 -0.02604081 -0.1391005 0.15609689 0.3011275 0.071123235
lite 0.061666526 -0.23250706 -0.034061562 0.063092075 0.49019203 0.056034606 -0.14490022 0.23671326 0.32931167 0.14104961
distinctli 0.025497405 -0.1569837 0.0006959711 0.05677635 0.2905724 -0.013681977 -0.15497324 0.22946429 0.24483876 0.14155816
stout 0.1169384 -0.21534447 0.015295224 0.00629073 0.44999334 -0.018680327 -0.1844151 0.22894403 0.36590916 0.066006005
strong 0.09912549 -0.2866893 -0.030247347 0.0038835697 0.5436066 0.06814339 -0.18931116 0.32811657 0.3253426 0.17462976
toffe 0.11029002 -0.27205354 -0.0017416908 -0.004134074 0.5347242 -0.019743472 -0.25732335 0.29655403 0.33157277 0.17544116
butterscotch 0.0860901 -0.2566847 -0.017491067 0.043666005 0.5262543 -0.032050557 -0.1645864 0.27023652 0.3331977 0.13375644
cere 0.05703632 -0.19857018 -0.041571636 -0.0143711595 0.5420117 0.016685056 -0.18947822 0.27867943 0.36341384 0.1423554
perfectli 0.08410073 -0.23890708 -0.009803331 0.015245067 0.5246274 -0.007399724 -0.21731125 0.23144792 0.3490485 0.13130938
cherri 0.08954442 -0.24971737 -0.04415873 0.009093284 0.44434166 0.0072184 -0.18363048 0.27176595 0.35446602 0.16084878
let 0.026025895 -0.2056727 -0.028990164 0.05852071 0.37001285 -0.024478815 -0.116154335 0.2478515 0.31861138 0.059696205
lighter 0.027433211 -0.22854535 -0.049263325 0.01941625 0.44933105 0.07553729 -0.18372865 0.19215144 0.32097578 0.09113446
punch 0.069156036 -0.2883839 -0.06914732 0.067953505 0.55327684 -0.014012767 -0.23859012 0.34467015 0.3949857 0.13316616
week 0.063289665 -0.19626816 -0.007386265 -0.010927348 0.50070524 0.009297434 -0.17957696 0.246015 0.30849707 0.08789324
mexico 0.08429677 -0.1613781 -0.026697159 -0.037974782 0.388246 0.009757984 -0.1428749 0.23629159 0.28762388 0.12088397
pale 0.09199382 -0.21409364 -0.05401685 -0.019364385 0.44318864 0.023712229 -0.20716284 0.20111112 0.31595147 0.15192635
nose 0.0709087 -0.26264808 -0.058909275 0.019193817 0.53223 0.053047534 -0.2076217 0.29193327 0.34728277 0.12981716
purchas 0.03583657 -0.15573001 0.023426635 0.032956798 0.3820647 0.06302682 -0.1492889 0.18909411 0.3223759 0.13928854
wine 0.053541463 -0.19453283 -0.06785804 0.0586339 0.4377366 0.013848316 -0.19221935 0.22343083 0.26744625 0.10266371
slightli 0.0885719 -0.22866657 -0.018816493 -0.007907707 0.5477431 0.042517886 -0.24514808 0.29085022 0.33987543 0.10775179
grill 0.05665741 -0.2422606 -0.027076054 0.011211971 0.5398421 -0.0064386474 -0.182903 0.2957787 0.34980792 0.15755911
hormon 0.11595958 -0.3044121 -0.059568767 -0.07190046 0.7012341 -0.06408982 -0.2885186 0.37675828 0.5318472 0.1965221
breast 0.07197741 -0.18292959 -0.027696619 -0.010353828 0.4712497 -0.023234945 -0.20398852 0.30725655 0.2959424 0.16763744
versatil 0.09833747 -0.18769908 -0.05294924 0.050622635 0.34509996 0.05703274 -0.18051182 0.22822037 0.31785575 0.0973398
larg 0.06553285 -0.23835015 -0.00012829727 0.011099483 0.50716656 0.04728489 -0.24262765 0.22828002 0.40529445 0.1733576
glen 0.07741705 -0.22541957 -0.05231784 0.057282053 0.49154896 0.024859875 -0.23610708 0.23063944 0.32511482 0.09444995
liver 0.1030726 -0.20515254 0.004130923 -0.04620991 0.41887903 0.010925807 -0.11127805 0.16144931 0.2832744 0.1317919
floater 0.09132002 -0.23349693 0.0006987231 0.054733373 0.4715513 0.011961486 -0.23766118 0.30146462 0.34944236 0.10253123
alga 0.06574349 -0.2591717 0.005438069 0.0008427516 0.5217003 0.011480087 -0.24264571 0.23250407 0.38885257 0.15036745
chlorin 0.09136816 -0.25540453 0.013734665 0.029248953 0.48939767 -0.004581981 -0.22479089 0.22269037 0.35831612 0.072008856
smell 0.060433477 -0.24746846 0.024288736 -0.009829276 0.52758706 -0.005244049 -0.1715324 0.29975644 0.37029508 0.108994946
dish 0.089875035 -0.12516221 -0.019254003 0.04890487 0.34772453 -0.0042351326 -0.16580807 0.14392978 0.2961638 0.042547543
bran 0.069683716 -0.21725522 -0.03418278 -0.031390283 0.57857686 0.041182496 -0.23709568 0.24368231 0.39077872 0.14141998
pop 0.11305308 -0.25874016 -0.07767655 -0.02382996 0.46841317 0.038959786 -0.17191045 0.275537 0.3485629 0.09954119
potenti 0.05282691 -0.1515299 -0.06437547 -0.008612268 0.40399528 0.04448174 -0.1914145 0.2553434 0.32748932 0.14581408
choos 0.09926978 -0.28520653 -0.025108628 -0.02329106 0.59419423 0.06486143 -0.21178766 0.2955584 0.44236144 0.16957037
addit 0.094413556 -0.16568992 0.024006197 0.04252914 0.43629488 0.035705574 -0.18495806 0.2906138 0.33156395 0.06634106
stock 0.11066073 -0.24813212 -0.070263065 0.056916494 0.4310679 0.03661491 -0.16759388 0.2310315 0.38943863 0.15973331
cube 0.15215693 -0.23047295 -0.03922283 0.007906774 0.57380164 0.051358294 -0.26931277 0.31995812 0.4227623 0.118437946
meati 0.10160569 -0.22434583 -0.021899518 0.06415306 0.42553374 0.00084412104 -0.1797703 0.1920037 0.30128118 0.061778355
occasion 0.021766309 -0.17881522 -0.019545168 0.012524646 0.3134058 -0.030456666 -0.13955763 0.20614849 0.23220615 0.11203668
peach 0.03839693 -0.21628022 -0.021158958 -0.0051469086 0.41760862 0.0013579588 -0.13585623 0.28125778 0.34242254 0.13546751
puff 0.13352583 -0.22625062 -0.025435284 0.03730246 0.5113695 0.010953704 -0.22847131 0.28238723 0.32581392 0.09446987
pastri 0.12250213 -0.24061823 -0.0383986 0.06668658 0.51519996 0.021766685 -0.21581762 0.28158683 0.35864437 0.11140817
pi 0.14632395 -0.21289095 0.0068957955 0.03936584 0.51436025 0.007791462 -0.1795133 0.33824608 0.3724183 0.18414709
hot 0.0685366 -0.13047121 0.013763135 -0.000701984 0.38268217 -0.01736247 -0.113759376 0.17893115 0.2258098 0.13098319
medic 0.14036965 -0.19464326 -0.0418715 0.058087714 0.5064609 -0.012581068 -0.15066148 0.27159595 0.30451384 0.10630515
fighter 0.10520641 -0.19562553 -0.061132323 0.045064446 0.4034696 0.052544706 -0.18728647 0.23553556 0.24471638 0.119032435
countri 0.096719414 -0.21966967 -0.040789284 -0.0100228535 0.4541275 0.004439454 -0.16601826 0.27127936 0.35403672 0.07647401
sticki 0.14820386 -0.30921385 -0.018298654 0.0140622035 0.5195157 -0.02525148 -0.19773962 0.28121096 0.4336314 0.16672015
transform 0.11100665 -0.30915216 -0.011377472 0.07516607 0.55114657 0.074535325 -0.1774595 0.31182984 0.43134135 0.11383337
deepli 0.10346357 -0.2711167 -0.037592657 0.0032826918 0.61689806 -0.0061427797 -0.21749638 0.2801415 0.3748337 0.1669267
notic 0.06954158 -0.19297704 -0.009153737 0.04567497 0.5173135 0.02396915 -0.24331918 0.27054676 0.31552055 0.1396918
moistur 0.07880724 -0.29332027 -0.06574594 0.004144748 0.59779453 0.031168967 -0.25744432 0.3190667 0.43286753 0.18914418
novalac 0.12228733 -0.23383492 -0.06485309 0.029630957 0.43660507 0.036076024 -0.17201102 0.2804458 0.33506167 0.118554056
aminova 0.11382026 -0.26451215 -0.04350307 0.055531483 0.46870238 0.0565072 -0.18385357 0.25166422 0.3220898 0.08971714
dietari 0.07199889 -0.2897779 0.02047282 0.055100244 0.5591654 0.07289117 -0.24888903 0.37355217 0.45458263 0.17378332
manang 0.13725443 -0.2792278 -0.040865567 0.07080443 0.6322103 0.056257088 -0.22174384 0.36424282 0.46495917 0.11081293
sever 0.10708651 -0.29290587 0.022394052 0.07047734 0.63708943 0.06701553 -0.22243167 0.36258057 0.46142107 0.116416335
cow 0.09893003 -0.22539246 0.0029364836 0.039818425 0.63786113 0.075209886 -0.28848884 0.29943734 0.43123776 0.16463989
work 0.09965929 -0.28604135 -0.028457029 -0.019896183 0.62452143 -0.0191581 -0.22037931 0.3764176 0.4259096 0.16108899
dry™ 0.07754795 -0.24874337 -0.064682074 0.049834505 0.45443523 0.040898483 -0.16543594 0.2739769 0.32826984 0.12692623
irrit 0.16895677 -0.3212086 -0.071799375 0.06974582 0.5594785 0.0128043555 -0.2618074 0.3556017 0.4617932 0.10906659
dermatolog 0.17630391 -0.2545488 -0.055084467 0.068785235 0.5937844 0.053435765 -0.22404934 0.39595145 0.4837065 0.16321397
test 0.14183691 -0.3113903 0.01711048 0.004136672 0.63551533 -0.00046890552 -0.2745699 0.38258132 0.4717955 0.13859025
percent 0.11497825 -0.31794867 -0.018617777 -0.018249428 0.6434237 0.0643312 -0.25178185 0.33019444 0.46472967 0.14030485
phenoxyethanol 0.13720624 -0.28045842 0.014684389 0.030177504 0.6153451 0.029706221 -0.23251237 0.30384052 0.45285982 0.13149783
perfum 0.11429619 -0.25310773 -0.0032721388 -0.031506002 0.46818146 0.06866845 -0.22937928 0.24264285 0.3653337 0.16529083
design 0.09162445 -0.11220384 0.012741997 0.045835305 0.33045477 -0.017894082 -0.1315927 0.19793355 0.2650276 0.056007996
flow 0.1254802 -0.26103503 0.022826547 -0.01611257 0.49576586 0.024153307 -0.2646717 0.28963917 0.4151085 0.11130473
newborn 0.055726804 -0.066282615 -0.059552945 -0.0011295826 0.20555872 0.010606748 -0.045638576 0.05731721 0.16069286 0.034496166
dry­ 0.09354341 -0.21419641 -0.020098612 0.018144477 0.56446445 0.051945023 -0.22459064 0.26279774 0.37038922 0.12712203
junior 0.13097301 -0.29338834 -0.038703077 0.054004744 0.5805824 0.036404677 -0.2383441 0.30531275 0.45087218 0.18414736
veget 0.11588955 -0.209831 0.023440616 -0.025398653 0.44022518 -0.019951997 -0.15914075 0.24041803 0.3034883 0.15935086
wider 0.10634249 -0.30021778 0.020343492 -0.012162866 0.63341796 0.05370686 -0.26429576 0.3467288 0.4242512 0.1845923
continu 0.095439754 -0.24749659 -0.0067124725 -0.016219355 0.62982666 0.03577106 -0.24351689 0.36247298 0.42291632 0.16374525
tradition 0.16535515 -0.24807672 0.011976258 0.04732413 0.5550108 0.026170228 -0.23384711 0.32455352 0.426116 0.114780836
mondi 0.113077536 -0.20926517 0.005038221 0.023755435 0.47179425 0.017026588 -0.18171324 0.25508893 0.30213064 0.1337719
rotatrim 0.07340377 -0.2591128 0.029018626 0.0041473857 0.5774301 0.054890923 -0.22494029 0.28026727 0.4326354 0.100429654
multifunct 0.10129906 -0.26198316 -0.030113732 0.01790961 0.5674614 0.04055528 -0.22376324 0.31934503 0.3957924 0.13171348
offic 0.16738467 -0.28059435 -0.030391334 0.028405493 0.6515692 0.021403752 -0.1988985 0.36599737 0.45098674 0.15861574
paper 0.16925776 -0.35219905 -0.06500121 0.012998169 0.6528398 0.079149865 -0.23090848 0.34794673 0.46728495 0.21662283
run 0.13696407 -0.34625134 0.0132231675 0.07375614 0.69666666 0.08129096 -0.2743207 0.34222564 0.457386 0.1313266
smoothli 0.16602325 -0.28231156 -0.0731756 0.002498703 0.69070363 0.024257667 -0.22915134 0.32925442 0.47677734 0.18232259
photocopi 0.17571655 -0.29991302 0.0058335443 0.036036078 0.71119565 0.017013976 -0.257441 0.3321744 0.48098707 0.14134805
laser 0.16972047 -0.33293867 0.0003692063 0.05692776 0.6359195 0.0143466545 -0.29898795 0.3763871 0.4540295 0.15936565
inkjet 0.17329897 -0.33273816 0.026512286 0.041460626 0.5929846 -0.0033459603 -0.24529879 0.3052705 0.45967686 0.13055438
printer 0.09338322 -0.22934178 0.01544489 0.060153607 0.5872687 0.011623155 -0.22563297 0.33810416 0.4388806 0.18829407
opac 0.08352675 -0.25416175 -0.06646427 0.0013063657 0.5959163 0.031037489 -0.2701317 0.33676082 0.46084163 0.20165135
uncoat 0.115462355 -0.3440771 0.015156344 0.05158862 0.6926367 0.051024213 -0.25535038 0.33606088 0.49206412 0.16739345
toner 0.088853 -0.26691204 -0.066163816 0.048094206 0.64021003 0.041570436 -0.289818 0.41003412 0.46559337 0.1793259
usag 0.085903026 -0.34332725 -0.016868446 -0.007969404 0.6907318 0.044387735 -0.29282716 0.38133505 0.4712571 0.13918817
runnabl 0.10039025 -0.2755396 -0.057597585 0.048961494 0.5571705 0.06227408 -0.22536276 0.30096948 0.38087246 0.17620952
restor 0.11409777 -0.31905106 -0.045338675 0.058855385 0.6063418 0.030696927 -0.24818932 0.2837977 0.3803548 0.12164862
nmoisturis 0.111320406 -0.3131358 -0.03857017 0.04321933 0.68920165 0.027162593 -0.31749797 0.3905143 0.5113425 0.1936897
nprotect 0.08577188 -0.3095792 -0.0511957 0.045651358 0.68136144 -0.022108776 -0.23953718 0.4034536 0.5115879 0.17929046
nph 0.14035532 -0.32470503 -0.04752291 0.009781674 0.58232874 0.05300534 -0.22782946 0.3553423 0.49330944 0.15744762
nkeep 0.15754676 -0.27893284 -0.07386583 -0.0048562703 0.6145648 -0.0039027855 -0.25275746 0.33739743 0.45932502 0.115460925
ndermatolog 0.07578215 -0.25591892 0.006906434 0.0045088707 0.53164274 0.0064965747 -0.19486123 0.29506654 0.34460777 0.105522625
take 0.148798 -0.25428826 -0.0026356727 0.050594304 0.5926321 -0.01911857 -0.24248657 0.31352213 0.501693 0.12628117
sta 0.066450566 -0.1554748 0.006037091 0.027763221 0.42093328 0.022691337 -0.17020251 0.28077057 0.2750972 0.112824
fabric 0.1370698 -0.30417976 0.0047523016 -0.009905623 0.6547422 0.04481948 -0.23278266 0.41220012 0.49366173 0.15540558
bean 0.12817642 -0.24711849 -0.0029957904 -0.0043769255 0.4519546 0.027355107 -0.18838908 0.24881707 0.32932663 0.15042365
latin 0.08290014 -0.228162 -0.0072648614 -0.03099043 0.5871881 0.029695038 -0.2721934 0.26629478 0.44924882 0.16877732
america 0.14116783 -0.24111107 0.011892321 0.0055946764 0.60727316 0.02841521 -0.19183764 0.2871887 0.4459005 0.16135249
coax 0.10541192 -0.29640278 -0.0023224072 -0.005079973 0.5786321 0.010192276 -0.22268836 0.33795068 0.3603325 0.18681593
arabica 0.11762865 -0.12661177 0.034573074 0.053140875 0.37935588 -0.010307749 -0.18561308 0.17963001 0.2689439 0.12795664
nobl 0.102429956 -0.26925397 -0.07783377 -0.009727687 0.63020474 0.03989118 -0.2666645 0.33774072 0.46602076 0.1541524
fine 0.16249806 -0.3075366 -0.013679335 -0.009496035 0.62724453 -0.016366886 -0.2720702 0.29296786 0.46907806 0.13088927
malti 0.17779934 -0.32443133 0.009130808 -0.026480956 0.6094045 -0.017309919 -0.29509878 0.33216175 0.45069656 0.1640997
charact 0.1770253 -0.26186466 -0.05765433 0.0071972357 0.5881465 0.012688055 -0.222618 0.29712352 0.46604776 0.124696046
lusciou 0.096721634 -0.26719347 -0.018530076 -0.02149064 0.5716115 0.05375757 -0.26541024 0.28201076 0.4052784 0.10467808
mouthfeel 0.058416244 -0.19531566 -0.055142563 0.062558025 0.40389058 0.016811155 -0.21851169 0.23603012 0.26448622 0.06465908
droplet 0.084053755 -0.26558876 -0.006214944 0.026171535 0.6535985 0.018207218 -0.30328506 0.41371715 0.4299795 0.15819563
smile 0.10771034 -0.28952834 -0.011940384 0.03136844 0.56455624 0.06670136 -0.26255456 0.36552808 0.47163305 0.113729
insid 0.14143397 -0.29274413 -0.006897248 0.039646473 0.53942376 -0.008167338 -0.21991545 0.29937837 0.41384226 0.12080214
outsid 0.14572927 -0.2699634 -0.020969057 0.010156443 0.47078952 0.033156335 -0.20557052 0.28171533 0.39736512 0.1474004
tastic 0.11712669 -0.2562948 0.017064035 0.017426068 0.5701496 -0.00035424737 -0.19563837 0.27393323 0.44800493 0.16696304
differ 0.062243454 -0.21668197 -0.024920598 -0.017669799 0.45324162 0.026093012 -0.17805897 0.2560666 0.36116794 0.119014554
thirsti 0.09045919 -0.23774703 -0.032585207 0.033144128 0.5965839 0.00072341366 -0.20480025 0.27318123 0.44171867 0.1234555
drakensberg 0.15802689 -0.31679562 -0.05244629 -0.032202866 0.62058955 0.05972756 -0.25867894 0.33922857 0.3908904 0.16259934
intend 0.049995225 -0.27284506 -0.039826144 0.061131667 0.5138516 0.07131917 -0.25525975 0.3083166 0.3387848 0.17939444
sandwich 0.09244515 -0.16389705 -0.038595874 0.050863404 0.36016053 0.04876602 -0.13715786 0.1950132 0.27924025 0.12409098
peanut 0.07006511 -0.20032404 -0.035547823 0.025146982 0.37147775 0.018996099 -0.15408622 0.19274269 0.3416227 0.08357675
