3107 10
flavour -0.8094709 2.3610253 -0.25507033 0.48116347 -0.24677844 -0.28897843 -2.150673 -1.6509917 1.7577744 1.1378491
fresh -0.7090468 2.0106087 -0.3503258 0.32531992 -0.17985623 -0.30213577 -1.7954252 -1.3498498 1.4830062 0.9219507
fruit -0.7709175 2.119941 -0.25832427 0.35992908 -0.27978256 -0.25164783 -1.862641 -1.5172067 1.6588013 1.0444552
skin -0.8198282 2.0093856 -0.2980055 0.375011 -0.16144904 -0.240228 -1.7998189 -1.4032778 1.4089851 0.934801
free -0.5422735 1.4073681 -0.12392623 0.37927714 -0.083506726 -0.14313479 -1.4708512 -0.8900489 1.1763406 0.6848076
tast -0.759689 2.094871 -0.2990571 0.37232897 -0.23293997 -0.21565434 -1.7968677 -1.422734 1.5463086 0.9681951
soft -0.7377139 1.8002108 -0.17029178 0.3191243 -0.24024273 -0.16278394 -1.4949698 -1.224635 1.3574605 0.803123
babi -0.68809867 1.7773448 -0.2634464 0.31486633 -0.17084655 -0.19365008 -1.6590409 -1.2733545 1.3017445 0.8068845
protect -0.72718054 1.7792867 -0.2581497 0.31484422 -0.12180243 -0.15044075 -1.6617261 -1.2334261 1.2760146 0.882023
chicken -0.6194127 1.5638871 -0.16710207 0.33998868 -0.14576946 -0.21775252 -1.4970447 -1.0518306 1.1065856 0.7651327
rang -0.52822953 1.296419 -0.23195489 0.39156064 -0.038944587 -0.20160697 -1.2899481 -0.7824091 0.96953356 0.69544333
water -0.5383229 1.6875777 -0.29584414 0.2788741 -0.21684995 -0.22161166 -1.5923487 -1.1578263 1.2534059 0.73572075
white -0.66563445 1.6058543 -0.19870749 0.3365991 -0.23980434 -0.18061379 -1.5129117 -1.049212 1.2215691 0.7616195
beef -0.4177694 1.2507491 -0.19539225 0.3301656 0.006365009 -0.11847955 -1.2277935 -0.7907588 1.0385098 0.6468712
sweet -0.6924458 1.7897339 -0.2226727 0.35176945 -0.24556443 -0.17406645 -1.5552422 -1.2445388 1.4066097 0.8912597
cream -0.75651133 1.9100127 -0.2650469 0.41040602 -0.24198559 -0.17913416 -1.781674 -1.3291492 1.3900503 0.83753264
enjoi -0.42424923 1.3969824 -0.16892909 0.27423483 -0.090731196 -0.16814539 -1.2881198 -0.9318251 1.057669 0.71376926
beer -0.55471206 1.6377914 -0.20846802 0.22539409 -0.25693607 -0.23027122 -1.5591475 -1.1646662 1.2777933 0.7280354
clean -0.66821134 1.8004845 -0.22489901 0.3398084 -0.19697179 -0.17933802 -1.6341884 -1.2056329 1.3782912 0.88925326
natur -0.5103113 1.5457411 -0.23546435 0.2812146 -0.12872796 -0.13716774 -1.4690717 -1.1178955 1.2347125 0.6942492
pack -0.72769314 1.8368787 -0.26254126 0.28789604 -0.2045531 -0.17191534 -1.6163218 -1.2145605 1.3644875 0.8262899
wash -0.63922834 1.5046964 -0.14939529 0.25662112 -0.1609646 -0.18496194 -1.3932009 -1.1141567 1.1174909 0.74413294
refresh -0.70268244 1.8416605 -0.2799454 0.3363024 -0.20641214 -0.26473317 -1.6526484 -1.3097664 1.4609237 0.8989643
best -0.5830867 1.6277626 -0.26280823 0.28315765 -0.22723521 -0.1714975 -1.5692133 -1.1417853 1.2081752 0.7711565
good -0.5895018 1.501846 -0.17088346 0.23516889 -0.12958464 -0.12746356 -1.2847043 -0.9785903 1.0723433 0.7267051
delici -0.59445006 1.7317628 -0.23260586 0.35207546 -0.22533232 -0.22829245 -1.5856566 -1.1693965 1.3248307 0.84050447
juic -0.60805833 1.5521389 -0.15363343 0.28258857 -0.23770978 -0.27897525 -1.2522074 -1.04332 1.086515 0.7355954
appl -0.55739695 1.5464371 -0.2220634 0.29053032 -0.19411466 -0.23694062 -1.3365574 -1.123806 1.1819925 0.7537937
milk -0.54902357 1.6753227 -0.21036269 0.2642283 -0.2264647 -0.19901125 -1.4931837 -1.190616 1.2731509 0.73969305
bodi -0.64623535 1.6228682 -0.16434449 0.27806598 -0.1803395 -0.2258241 -1.5478243 -1.2276543 1.297653 0.81037986
dai -0.607741 1.4938182 -0.22425932 0.29549465 -0.10822026 -0.22168542 -1.2991062 -1.0070513 1.1436337 0.6525216
origin -0.6951166 1.866579 -0.21922126 0.2707333 -0.23292096 -0.23625462 -1.6501977 -1.2184007 1.4577162 0.8841394
special -0.5057625 1.2485723 -0.16828512 0.24047443 -0.10927943 -0.051226653 -1.1680913 -0.722297 1.0209174 0.6288423
care -0.65002745 1.6968485 -0.15746444 0.25949454 -0.16971463 -0.15390296 -1.5098796 -1.1317508 1.2032484 0.7301328
bread -0.5456996 1.4442012 -0.2345232 0.28489405 -0.25471166 -0.2473272 -1.3149121 -0.82287645 1.0489482 0.66630554
fat -0.5928674 1.55031 -0.264822 0.35049433 -0.166428 -0.17595349 -1.3822358 -1.0651551 1.1512415 0.7582311
drink -0.55031127 1.4824913 -0.1957128 0.2443988 -0.3077816 -0.23072419 -1.1760216 -1.0051012 1.1290363 0.6329018
extra -0.59269184 1.4783062 -0.22632264 0.3241317 -0.12935206 -0.15262994 -1.3961416 -1.0157737 1.1264532 0.69720274
qualiti -0.6333206 1.6049775 -0.24572791 0.33537963 -0.18328561 -0.24186641 -1.4318082 -1.1025493 1.2672145 0.75852084
help -0.67740643 1.7332915 -0.2888575 0.31590807 -0.16107546 -0.15832017 -1.523904 -1.2130811 1.3013804 0.7855306
blend -0.5609303 1.59942 -0.25353494 0.27649355 -0.16814709 -0.26283345 -1.3537343 -1.1305279 1.2025337 0.7492115
perfect -0.5222912 1.4558312 -0.15374224 0.2404533 -0.13255633 -0.19606845 -1.3141127 -0.9829624 1.1412578 0.6447588
select -0.329831 0.9060562 -0.053740375 0.28869182 -0.07840008 -0.03493242 -1.0118543 -0.68976223 0.769388 0.4825247
coca -0.52851087 1.4398888 -0.17379175 0.10162108 -0.1874572 -0.18551838 -0.9650246 -0.9437019 1.1488395 0.5921444
cola -0.64380026 1.4563931 -0.072083935 0.21112102 -0.36407623 -0.2322466 -0.9657637 -0.89469016 1.0635065 0.6222619
product -0.5239994 1.4333848 -0.1860938 0.313681 -0.30219728 -0.10384768 -1.2789912 -1.15733 1.268282 0.6216887
sourc -0.34507483 1.2795252 -0.28755197 0.25186104 -0.11114685 -0.13116337 -1.0008776 -0.8228549 0.9044087 0.5582582
need -0.36790004 1.3949242 -0.2917268 0.2770829 -0.019937633 -0.15251927 -1.0869404 -0.9745335 0.98110265 0.7303977
sugar -0.5049744 1.3634437 -0.13083857 0.20937316 -0.23755842 -0.16975467 -1.1102563 -0.99804837 1.0559763 0.6344906
avg -0.24941267 0.7734892 -0.08270062 0.27770174 -0.026914615 -0.091457136 -0.91819084 -0.5491017 0.67800623 0.40635026
dry -0.48542994 1.3111571 -0.20096126 0.28678495 -0.11616626 -0.19788557 -1.2687854 -0.9101683 0.97486186 0.613848
hand -0.60259503 1.4788216 -0.23126988 0.28785342 -0.10995278 -0.14977804 -1.3341379 -1.0053678 1.0598696 0.6971829
colour -0.55511993 1.2967116 -0.117054455 0.23797241 -0.16354871 -0.1440833 -1.237674 -0.91656846 1.0141505 0.6224886
bath -0.406944 1.0813845 -0.08263964 0.227263 -0.091269694 -0.15979931 -1.0195193 -0.8075434 0.8533931 0.505199
mix -0.36148703 1.1716621 -0.1731476 0.2583752 -0.099425435 -0.1462907 -1.035661 -0.74302596 0.8801476 0.57167196
varieti -0.20018497 1.056831 -0.26618403 0.21027514 0.009010655 -0.14134775 -0.84692496 -0.71330714 0.7649122 0.59058803
chocol -0.5438048 1.3352379 -0.12741548 0.22046505 -0.11369872 -0.12734987 -1.1922101 -0.9318748 1.0451204 0.6331013
mass -0.31498778 0.8589285 -0.111377776 0.08432242 -0.2761369 -0.009290774 -0.759249 -0.81718343 0.8717545 0.2542208
high -0.5532892 1.4128392 -0.16540065 0.218144 -0.12083664 -0.1491575 -1.1940858 -0.9750554 1.0904815 0.6383021
vitamin -0.5768705 1.4315869 -0.19963859 0.28685364 -0.18702304 -0.20416722 -1.318651 -1.0234458 1.1465869 0.72950745
soap -0.45987087 1.2396891 -0.18489173 0.26675808 -0.16483745 -0.09679026 -1.2023815 -0.8321473 0.9415831 0.5776362
spice -0.4430441 1.1944796 -0.1221507 0.18521188 -0.120570906 -0.124452986 -1.0637364 -0.7945706 0.8628635 0.5406985
premium -0.42517492 1.3115426 -0.1026221 0.22494546 -0.12309026 -0.12896205 -1.1273038 -0.91379416 1.0147204 0.564494
comfort -0.5133546 1.2729273 -0.19454591 0.2654942 -0.15894964 -0.11827448 -1.118948 -0.9018798 0.99963534 0.5976852
pamper -0.43349615 1.0656885 -0.15039109 0.18427426 -0.15622175 -0.080342196 -0.98013914 -0.8059636 0.8190216 0.46994922
famili -0.4819856 1.4313788 -0.21501662 0.24762085 -0.13673618 -0.11208406 -1.2593051 -0.9687591 1.0576205 0.6292081
cook -0.45796984 1.2891525 -0.18761244 0.2769658 -0.17062521 -0.12091753 -1.1056195 -0.89114875 0.96532357 0.54910123
brown -0.42019466 1.0927823 -0.15820248 0.15317823 -0.1634154 -0.1615684 -0.9735143 -0.61589265 0.8475867 0.50440425
south -0.55336726 1.3870373 -0.14770758 0.29492506 -0.18739115 -0.12655102 -1.3260761 -0.87918645 1.07903 0.6950194
bottl -0.48612517 1.1629949 -0.16286409 0.18961172 -0.1311418 -0.12687053 -1.1404841 -0.82836765 0.95526814 0.6238473
balanc -0.46377233 1.1614397 -0.19634917 0.22919528 -0.11230047 -0.13365296 -1.1124997 -0.77528685 0.8587197 0.51949364
roast -0.41465136 1.2856774 -0.11070601 0.2655437 -0.13037457 -0.1728053 -1.1137531 -0.8876913 0.99448484 0.57699174
nivea -0.46645492 1.0746996 -0.16398257 0.2028536 -0.1522901 -0.17023239 -0.9337679 -0.791211 0.78374624 0.535301
us -0.5353768 1.3758197 -0.18816276 0.26345673 -0.12734754 -0.20539366 -1.3073868 -1.0083218 1.0432999 0.69579434
oil -0.54559946 1.2821928 -0.12502208 0.19212739 -0.12561978 -0.08888709 -1.2089813 -0.9553999 1.0013067 0.6193991
veget -0.28435057 0.8402896 -0.1560165 0.17263041 0.0020075284 -0.1212726 -0.60330147 -0.50181246 0.49276307 0.41204172
crisp -0.46273476 1.0764064 -0.15679923 0.23058642 -0.083714336 -0.17262036 -0.95299447 -0.7770988 0.85412294 0.47496325
salad -0.36418858 1.0386401 -0.111615814 0.1936944 -0.08070648 -0.18408059 -0.98151165 -0.7952362 0.82185936 0.48588166
low -0.38171402 1.0769137 -0.117275134 0.24066721 -0.14796841 -0.09460788 -0.9921757 -0.6587247 0.8274593 0.5224876
season -0.13604796 0.82636964 -0.19575594 0.12518376 0.06853992 -0.11093457 -0.61157596 -0.5655976 0.63665915 0.42908087
powder -0.40524867 1.1366578 -0.15806502 0.15596914 -0.13444494 -0.13227023 -1.066748 -0.7388154 0.81411684 0.52018046
lemon -0.37770432 1.0602292 -0.08646533 0.15485588 -0.08551601 -0.14997219 -0.95069724 -0.6857544 0.7574875 0.4460166
great -0.4605798 1.1155062 -0.11167606 0.20364793 -0.15035215 -0.18427172 -1.022432 -0.7768784 0.803234 0.4799634
easi -0.4978787 1.3744115 -0.18389066 0.21423936 -0.12459557 -0.15030447 -1.2498387 -0.9549394 1.0811635 0.6558826
bag -0.5061497 1.2550013 -0.10836542 0.25530237 -0.14114134 -0.1718515 -1.1290436 -0.8769393 0.9074673 0.5990081
frozen -0.27934828 0.77491117 -0.07669176 0.15339275 -0.0830228 -0.058786884 -0.758086 -0.46065652 0.5265259 0.42577684
health -0.4245412 1.2428759 -0.20533508 0.20726408 -0.123966545 -0.19485779 -1.1124233 -0.85388935 0.9506794 0.6025922
feel -0.3566877 0.8092382 -0.112644106 0.18844746 -0.101393394 -0.13534689 -0.7463509 -0.53133065 0.60846555 0.39984646
ensur -0.233997 1.0357972 -0.23982324 0.18151309 -0.021460058 -0.12898831 -0.87439513 -0.6675758 0.7151819 0.53675544
formula -0.52481675 1.2868487 -0.16540244 0.20927177 -0.09903269 -0.100884914 -1.1692032 -0.8974997 0.9329391 0.6161253
lamb -0.23259255 0.5697194 -0.07200676 0.17999184 0.010595416 0.013241552 -0.6664441 -0.37821448 0.543556 0.34607893
orang -0.47444522 1.2062728 -0.14939407 0.252965 -0.18489397 -0.13469411 -1.0794663 -0.85823447 0.9117006 0.5220404
roll -0.3282164 0.87063664 -0.13051306 0.14563008 -0.13745753 -0.085852325 -0.76605755 -0.56129307 0.71134275 0.41156596
bake -0.3872906 1.0219467 -0.118140556 0.15540545 -0.14984739 -0.15068708 -0.9087214 -0.6625081 0.72302216 0.40982407
rich -0.36386195 1.0818198 -0.14399992 0.19043595 -0.16096398 -0.15696551 -1.0148768 -0.7667359 0.79804957 0.5417454
albani -0.18207525 0.60306025 -0.14068964 0.07077601 -0.1640249 -0.12698436 -0.45847473 -0.2789126 0.36146694 0.22396675
superior -0.2549839 0.7912635 -0.09115206 0.14215864 -0.19642772 -0.1292268 -0.78670037 -0.3831934 0.5528833 0.37602317
produc -0.16258772 0.6758999 -0.114753775 0.14031728 0.06669911 -0.1202689 -0.56009805 -0.4426018 0.47209513 0.34738448
spring -0.25114864 0.6331678 -0.08115818 0.14299902 -0.02986362 -0.05146657 -0.69778055 -0.4281545 0.5498246 0.27243447
sensit -0.31866246 0.7721416 -0.1209569 0.111279905 -0.06884608 -0.09911388 -0.7296663 -0.55266887 0.6241565 0.39037257
smooth -0.36761448 1.065798 -0.18689218 0.15764046 -0.07335859 -0.070523925 -0.9564268 -0.76733476 0.79322106 0.45098323
minc -0.21811908 0.62420756 -0.11129824 0.22517423 0.008307677 -0.14345421 -0.5926399 -0.42807174 0.44239828 0.32289732
long -0.34702465 1.0533199 -0.16944674 0.14568658 -0.16943763 -0.075566426 -0.94701004 -0.7260951 0.77778846 0.5124684
ad -0.36919802 1.0017824 -0.146563 0.14233625 -0.073919676 -0.11028201 -0.8998549 -0.73224294 0.7948934 0.41917467
nthi -0.35749337 0.9746454 -0.10914123 0.15802461 -0.22578335 -0.02316817 -0.90444493 -0.7126352 0.8301513 0.3473684
activ -0.46987247 1.1724522 -0.13911949 0.22132376 -0.11130154 -0.11418878 -1.133312 -0.8348511 0.8751854 0.5713197
knorr -0.33722606 0.78796774 -0.06333746 0.1567477 -0.081404805 -0.14774834 -0.74150896 -0.55254555 0.6734082 0.37204924
food -0.40808007 1.097586 -0.11358328 0.22409064 -0.07546057 -0.08608254 -0.9291382 -0.7676264 0.8325679 0.4900478
uniqu -0.42253134 1.26162 -0.13727011 0.25348213 -0.16695984 -0.14321908 -1.0932543 -0.8531779 0.9147643 0.52926373
ingredi -0.37703702 1.0262623 -0.18190521 0.2098116 -0.12536298 -0.13791358 -0.8900372 -0.74561983 0.731567 0.43319526
gentl -0.38779202 1.1053611 -0.18171309 0.16692977 -0.075458825 -0.06754993 -0.92974097 -0.71321416 0.8138964 0.44416618
life -0.42477006 1.0320791 -0.11568936 0.19005032 -0.100310095 -0.1389689 -0.94297284 -0.732537 0.80318564 0.44745326
black -0.35669807 0.94282365 -0.07298755 0.15209924 -0.09933834 -0.07100561 -0.9256649 -0.65193594 0.7637081 0.4740015
moisturis -0.4469853 1.0966105 -0.11519287 0.22370322 -0.08871826 -0.08129573 -1.0211391 -0.7969157 0.77154183 0.5186383
potato -0.2199925 0.6626367 -0.08852263 0.13631117 -0.079297334 -0.05273829 -0.5937609 -0.4652746 0.51484895 0.29416537
snack -0.34050047 0.852433 -0.13923998 0.18897758 -0.1358202 -0.07228205 -0.7912731 -0.5399092 0.5772873 0.35990724
soup -0.33062512 0.94396114 -0.07674297 0.21610773 -0.11425876 -0.14014755 -0.8918434 -0.68027675 0.74635327 0.4853112
fragranc -0.2747628 0.8325708 -0.06535366 0.16263923 -0.07805392 -0.063297726 -0.7699108 -0.56850904 0.6461106 0.32990494
healthi -0.327459 0.97499424 -0.14345932 0.14927809 -0.124171436 -0.13509132 -0.9356091 -0.7216109 0.78972965 0.42626366
sparkl -0.29927373 0.6691473 -0.09691262 0.08062744 -0.06355116 -0.107851215 -0.7042745 -0.4935641 0.5444631 0.32355288
mild -0.3414452 0.8719214 -0.10681205 0.16036052 -0.10523105 -0.07823415 -0.82444227 -0.63131666 0.7271229 0.39512452
energi -0.3394995 0.89763147 -0.15774052 0.14684962 -0.13680649 -0.14361726 -0.8305641 -0.5936764 0.6605269 0.4537979
relief -0.3888596 1.0766735 -0.19513445 0.18028325 -0.04885349 -0.10473582 -0.93319124 -0.75370556 0.74766165 0.47923455
stain -0.3696691 0.9738395 -0.06918525 0.1536816 -0.08593603 -0.10301631 -0.9534522 -0.6415709 0.8031348 0.43611938
biscuit -0.45921287 1.1169312 -0.1446979 0.22223131 -0.14873146 -0.106494956 -1.0135913 -0.71482766 0.7524751 0.44108483
leav -0.37341538 0.9688485 -0.09269832 0.16590177 -0.0828855 -0.09461666 -0.8800433 -0.6470329 0.71961117 0.42102012
longer -0.31146863 0.8606175 -0.14950141 0.099888645 -0.14286402 -0.14644784 -0.8358978 -0.59707195 0.66806346 0.34711272
baker -0.2801636 0.6701831 -0.060465544 0.15806188 -0.112705454 -0.11223796 -0.60089594 -0.48482376 0.5540625 0.32157975
tender -0.2791263 0.80551153 -0.09879021 0.14843798 -0.12815118 -0.04108894 -0.71465915 -0.5469397 0.64495975 0.36721689
creami -0.3357965 0.81492007 -0.10061336 0.19677961 -0.076931335 -0.043581497 -0.6866042 -0.58438694 0.6195252 0.33467925
add -0.37064484 1.0246062 -0.10595242 0.15322307 -0.06936674 -0.06932951 -0.92423546 -0.6960295 0.6945098 0.46644256
power -0.4817073 1.1274865 -0.123960346 0.18663765 -0.12828442 -0.16890994 -0.99558115 -0.767715 0.8913397 0.5529731
blue -0.35395715 0.8778522 -0.11920072 0.11535452 -0.10923267 -0.06791226 -0.8064874 -0.5773166 0.7028002 0.39093262
plu -0.3494697 0.96775526 -0.109327756 0.13597298 -0.10603704 -0.14588808 -0.8637519 -0.6756168 0.8055431 0.47538134
give -0.40000635 0.9071518 -0.12946239 0.18720144 -0.07907191 -0.12211265 -0.8999201 -0.6821164 0.7241152 0.4577378
bic -0.30663767 0.68010765 -0.10686287 0.13555004 -0.043490082 -0.11840446 -0.65923434 -0.45472565 0.5536382 0.36659607
pen -0.39179665 0.9756877 -0.06972958 0.15284197 -0.09849885 -0.13303092 -0.8745603 -0.62591857 0.7260129 0.46430138
liquid -0.30992037 0.77912897 -0.11830612 0.17481168 -0.097650014 -0.051004514 -0.768561 -0.5544046 0.62471753 0.43094444
dish -0.24731633 0.6904181 -0.092626244 0.101036206 -0.032150697 -0.12898166 -0.6782119 -0.45551684 0.5856657 0.2913152
new -0.37218207 0.8875067 -0.08330855 0.20143035 -0.06876905 -0.1562471 -0.83447516 -0.56939024 0.62898946 0.46337742
wider -0.11613185 0.74192065 -0.1752437 0.15847579 0.073448755 -0.11127432 -0.4832793 -0.43089324 0.4155563 0.36733696
continu -0.039320476 0.65828675 -0.18253607 0.17991 0.09180877 -0.08530553 -0.45482865 -0.38511112 0.46308672 0.3108635
light -0.34653816 0.9523559 -0.09891688 0.18364926 -0.14968386 -0.07160676 -0.8495349 -0.69585216 0.7469763 0.47461233
pain -0.48834303 1.0949407 -0.16547368 0.1579485 -0.1189435 -0.16928196 -1.0228298 -0.72267723 0.8730834 0.5170563
shower -0.33549002 0.7528667 -0.049866833 0.09937513 -0.033362858 -0.08141762 -0.6536468 -0.5876677 0.5577847 0.39663672
sanex -0.1416341 0.4296912 -0.025311787 0.0705561 -0.052388478 -0.095268086 -0.37447864 -0.3184732 0.2790468 0.22865522
gel -0.30203503 0.7207069 -0.08960506 0.10914852 -0.028887935 -0.07078547 -0.611311 -0.5529025 0.49773243 0.300146
absorb -0.41745403 1.2405355 -0.12350079 0.23383798 -0.07813817 -0.1237204 -1.1436068 -0.85522294 0.86603004 0.6038306
love -0.29519826 0.8330353 -0.14018746 0.15333867 -0.047155652 -0.092699945 -0.7239354 -0.5977375 0.6357376 0.4213802
bar -0.36488837 0.8436037 -0.08170128 0.18761285 -0.11236299 -0.051814105 -0.8380425 -0.6400571 0.61327964 0.43325374
daili -0.31535202 0.6557065 -0.0569125 0.09221071 -0.0132313585 -0.047698673 -0.6798026 -0.4766427 0.4878764 0.31684992
brand -0.45543942 1.2420433 -0.12292699 0.15933856 -0.10266134 -0.17416552 -1.0859209 -0.8497463 0.89999515 0.6080129
salt -0.3384136 1.0285529 -0.16265039 0.15227185 -0.07882581 -0.103086196 -0.8892908 -0.67688364 0.74946135 0.4854017
let -0.3884396 0.83701074 -0.15004434 0.16671959 -0.10130752 -0.09194909 -0.82124823 -0.5682107 0.7274719 0.35878888
liqui -0.18268746 0.5509062 -0.1046844 0.082492575 -0.10485209 -0.066562034 -0.43097094 -0.3190211 0.39104757 0.21586245
fibr -0.32666335 0.7545001 -0.13890916 0.08861001 -0.13726903 -0.09554204 -0.6703511 -0.57160676 0.63279843 0.37096027
pad -0.32448003 1.0008862 -0.17061794 0.1125355 -0.11540452 -0.08128163 -0.8214574 -0.5813931 0.7122314 0.4135431
tradition 0.0054632886 0.43388408 -0.11971658 0.059888292 0.10215004 -0.13213591 -0.31493366 -0.3289762 0.3690492 0.27429944
toothpast -0.31919935 0.77244246 -0.14546998 0.14652565 -0.021343984 -0.14674142 -0.71126974 -0.62174904 0.59390944 0.35934725
remov -0.36808985 0.9109106 -0.062444232 0.12208829 -0.058821715 -0.1079871 -0.8568707 -0.6702087 0.69121444 0.4876408
contain -0.3924392 0.889112 -0.08393237 0.12317199 -0.06958641 -0.05009686 -0.8130131 -0.6286583 0.70216256 0.45869946
cooki -0.3933743 0.8684468 -0.066632286 0.13393396 -0.102172315 -0.12208618 -0.8110467 -0.6563809 0.6827171 0.44112235
classic -0.3123221 0.7632904 -0.12135467 0.09305476 -0.103328764 -0.14890242 -0.7249502 -0.5464101 0.553928 0.36267662
miner -0.36341724 0.8214112 -0.17117439 0.16066322 -0.118282154 -0.07638089 -0.752322 -0.5594399 0.70653003 0.43522677
scent -0.26635167 0.8638966 -0.06204876 0.18683898 -0.10838531 -0.13451585 -0.7290872 -0.5903783 0.6509339 0.40629017
lean -0.095613256 0.4092127 -0.07985635 0.1446981 0.046755496 -0.07280793 -0.41885182 -0.3172858 0.36651945 0.2758095
chop -0.109899186 0.3831641 -0.07825948 0.1831111 0.022340575 0.009755745 -0.43159926 -0.24203177 0.37952465 0.17148905
robertson -0.11386263 0.44235325 -0.044269923 0.12583697 -0.04855633 -0.02747338 -0.40101102 -0.25844166 0.35618737 0.13601902
dermo -0.23447914 0.49468613 -0.03348842 0.048094988 -0.03815315 -0.041611977 -0.42330855 -0.39256585 0.2898885 0.27513584
refil -0.25933805 0.7557281 -0.04154178 0.08304234 -0.10954707 -0.06193432 -0.6910397 -0.5106911 0.55387276 0.35359982
lager -0.3035623 0.7927442 -0.10154937 0.11367266 -0.13774753 -0.14154875 -0.78464645 -0.52533203 0.63833773 0.41173118
chip -0.21722138 0.65412575 -0.08669253 0.16486622 -0.04354743 -0.1093423 -0.5474655 -0.38849723 0.51240444 0.30342013
cereal -0.26679093 0.787344 -0.1282545 0.10539945 -0.06508071 -0.10960709 -0.6788137 -0.49818528 0.62411624 0.34215438
nappi -0.3034219 0.9066311 -0.11123943 0.16363657 -0.14448155 -0.056154363 -0.7652086 -0.57833093 0.690783 0.4539924
medium -0.3014556 0.88303363 -0.11599112 0.1478316 -0.09024959 -0.097035274 -0.8335277 -0.6693386 0.6902729 0.44749942
pepper -0.30119497 0.7640529 -0.13884296 0.13245858 -0.08783581 -0.116535716 -0.7313226 -0.58323234 0.54090637 0.32805252
strawberri -0.18832673 0.6491521 -0.074240565 0.14597812 -0.07646748 -0.09375561 -0.6189436 -0.41259617 0.5145777 0.25606582
super -0.3438866 0.85470146 -0.08066451 0.1527182 -0.08300078 -0.0649657 -0.7499734 -0.6026475 0.69243616 0.38661662
time -0.27655217 0.86168313 -0.13527574 0.13133338 -0.096756384 -0.09951464 -0.73789763 -0.58163244 0.68622226 0.3646476
trust -0.36441973 0.9279279 -0.10200155 0.215702 -0.063930824 -0.05201817 -0.8837529 -0.6331325 0.6794258 0.49257278
develop -0.3321592 0.91848326 -0.11922065 0.110790476 -0.10223846 -0.13707018 -0.8053986 -0.6586347 0.6130337 0.42979005
vanilla -0.26132435 0.7699706 -0.13438398 0.13677883 -0.08689685 -0.058501974 -0.6358676 -0.5266246 0.5292916 0.29888475
wai -0.32512334 0.6888824 -0.09648229 0.12367228 -0.089511275 -0.1272698 -0.63713926 -0.5002098 0.54292655 0.37164328
egg -0.2872071 0.6918356 -0.047820214 0.15474938 -0.01601938 -0.11017974 -0.5737503 -0.42585036 0.488312 0.3065848
world -0.371554 0.97069484 -0.16908853 0.18488626 -0.09886316 -0.10395369 -0.8175649 -0.6363237 0.72041094 0.39349726
tasti -0.20057468 0.7205758 -0.10533721 0.1400027 -0.07417502 -0.033278354 -0.6583972 -0.41808364 0.4784892 0.30795836
aroma -0.29039884 0.8861218 -0.10967704 0.18790346 -0.13273212 -0.098119974 -0.843529 -0.5580296 0.65921956 0.3655621
germ -0.34342447 0.872304 -0.15409626 0.16420339 -0.038493473 -0.10768877 -0.82280463 -0.6110524 0.6876178 0.39292344
anti -0.26483807 0.6758174 -0.045558795 0.18239418 -0.04097874 -0.058795404 -0.6657653 -0.52885497 0.51315606 0.34734046
recip -0.24250625 0.7513134 -0.14369477 0.12486497 -0.092363246 -0.08007902 -0.68975365 -0.5099662 0.5527611 0.38244873
provid -0.34431568 0.87132597 -0.1501783 0.15106368 -0.08908782 -0.053576797 -0.7907273 -0.6625078 0.7112555 0.41181487
green -0.21571343 0.70318407 -0.06525365 0.1582797 -0.06421989 -0.039227076 -0.56562406 -0.47628182 0.46908894 0.3229017
red -0.21884829 0.6219195 -0.114317894 0.15679124 -0.07262564 -0.100948304 -0.55474323 -0.39618555 0.4992185 0.30757904
kid -0.3004551 0.6275312 -0.09063395 0.17774725 -0.04999737 -0.081687994 -0.6749383 -0.47811538 0.53631604 0.2792997
african -0.34265092 0.7524624 -0.07872076 0.0926402 -0.10893663 -0.12631251 -0.6678716 -0.48667404 0.5715067 0.40946704
hair -0.39752987 0.8679945 -0.1598938 0.18824616 -0.09399665 -0.11516272 -0.7805656 -0.68267196 0.6733416 0.43448582
growth -0.29669303 0.71803886 -0.057099745 0.17251387 -0.13930203 -0.10468113 -0.5982161 -0.49747232 0.47730118 0.3093782
jelli -0.26945597 0.8624593 -0.08304729 0.16464965 -0.13190335 -0.09714937 -0.69511837 -0.5244846 0.58702445 0.40025356
make -0.25641122 0.807965 -0.075965516 0.119619556 -0.1343216 -0.104520366 -0.76305354 -0.5948044 0.6578205 0.4231104
home -0.27352518 0.77578354 -0.06586266 0.12744927 -0.032483947 -0.063979596 -0.66741437 -0.54511225 0.526399 0.34242943
random -0.14496814 0.5847102 -0.008346897 0.112350404 -0.15102734 0.0114422785 -0.4226923 -0.4339787 0.4350021 0.21214367
averag -0.083530985 0.36353263 -0.008430676 0.027977426 -0.18181454 0.038805924 -0.31935382 -0.35308787 0.3785249 0.08663278
displai -0.040132444 0.25107992 -0.050715953 0.07949091 -0.061542206 0.054155454 -0.1714517 -0.2526908 0.29534584 0.045344424
citru -0.234464 0.7651893 -0.07711267 0.096985 -0.059618056 -0.13987698 -0.68906456 -0.51308477 0.5292306 0.40758568
herb -0.22728232 0.6068968 -0.045007896 0.15366507 -0.061549954 -0.12576494 -0.54342604 -0.45378113 0.44464922 0.27630746
sauc -0.3048711 0.7535123 -0.107322104 0.16899388 -0.109851755 -0.054514565 -0.7147733 -0.513504 0.60902905 0.32940665
wheat -0.27720368 0.6012238 -0.080896296 0.124368064 -0.10830615 -0.10000075 -0.5226228 -0.42427966 0.4870758 0.27238312
readi -0.19410495 0.54032105 -0.07657934 0.10503001 -0.10665245 -0.100892484 -0.49718177 -0.39172074 0.47376177 0.2909944
pork -0.15452316 0.5142796 -0.06889546 0.10543895 -0.00043264846 -0.059838947 -0.5021417 -0.34344342 0.3437106 0.2775815
diet -0.2582774 0.6853474 -0.066552565 0.07005077 -0.040467717 -0.041013066 -0.536266 -0.43822432 0.49543795 0.31969658
cold -0.26308057 0.761279 -0.079323106 0.090402246 -0.07938773 -0.11642169 -0.6735997 -0.5277426 0.6473171 0.34023684
ic -0.34028465 0.79676193 -0.14164148 0.17697418 -0.09089879 -0.039118104 -0.7164602 -0.5436025 0.5422989 0.30692458
headach -0.26445934 0.8027344 -0.091675766 0.07971937 -0.037292004 -0.08996112 -0.69427276 -0.50329745 0.56606174 0.38545078
castl -0.16290697 0.60666263 -0.044424854 0.12993006 -0.09335024 -0.032505147 -0.50914 -0.36730474 0.4740791 0.27379254
glad -0.19329171 0.5438338 -0.11282228 0.093553305 -0.016605103 -0.034640536 -0.52051306 -0.44791612 0.45496857 0.29683405
tablet -0.3021016 0.84054404 -0.1529373 0.17020242 -0.09730852 -0.1183163 -0.8159685 -0.5726962 0.6716012 0.39827734
africa -0.25527474 0.680402 -0.06902721 0.12395175 -0.09086554 -0.13542725 -0.7069658 -0.43794608 0.5888668 0.28408095
slice -0.22405437 0.57332146 -0.09924746 0.07807283 -0.123126395 -0.08296933 -0.56504923 -0.3544035 0.47649768 0.25267103
come -0.26727 0.7677113 -0.13012062 0.17366725 -0.051907957 -0.09514486 -0.6880282 -0.52279156 0.589179 0.310236
pure -0.24063608 0.6818031 -0.103470646 0.13580921 -0.10581222 -0.14038718 -0.686504 -0.46085438 0.5005511 0.2878791
formul -0.25158784 0.7167345 -0.08283173 0.09657409 -0.0938067 -0.09022645 -0.57091016 -0.430147 0.4965613 0.3145763
butter -0.24337986 0.5826669 -0.11137238 0.13203524 -0.054789174 -0.032496072 -0.5838339 -0.45200077 0.49980953 0.23586231
alcohol -0.27968362 0.666423 -0.1053467 0.14203031 -0.085531265 -0.04774413 -0.58933055 -0.49136153 0.5553349 0.36900318
label -0.21808776 0.6176935 -0.0687465 0.09444683 -0.04136517 -0.042662524 -0.55182403 -0.38339943 0.46569818 0.26796132
weight -0.19585286 0.5986031 -0.08100533 0.15418947 -8.377538e-06 -0.10295484 -0.56500757 -0.39381063 0.5181927 0.3115154
everydai -0.25296026 0.59640276 -0.07281564 0.1444262 -0.017533198 -0.07402916 -0.5327892 -0.3714342 0.4071413 0.28801715
control -0.16371287 0.49788946 -0.089133486 0.16379882 0.032727662 -0.1035871 -0.5376973 -0.3212525 0.45611024 0.2855802
maxi -0.26253185 0.6193351 -0.08063493 0.13001871 -0.060610455 -0.03053682 -0.5656041 -0.39904684 0.5289465 0.25646877
like -0.21957195 0.6992696 -0.122794285 0.12643701 -0.04059549 -0.09988637 -0.61501515 -0.44148225 0.5318054 0.36969545
dove -0.28940055 0.55751693 -0.08691324 0.07934713 -0.07458258 -0.059156187 -0.57930106 -0.4540733 0.43812144 0.27412865
chees -0.2134256 0.6824186 -0.05382164 0.14650707 -0.11025715 -0.12980977 -0.6142199 -0.43111116 0.4975608 0.3227982
men -0.295238 0.65369344 -0.12976581 0.16102535 -0.024647862 -0.09850685 -0.54137075 -0.47343656 0.42902932 0.2961195
brew -0.31414 0.7355749 -0.16308182 0.10075309 -0.062595025 -0.09749064 -0.6673431 -0.52668875 0.59553385 0.40580285
clover -0.15186803 0.5055633 -0.10327954 0.07168574 -0.076989524 -0.039572164 -0.4619044 -0.3273355 0.39729965 0.24780546
carefulli -0.16516064 0.5650741 -0.100065395 0.19363096 -0.0357634 -0.08250439 -0.5252732 -0.34557694 0.3882398 0.31212232
kellogg -0.19114874 0.6079605 -0.10411307 0.059563883 -0.014712795 -0.11674661 -0.48720345 -0.3584027 0.41249517 0.29234806
rice -0.27530912 0.6802716 -0.079454795 0.07914096 -0.025597408 -0.07823016 -0.6416401 -0.44437915 0.547849 0.34901446
addi -0.16800283 0.5783342 -0.082835995 0.059434354 -0.052672278 -0.039995287 -0.5319827 -0.38528094 0.39245304 0.21835278
seed -0.26953858 0.5690218 -0.10416179 0.11205727 -0.07576271 -0.08671172 -0.49643353 -0.37890604 0.4591679 0.24720892
bring -0.21661632 0.6276247 -0.07421103 0.12706414 -0.07855181 -0.09128886 -0.5174672 -0.45158318 0.42675358 0.27009436
deliv -0.18248537 0.60665995 -0.065831184 0.05869373 -0.09149923 -0.1171369 -0.5502312 -0.42039943 0.46787256 0.32697853
valu -0.16376017 0.5285959 -0.09530104 0.12789844 -0.021869361 -0.0341999 -0.54194206 -0.36040536 0.4463976 0.27696118
non -0.24063094 0.78013164 -0.057934016 0.13649693 -0.13118185 -0.10658636 -0.71234715 -0.516553 0.5666994 0.38682
can -0.22010499 0.6063494 -0.11699264 0.052284233 -0.08806083 -0.07870814 -0.5365338 -0.48631203 0.4881179 0.3261695
indulg -0.2315744 0.56160796 -0.04069639 0.14847186 -0.124048345 -0.05960351 -0.56114155 -0.46016675 0.48969278 0.3055859
auto -0.20857686 0.5346425 -0.04089058 0.08930773 -0.018518912 -0.05025672 -0.49855846 -0.3424749 0.41286886 0.29378584
creat -0.30238235 0.7638965 -0.10856682 0.17104542 -0.026288189 -0.10514564 -0.67010987 -0.46272102 0.5528892 0.2991834
beauti -0.23052654 0.6381847 -0.100195624 0.13434744 -0.026175456 -0.056281198 -0.6718214 -0.45547074 0.45409343 0.31079867
foam -0.15848474 0.3613799 -0.08360323 0.09365186 0.0042332346 -0.07598476 -0.35419363 -0.3421772 0.29675344 0.2128753
sunlight -0.14432754 0.35187897 -0.05494913 0.070581004 -0.05597818 -0.023449272 -0.31945258 -0.31052604 0.31237125 0.2201066
wipe -0.14895764 0.45041883 -0.085985646 0.09501576 -0.05279752 0.008017958 -0.36480698 -0.29965517 0.3209181 0.25867742
last -0.22949311 0.5420504 -0.07941663 0.12111598 -0.076295264 -0.08063638 -0.5025431 -0.4057852 0.46049052 0.2960976
it’ -0.26247162 0.72254807 -0.13816299 0.10189727 -0.09204985 -0.07277445 -0.66256267 -0.4430601 0.58767265 0.34318894
coconut -0.20436873 0.70903546 -0.055535104 0.13458093 -0.052192494 -0.1282094 -0.6514947 -0.49441507 0.5484272 0.35537723
tea -0.22623423 0.62092537 -0.117965 0.15930672 -0.023229642 -0.10429283 -0.49255952 -0.37492973 0.4838497 0.24431537
sprai -0.32324478 0.7091598 -0.07216044 0.16550136 -0.102327734 -0.093114756 -0.7245353 -0.4971019 0.53496873 0.3529855
hop -0.20078714 0.677576 -0.09209354 0.15216087 -0.07867848 -0.047357906 -0.6288715 -0.44550258 0.46593654 0.30407965
spici -0.12533695 0.5322957 -0.05670157 0.042221043 -0.029028224 -0.080743626 -0.48595893 -0.28626096 0.4069359 0.27957404
year -0.2041426 0.6739855 -0.048220687 0.1342749 -0.10087113 -0.06914294 -0.5706156 -0.4932667 0.47169587 0.3466737
routin -0.1409188 0.46594772 -0.025539208 0.06146026 -0.06077863 -0.086259045 -0.47533527 -0.3598753 0.33317518 0.176589
antibiot -0.21463113 0.4768611 -0.064627826 0.11554983 -0.094261155 -0.040468067 -0.395739 -0.32372752 0.40802482 0.1762984
pilsen -0.2571219 0.53647834 -0.13577422 0.124475114 -0.05433099 -0.02861337 -0.5375282 -0.35558692 0.4433495 0.21915661
bin -0.28124723 0.6876618 -0.07225228 0.124968015 -0.082535274 -0.07960577 -0.5767223 -0.4711847 0.48292983 0.32947376
surfac -0.22413626 0.740856 -0.053667355 0.100178614 -0.08282781 -0.08250121 -0.69159293 -0.48212978 0.52386004 0.27915177
better -0.2219624 0.4995368 -0.10794476 0.040390883 -0.09854724 -0.03481209 -0.4453252 -0.33513117 0.38512895 0.18950951
juici -0.1599205 0.51290226 -0.08806114 0.06513546 -0.01206286 -0.07877652 -0.44411203 -0.30184773 0.38848245 0.20336069
teeth -0.21056734 0.4054963 -0.11167591 0.057275455 -0.0020006627 -0.011817965 -0.42168328 -0.2953872 0.37372646 0.24312209
experi -0.21721677 0.4897808 -0.123040594 0.12492983 -0.09340776 -0.101873465 -0.50397986 -0.38579303 0.43827787 0.23478729
baby’ -0.17217845 0.5200696 -0.12003909 0.12769927 -0.03489757 -0.08432564 -0.463235 -0.37849894 0.3973832 0.18724078
start -0.24001291 0.7288272 -0.056261417 0.09413082 -0.07639318 -0.048282962 -0.6653808 -0.41392365 0.53871495 0.34735945
bennett -0.16322207 0.34955847 -0.01735191 0.114491515 -0.04928793 -0.0113837095 -0.29553926 -0.19895387 0.21689686 0.13899437
malt -0.32977512 0.8311326 -0.08394748 0.11829334 -0.14353786 -0.08328332 -0.7148674 -0.5501925 0.62477463 0.35251322
hansa -0.1429745 0.39461985 -0.11800658 0.10523627 -0.05010115 -0.110657334 -0.3891203 -0.27479106 0.29501092 0.22494489
layer -0.34914145 0.8262094 -0.14259543 0.17442676 -0.0930574 -0.114785194 -0.6927268 -0.58528733 0.54374766 0.43043566
lil -0.17677052 0.45337024 -0.048460223 0.12450768 -0.09527944 0.001304047 -0.4373843 -0.35405156 0.34606653 0.17008993
cleaner -0.21402314 0.6129512 -0.082502104 0.07181529 -0.017232401 -0.041032754 -0.58726084 -0.37612015 0.51345253 0.33203888
hygien -0.19288109 0.52738374 -0.077242464 0.120564654 -0.008861018 -0.03143521 -0.473603 -0.36938074 0.40857217 0.22695357
finest -0.25209272 0.6395184 -0.050031465 0.072389066 -0.09446437 -0.048336186 -0.59004724 -0.39786497 0.5037985 0.3063881
base -0.30036697 0.6480242 -0.12540372 0.106542796 -0.06917553 -0.1338297 -0.67660224 -0.48854193 0.5689006 0.3383408
cake -0.14587739 0.38528177 -0.023516776 0.004214453 0.015371654 0.007828067 -0.27527243 -0.20739429 0.2467748 0.18534206
larg -0.20936476 0.44191477 -0.09130254 0.08108744 -0.08056682 -0.051736407 -0.45199656 -0.36014637 0.40516526 0.24930975
size -0.18231975 0.62751746 -0.011838645 0.10600222 -0.089454636 -0.036473185 -0.5098702 -0.37576815 0.43673208 0.27608365
try -0.194841 0.6422809 -0.07767575 0.104123734 -0.040284455 -0.107019536 -0.6055715 -0.42412978 0.5319012 0.3348618
conveni -0.26041228 0.59388095 -0.12564026 0.09152452 -0.05744265 -0.05721795 -0.5076167 -0.39531696 0.42473152 0.31963712
style -0.28625768 0.58791965 -0.14316736 0.16017616 -0.0863181 -0.07094767 -0.6231588 -0.4618024 0.51106244 0.32028088
farm -0.21325852 0.6587898 -0.107728235 0.1243598 -0.0245444 -0.094655685 -0.58345217 -0.46505418 0.4860603 0.3124524
cape -0.22159982 0.56497586 -0.09825906 0.062405355 -0.005107867 -0.01046531 -0.4954111 -0.39351827 0.35885412 0.20460483
coffe -0.2402678 0.55343634 -0.10550241 0.072932705 -0.043021824 -0.102208085 -0.4960234 -0.4096013 0.42874008 0.24078381
lotion -0.2835958 0.6949871 -0.03400957 0.10354353 -0.077739306 -0.1358799 -0.59401053 -0.50283784 0.5129948 0.32731888
tomato -0.23975597 0.6796533 -0.059036043 0.09456963 -0.1132837 -0.07799966 -0.6162199 -0.42733446 0.49656928 0.29129255
nnever -0.2298013 0.532387 -0.071430095 0.13970253 -0.07041702 -0.048323993 -0.46184888 -0.39030033 0.33293682 0.24518664
given -0.21942724 0.49596366 -0.09186569 0.10710693 -0.09105237 -0.06631147 -0.43285096 -0.3050972 0.30988178 0.2605606
vinegar -0.13893439 0.41726848 0.0008419755 0.046281733 -0.026592564 -0.088781096 -0.34107682 -0.273884 0.3019684 0.15311429
tampon -0.33974746 0.79492825 -0.15045583 0.15947475 -0.06381311 -0.100164495 -0.7757514 -0.55604124 0.63642526 0.4003096
rib -0.117670394 0.3714008 -0.004661632 0.04558083 -0.018062988 -0.06480432 -0.33404154 -0.20569329 0.30242047 0.22798729
treat -0.15695968 0.54582655 -0.079238504 0.08279931 -0.08765817 -0.09338416 -0.4493266 -0.33218926 0.42478034 0.24546541
combin -0.18366827 0.57396454 -0.101623245 0.12729393 -0.05164165 -0.11990223 -0.53408 -0.40359974 0.44416568 0.2809184
luxuri -0.16077462 0.47457844 -0.008501245 0.073818475 -0.030728368 -0.065406024 -0.4726932 -0.3630182 0.4010627 0.22525355
fill -0.19344957 0.5858821 -0.11975924 0.092296205 -0.040191296 -0.054765906 -0.5683884 -0.43190867 0.4862191 0.27562493
fine -0.23377699 0.63211054 -0.10015554 0.1308783 -0.11227732 -0.02109424 -0.5548162 -0.4220557 0.4597335 0.31124213
cube -0.17039686 0.47969916 -0.10913514 0.08185431 -0.09029466 -0.07795054 -0.49703562 -0.32331744 0.33431384 0.25782838
clear -0.21361072 0.48034173 -0.038574267 0.049008444 -0.06939393 -0.105593346 -0.4939437 -0.33158663 0.36550856 0.22069769
chilli -0.20121762 0.4147077 -0.0073161623 0.12520643 -0.031827852 -0.082639955 -0.4436234 -0.2533472 0.28207186 0.17361854
breast -0.18414362 0.43675482 -0.03860034 0.06997779 -0.05750003 -0.094552726 -0.45833433 -0.26878524 0.38780317 0.23087856
stew -0.12578271 0.29636404 -0.08179133 0.120608754 0.016241066 -0.035118055 -0.30114537 -0.2009875 0.25472483 0.13485382
toilet -0.21904777 0.5254533 -0.047897473 0.110392295 -0.012736211 -0.0038544522 -0.50063235 -0.3478302 0.40544963 0.27168143
regular -0.21415076 0.47733358 -0.0562934 0.12992768 -0.023338344 -0.09148737 -0.48763707 -0.38394743 0.3927832 0.20834796
content -0.13356848 0.34850904 -0.05270899 0.16429804 0.049330465 -0.080990024 -0.40266857 -0.26450062 0.2703754 0.23353468
biltong -0.0773631 0.32957053 -0.013685908 0.08771896 0.02375944 -0.0050289663 -0.31967863 -0.19696926 0.32078382 0.16831769
ag -0.19735786 0.56157863 -0.023460288 0.15202619 -0.09107053 -0.036715716 -0.5341157 -0.35557422 0.4023478 0.21204072
essenti -0.23220837 0.50315535 -0.04043331 0.14086866 -0.013082971 -0.036772978 -0.46201003 -0.4149076 0.37804797 0.29977137
braai -0.11781157 0.37227148 -0.047054667 0.12403108 -0.08451175 -0.07784467 -0.3284763 -0.24060391 0.33037943 0.1453011
ideal -0.24372713 0.60455716 -0.10090343 0.10876996 -0.04925834 -0.086400434 -0.4927439 -0.3576429 0.38853362 0.23462698
bonaqua -0.124962404 0.2594817 -0.030946849 0.00056806736 -0.023558566 -0.080346785 -0.32184836 -0.20532523 0.25137717 0.112801746
brutal -0.11110259 0.29832128 -0.06952236 0.039877016 -0.03564269 -0.06870499 -0.25323936 -0.20260572 0.23012644 0.17974256
bulk -0.16408184 0.5442236 -0.073686875 0.08964654 -0.061947376 -0.026723517 -0.50915027 -0.31294438 0.36477074 0.26460373
fever -0.27237087 0.5463719 -0.080597304 0.08049919 -0.08240952 -0.019404097 -0.58466816 -0.36844826 0.47715324 0.28462893
yoghurt -0.18004759 0.5140275 -0.09801638 0.1063578 -0.047094043 -0.08261861 -0.45295864 -0.27750066 0.31021735 0.25722167
lightli -0.16331019 0.58903044 -0.094482504 0.08445852 -0.055763025 -0.018092185 -0.49427792 -0.34373027 0.43891558 0.2896083
cloth -0.21111989 0.42556468 -0.023378737 0.06594347 -0.035636432 -0.02755466 -0.44478947 -0.3485134 0.37303042 0.14976628
cooler -0.20923077 0.42059836 -0.046510383 0.113332585 -0.007392238 -0.07771958 -0.3448733 -0.2545934 0.33996725 0.22057632
loos -0.12184037 0.27247447 -0.00867238 0.02734817 -0.030322885 0.0037977675 -0.21078113 -0.24497047 0.23897508 0.10007278
design -0.24541658 0.60873854 -0.11597957 0.12500899 -0.03242917 -0.08396757 -0.5999541 -0.37847146 0.46875936 0.329264
quick -0.19538115 0.44181076 -0.07958415 0.08018481 -0.0020366374 -0.0059428033 -0.42169908 -0.29631934 0.38082486 0.25086358
eat -0.19603641 0.5146034 -0.07691692 0.12771918 0.008278774 -0.08435734 -0.38358516 -0.31129915 0.32629862 0.209592
bun -0.08580053 0.33285815 -0.059604447 0.09537139 -0.116642125 -0.024870884 -0.31024432 -0.21133856 0.29765427 0.1783735
stai -0.1771041 0.4490172 -0.096674 0.019887498 0.001990495 -0.08708346 -0.35755083 -0.23679218 0.28113052 0.15632723
spong -0.058207795 0.2566298 -0.045845933 0.021765465 -0.049593803 -0.07848226 -0.20107232 -0.24554962 0.1624697 0.12727344
syrup -0.19192511 0.5739915 -0.042871486 0.05944115 -0.01668345 -0.05919672 -0.48763332 -0.3498087 0.44064155 0.23484881
awai -0.18214342 0.6103859 -0.04249139 0.14063069 -0.041727103 -0.09446171 -0.46528843 -0.42641655 0.4046537 0.25249463
bone -0.08390473 0.31563404 -0.019946069 0.017466363 0.011725312 -0.08386315 -0.26916635 -0.22498927 0.26050496 0.12419093
meat -0.13721476 0.3485812 -0.022675475 0.046299078 -0.007795666 -0.045434605 -0.3731283 -0.30070484 0.25956136 0.20910466
work -0.28903782 0.6235989 -0.059354972 0.15377724 -0.02599904 -0.08024129 -0.56096804 -0.49478197 0.46836138 0.28070867
onion -0.10445716 0.32406288 -0.04809265 0.098546706 -0.013034949 -0.043044668 -0.32986623 -0.27034837 0.3040644 0.16832253
corn -0.20354418 0.5165384 -0.056348193 0.14190607 -0.0024811106 -0.017725937 -0.47821322 -0.3658845 0.38439772 0.25084025
bitter -0.14787954 0.4530384 -0.031309858 0.114189155 -0.038186554 -0.0054158177 -0.4781326 -0.35199302 0.35530284 0.19265148
delic -0.12617113 0.36509135 -0.04245266 0.06368607 0.009388986 -0.08120827 -0.3836562 -0.26641473 0.2430464 0.20515813
aromat -0.13196792 0.41047361 -0.06953041 0.07778956 -0.027424473 -0.049135827 -0.36796886 -0.31585187 0.33101973 0.1609412
sensodyn -0.10512953 0.2324987 0.014503569 0.07179603 -0.05395592 -0.018278422 -0.21894385 -0.21554069 0.18486749 0.10952008
tabard -0.19861178 0.42847818 -0.06811222 0.07096598 -0.034432616 -0.028678315 -0.40254113 -0.25884095 0.34584656 0.20286848
dispos -0.13875592 0.5338961 -0.067997344 0.088499956 -0.03168375 -0.045679238 -0.4813651 -0.37053633 0.38096502 0.22587252
strong -0.24565217 0.6412037 -0.06836377 0.15850577 -0.066662855 -0.024327537 -0.56575745 -0.47484192 0.5110889 0.3199192
chill -0.19209643 0.36619082 -0.07362949 0.035681684 -0.08175192 -0.010259556 -0.34885103 -0.29717764 0.31842604 0.24000716
meal -0.15156792 0.36501342 -0.10133735 0.03787926 -0.006336297 -0.0078102993 -0.39652285 -0.2612643 0.32458615 0.18829216
offer -0.22155781 0.46010396 -0.10422479 0.111566074 -0.043883882 -0.0698883 -0.48377484 -0.35502237 0.36088738 0.24270895
improv -0.13431388 0.4697135 -0.04405926 0.07081368 -0.033357188 -0.07434795 -0.48947844 -0.32124496 0.38789287 0.2502493
littl -0.18604591 0.4483337 -0.09409342 0.078338586 -0.021951163 -0.09418821 -0.3573482 -0.29619214 0.30416316 0.18977001
capsul -0.1682874 0.48292038 -0.037079357 0.070250854 -0.038354997 -0.016865203 -0.41258505 -0.34685692 0.33071506 0.2515947
tissu -0.13477853 0.4482706 -0.017331855 0.05719064 -0.057606008 -0.085285075 -0.44634822 -0.30194432 0.4132188 0.2531331
favourit -0.23125456 0.5336138 -0.11462359 0.053455006 -0.041488096 -0.1109382 -0.4645335 -0.34942698 0.40611374 0.22711043
subtl -0.25289068 0.6120698 -0.04179014 0.14505732 -0.020770244 -0.04921308 -0.53886276 -0.38281447 0.49459073 0.31056184
gentli -0.20072687 0.40698302 -0.100217484 0.09668759 -0.012336294 -0.081841566 -0.38813147 -0.29053155 0.26045924 0.19234562
hydrat -0.1586049 0.36959475 -0.06603826 0.12446918 -0.0061303964 -0.08097604 -0.41484043 -0.26436856 0.26410607 0.16880222
real -0.1911974 0.54222816 -0.113843046 0.12033714 -0.10344247 -0.014835667 -0.4364721 -0.3625922 0.41525075 0.24034552
note -0.1588245 0.44953197 -0.06374487 0.038348142 -0.048355453 -0.102289215 -0.38489574 -0.30667114 0.37229326 0.21305378
drumstick -0.06183888 0.21548466 -0.010126526 0.05002168 -0.015144533 -0.014081778 -0.26847276 -0.14921334 0.22840843 0.17395745
colgat -0.17171179 0.40366203 -0.08589748 0.10329225 -0.0027163734 -0.040513683 -0.34890574 -0.31478506 0.35183635 0.19147353
imbo -0.15827674 0.50058085 -0.111619204 0.051663112 -0.065162055 -0.04393192 -0.40614766 -0.33631465 0.35771057 0.22945632
infant -0.13635804 0.42445695 -0.026255304 0.086723305 -0.017743804 -0.037818015 -0.35574296 -0.23124988 0.26473567 0.21115682
omo -0.17023347 0.36284855 -0.07729086 0.10878671 -0.05116493 -0.0048620477 -0.32177433 -0.22178826 0.26675126 0.21661817
pringl -0.054656107 0.15129688 0.019296007 0.049708087 0.025861697 -0.038804602 -0.15622771 -0.18380181 0.1263411 0.082470745
garlic -0.12126536 0.29710022 -0.027719934 0.023143329 -0.043445863 -0.017553344 -0.31408283 -0.23983999 0.23328291 0.14022313
mini -0.17161652 0.3541986 -0.061712172 0.10433389 -0.06266022 -0.037648685 -0.38616157 -0.29434222 0.32125825 0.21604547
number -0.16421181 0.48212785 -0.11079119 0.06648128 -0.063088536 -0.027468868 -0.44445795 -0.33923408 0.38458043 0.17490256
import -0.13880111 0.4695532 -0.01277675 0.10176444 -0.02578012 -0.08844861 -0.40985015 -0.31862104 0.3620125 0.168052
prevent -0.1603716 0.596547 -0.06945729 0.079690315 -0.08760412 -0.016909944 -0.52406174 -0.3626171 0.4032372 0.24507545
quench -0.10204206 0.38550434 -0.06864474 0.046077807 -0.037954096 -0.09196507 -0.34863016 -0.2892483 0.29784808 0.12401409
thirst -0.10312384 0.34523427 0.0041345134 0.03198993 -0.019772263 -0.028633472 -0.34465143 -0.28126508 0.28954723 0.2041209
aquel -0.03226825 0.17483096 -0.027041817 -0.018035036 -0.041692536 -0.004494125 -0.18442933 -0.084591486 0.14313401 0.058473974
oat -0.14366584 0.4364194 -0.0644355 0.118454695 -0.05452248 -0.03195082 -0.39144856 -0.3514451 0.3971877 0.20643383
barlei -0.20299652 0.5776032 -0.098493606 0.07023232 -0.11546801 -0.0987168 -0.47476622 -0.3923188 0.42866254 0.24701767
tradit -0.10047467 0.43857434 -0.027686127 0.07284714 0.013177781 -0.07455196 -0.37598073 -0.2189406 0.3045044 0.21489772
cleans -0.11956766 0.42122427 -0.03618628 0.050030995 -0.07253128 -0.045679603 -0.34566942 -0.29431188 0.291102 0.15068075
head -0.20941745 0.43545002 -0.09442203 0.06082127 -0.030089393 -0.08174846 -0.40205783 -0.2764844 0.3510114 0.22950345
sea -0.20293362 0.54216516 -0.098696426 0.071271874 -0.0840744 -0.11731042 -0.52181566 -0.45035142 0.41825655 0.23035954
hoppi -0.16158357 0.4285421 -0.11327987 0.09925422 -0.026379483 -0.02590289 -0.4348064 -0.35496256 0.38467184 0.20883253
fabric -0.14642896 0.43623105 -0.08531909 0.12790462 -0.071659826 -0.07175641 -0.44468594 -0.24201693 0.34208682 0.24427146
hour -0.16862237 0.51677793 -0.08790517 0.053756233 -0.0773687 -0.030975603 -0.47744223 -0.38298047 0.41247368 0.25137928
perspir -0.17050333 0.37752426 -0.086613305 0.12394825 -0.0520689 -0.090233326 -0.43322325 -0.2748072 0.29244047 0.17358214
fish -0.121923365 0.33963352 -0.025023596 0.07372187 -0.052711118 0.0032426221 -0.32526737 -0.22741422 0.22428083 0.1659531
protein -0.17548904 0.522644 -0.043691274 0.04012783 -0.0933608 -0.047586665 -0.3984157 -0.3172345 0.42622977 0.24803872
smartfit -0.17072316 0.46698508 -0.09045662 0.08419005 -0.0036423127 -0.01010906 -0.47437868 -0.36752114 0.36493695 0.24772127
sliver -0.09176516 0.32156673 -0.03714575 0.0752234 -0.008120942 -0.026495444 -0.29050392 -0.19412097 0.18709214 0.14599974
moir -0.105683826 0.42043072 -0.011421137 0.1115291 0.0047233365 -0.05963891 -0.373705 -0.29303524 0.30381754 0.2233604
loin -0.10978948 0.23143308 -0.031312045 0.11625954 0.014866195 0.010465286 -0.2210544 -0.16290452 0.23104073 0.1599241
dress -0.20742877 0.4546278 -0.10362644 0.094474584 -0.014688931 -0.051671173 -0.5130212 -0.37424314 0.42046908 0.25636753
end -0.20872934 0.44734344 -0.10375352 0.039576996 -0.06515052 -0.09272271 -0.4415177 -0.31509668 0.39572725 0.2140126
fresher -0.13843998 0.4106082 -0.07343453 0.010748601 -0.09290134 -0.013464582 -0.28991 -0.29914752 0.32569626 0.2054901
mind -0.12371416 0.36688018 -0.059583064 0.07081952 -0.01987066 -0.06892111 -0.3116688 -0.2125818 0.30516556 0.12596184
sanitari -0.11398719 0.4186298 -0.04605119 0.033844277 -0.053327706 0.014260469 -0.3208079 -0.24052072 0.32057065 0.18485412
deep -0.17989177 0.50698406 -0.053132907 0.11029665 -0.06712128 -0.05170805 -0.39619943 -0.28522804 0.3874614 0.17718022
amaz -0.11264924 0.334438 0.00047230016 0.04539576 -0.051910967 -0.05985019 -0.32608634 -0.26537713 0.22842193 0.11969764
expertli -0.09405547 0.2913682 0.01352904 0.03784448 -0.020973092 -0.03408643 -0.27029517 -0.20612752 0.26651505 0.13864689
multi -0.18063423 0.35418102 -0.016996639 0.030363383 -0.034116782 -0.07280555 -0.32332316 -0.20526385 0.22216584 0.20652893
peach -0.15665658 0.44059566 -0.058217764 0.11906518 -0.09694258 -0.08774496 -0.42920256 -0.3318612 0.37701023 0.15665683
clinic -0.16914523 0.37343445 -0.06929739 0.09463211 0.0055248505 -0.070601895 -0.37795687 -0.25024506 0.23763949 0.22119917
flu -0.08211516 0.316337 -0.011124481 0.05712431 0.0040767556 -0.061901916 -0.2815966 -0.20208335 0.23166613 0.18391359
boost -0.19600087 0.4393046 -0.06224422 0.06613578 -0.034430187 -0.008095182 -0.42820412 -0.34350333 0.3061837 0.25465387
portion -0.122102454 0.40494835 -0.07075344 0.053579558 -0.0048506223 -0.09139464 -0.39252964 -0.3057375 0.27115816 0.18100247
hint -0.22014272 0.5384804 -0.107636705 0.098786116 -0.058273666 -0.10292596 -0.4094894 -0.38545597 0.34569097 0.2776694
rubi -0.14152926 0.34939724 -0.08608209 0.0655214 0.008128115 -0.07784371 -0.28230706 -0.26822948 0.29133466 0.11534213
fruiti -0.16030484 0.43861243 -0.03267725 0.0376701 -0.069034986 -0.074621275 -0.43352926 -0.3647009 0.3321493 0.20469777
floral -0.18105455 0.3947677 -0.0032939902 0.10630057 0.0007848881 -0.029684044 -0.36532947 -0.28201884 0.29669654 0.17156154
spread -0.14324531 0.46602893 -0.107387155 0.102756314 -0.026632542 -0.03223202 -0.44387546 -0.40092966 0.39784104 0.22022113
satiskin -0.10250134 0.29595104 -0.053675592 0.042254806 -0.066824645 -0.030433405 -0.20316188 -0.16136597 0.14333199 0.12078615
simba -0.035621576 0.22288786 -0.041016992 0.027103571 -0.059101 0.01112309 -0.17749918 -0.15841107 0.18713072 0.120672055
flour -0.16297549 0.34817484 0.0015281932 0.033074275 -0.03289593 0.006585374 -0.26181725 -0.25805762 0.24597175 0.16193657
slow -0.09932624 0.38574597 -0.030439552 0.07422349 -0.04479 -0.0044497126 -0.28762978 -0.26711527 0.3269053 0.12406692
nfeatur -0.20421158 0.3894561 -0.017324831 0.040183824 -0.067180224 -0.055308368 -0.41591537 -0.27331507 0.3386612 0.21454588
materi -0.12599313 0.4591938 -0.05657657 0.11462833 -0.052598145 -0.09876283 -0.40237957 -0.35598558 0.38446695 0.19631763
dryness -0.19654198 0.5920889 -0.025387596 0.07271611 -0.046352737 -0.06638358 -0.46215725 -0.4201353 0.41021535 0.24460186
multigrain -0.0950139 0.35966223 -0.043560296 0.05810469 -0.008363249 -0.005508638 -0.31227878 -0.25601766 0.24499092 0.12980936
softer -0.16492988 0.34047508 -0.059725087 0.0056781694 -0.0688735 -0.02173292 -0.35021478 -0.20170976 0.20582812 0.13251759
kilojoul -0.09128135 0.35140935 -0.058649 0.05508869 -0.003330731 -0.05904362 -0.3218364 -0.16791199 0.19539058 0.13700086
wing -0.12832811 0.32037044 -0.06919806 0.020539416 -0.04445027 -0.0006584664 -0.31660318 -0.12876268 0.23336534 0.17455558
appletis -0.10663917 0.18906868 -0.007578859 0.090900116 -0.08795278 -0.081665315 -0.16500203 -0.16126052 0.22676107 0.12411889
moment -0.08156821 0.35340372 -0.04390155 0.057011817 -0.08589918 -0.08750172 -0.31424382 -0.26882812 0.23708114 0.19507699
stimul -0.16439852 0.38705984 -0.0695257 0.025850764 -0.05277666 0.015015256 -0.30381176 -0.2682348 0.24070507 0.11852062
ply -0.1775682 0.4031469 -0.069950804 0.07611205 -0.01953585 0.009916469 -0.3905349 -0.18985526 0.26930028 0.19574998
grain -0.15896194 0.32367578 -0.04179921 0.049090695 -0.07734774 -0.04513285 -0.29526314 -0.29442915 0.24974976 0.16791691
crunchi -0.18051426 0.3441223 -0.0424224 0.060897376 -0.07514547 -0.079281405 -0.2896812 -0.21344464 0.31996226 0.13419625
crispi -0.16064164 0.485135 -0.10212776 0.09970985 -0.026586408 -0.016157735 -0.42117172 -0.30415672 0.30529857 0.20535938
effect -0.22717047 0.5383314 -0.06531371 0.11840917 -0.08018721 -0.0422227 -0.5389948 -0.39768192 0.37927303 0.25337985
nfree -0.13975503 0.3425722 -0.020649629 0.02145705 -0.011489718 -0.07243071 -0.2915743 -0.2416702 0.1938484 0.17745613
cough -0.17849083 0.35450992 -0.03890974 0.10219121 -0.007945137 -0.024756085 -0.3620828 -0.22707213 0.27604315 0.1380151
tropic -0.13885137 0.44350082 -0.059511922 0.116574116 -0.024699882 -0.054212626 -0.40210855 -0.3194185 0.34016034 0.15957221
mango -0.09289696 0.30303502 -0.052125055 0.01681426 -0.07250667 -0.06619197 -0.26298416 -0.15515347 0.25466776 0.17917658
instant -0.13646172 0.39410567 -0.100129105 0.114189 -0.018871225 -0.036850043 -0.37951198 -0.2740845 0.3651076 0.16542996
boerewor -0.07360123 0.33181104 -0.001741032 0.09788696 0.02942413 -0.05740674 -0.26665303 -0.13119577 0.2323989 0.15857814
grass -0.20196295 0.46823955 -0.04918888 0.095260635 -0.006920651 -0.023960581 -0.35012636 -0.24189812 0.32666916 0.18959028
ground -0.1729518 0.39350486 -0.054175075 0.07798652 -0.041892514 -0.014093749 -0.2951282 -0.25591016 0.23374827 0.17047895
connect -0.1256319 0.34218615 -0.019037742 0.011687469 0.0018371401 -0.024217606 -0.2780851 -0.21553816 0.21083164 0.14706008
safari -0.03706807 0.20987818 0.0008055556 0.052937 -0.03761204 -0.012422532 -0.14570193 -0.13227986 0.11491726 0.052590307
dettol -0.17054653 0.34697205 -0.06509348 0.08473946 -0.049307052 -0.016055623 -0.32015985 -0.25514975 0.2632851 0.20109563
suitabl -0.12135506 0.3260458 -0.003245012 0.08742664 -0.023982763 -0.031325188 -0.2739208 -0.23968211 0.21751194 0.1386695
includ -0.1858718 0.4135947 -0.07067109 0.041634895 -0.092120506 -0.07201121 -0.43867943 -0.26602232 0.2984444 0.17180479
tie -0.15144733 0.3208115 -0.08785966 0.036259387 -0.00046074897 -0.006312564 -0.354119 -0.2731747 0.2302911 0.12783477
bbq -0.09551622 0.3534168 -0.026306646 0.05871835 -0.0076501197 -0.088910304 -0.35035747 -0.3002373 0.23613404 0.17009036
maiz -0.12836172 0.25119394 -0.044947617 0.0036547584 -0.078309655 -0.037199877 -0.24274501 -0.17603724 0.19552311 0.13672626
brush -0.1741726 0.46255556 -0.0981783 0.03560519 -0.011461761 -0.022523193 -0.38620615 -0.3265313 0.34301633 0.15018734
wet -0.1339707 0.5006004 -0.07202924 0.06706245 -0.071121216 -0.08931538 -0.43656304 -0.35195586 0.34550676 0.26731876
effervesc -0.17966992 0.4222539 -0.055426646 0.11092337 -0.004827525 -0.07067664 -0.36905828 -0.2967866 0.34891957 0.18629695
lavend -0.19519791 0.40347898 -0.08645303 0.12140834 -0.061274152 -0.039721515 -0.35243747 -0.2692962 0.3556074 0.178028
choic -0.15210493 0.3267407 -0.03300111 0.10128844 -0.07831767 -0.04099356 -0.29158172 -0.24064054 0.22220172 0.18659022
fit -0.17667823 0.45423025 -0.012080026 0.06992121 -0.055501215 -0.028613297 -0.42741022 -0.35031492 0.31027025 0.24625176
core -0.14936133 0.5375962 -0.051453106 0.09072343 -0.062635906 -0.09964503 -0.405796 -0.32819375 0.3261773 0.25276506
sour -0.07310974 0.2901327 -0.0036481256 0.061283268 -0.011769542 -0.06309963 -0.28164923 -0.20893113 0.2389301 0.1712538
ariel -0.09610619 0.28517914 0.0027784335 0.034629054 -0.044671062 0.015197944 -0.24452733 -0.20604047 0.20250666 0.13619167
bud -0.1332001 0.41312587 -0.085914694 0.04932098 -0.00862924 -0.06210247 -0.386727 -0.2646557 0.30955207 0.15872718
micro -0.175539 0.44397068 -0.044942193 0.04550868 -0.028583337 -0.026912522 -0.4466549 -0.296169 0.31233373 0.2572082
bui -0.12200624 0.39618596 -0.028835934 0.10893594 -0.06907354 -0.083791114 -0.40248135 -0.28516588 0.33329615 0.16942671
breakfast -0.07858066 0.28039053 -0.08481103 0.043439142 -0.056964047 -0.03401338 -0.2684815 -0.2598487 0.21528919 0.16977194
proven -0.08766429 0.2630573 -0.043405253 0.060032327 0.0021238872 -0.038841818 -0.2402404 -0.2194282 0.24025893 0.17891677
pick -0.121200405 0.36112064 -0.03339984 0.073239364 -0.022319883 -0.0669638 -0.31291196 -0.22884482 0.22433351 0.19440587
bubbl -0.108341835 0.27643892 0.002131926 0.092646696 -0.045229938 -0.07476138 -0.28755254 -0.15256315 0.1794549 0.15238976
stick -0.198643 0.51508385 -0.08077499 0.10919938 -0.052615806 -0.038852014 -0.43289363 -0.2972954 0.3047283 0.22994596
carl -0.08721709 0.18217337 0.009567581 0.050356533 0.0068216347 0.022925505 -0.20840475 -0.17125963 0.20754443 0.1233101
depth -0.14928336 0.3819231 -0.07984916 0.0386512 -0.06639972 -0.08739068 -0.37135947 -0.32592973 0.27127188 0.20551999
air -0.16222703 0.35593048 -0.091001675 0.09025345 -0.05630005 -0.086796924 -0.3272849 -0.2601325 0.27072194 0.20050463
steak -0.15787864 0.37197936 -0.098131664 0.103016615 -0.05054355 -0.06665623 -0.31540644 -0.21972357 0.26350576 0.20636198
envelop -0.1822087 0.382676 -0.0053345384 0.035107885 -0.04713143 -0.041407984 -0.42337888 -0.28762206 0.31745 0.18014705
roam -0.13557985 0.28359738 -0.08267837 0.10912772 -0.084385 0.011201903 -0.29639196 -0.20858358 0.20764145 0.1894344
fillet -0.10728284 0.26547 -0.0195762 0.10192236 0.0050414656 -0.0055163405 -0.2035632 -0.15229969 0.22313493 0.1222836
intens -0.17065938 0.39368516 -0.03499081 0.06714387 -0.077690385 -0.01320674 -0.30868104 -0.24755192 0.28974757 0.19416821
cranberri -0.09965031 0.30645204 -0.08545435 0.06316362 -0.053113155 -0.057279103 -0.25286913 -0.22896335 0.24153854 0.1993662
organ -0.0631503 0.26932365 -0.06386421 0.016694408 -0.047019154 -0.01784562 -0.22041422 -0.16153519 0.21115206 0.13058217
biom -0.1089693 0.10638488 0.0015179134 0.020089898 -0.017945701 0.018916635 -0.10885296 -0.12671903 0.118383124 0.037697464
sta -0.063437864 0.26127225 -0.03955786 0.06758318 0.0042157574 0.0077490075 -0.16469806 -0.17745344 0.17373183 0.058591552
nkeep -0.11101937 0.33882865 -0.037678868 0.051500358 9.0179354e-05 -0.08483883 -0.29164052 -0.24730356 0.2685751 0.19166377
small -0.13440919 0.44801643 -0.02398733 0.12557867 -0.074210085 -0.061702922 -0.42932588 -0.33497727 0.3261471 0.23106779
seal -0.13879114 0.31245562 -0.0637308 0.08523003 -0.016113035 -0.011259773 -0.3063058 -0.24671367 0.24791203 0.17273785
serv -0.17375502 0.44868362 -0.020604203 0.045599643 -0.030032095 -0.020594228 -0.4007093 -0.28811067 0.2712029 0.1576374
bristl -0.18053555 0.44037446 -0.069469854 0.040525552 -0.009197298 -0.0093684355 -0.42249995 -0.3612667 0.33731583 0.23484212
textur -0.15323788 0.2997528 0.008904582 0.023323279 -0.0695485 -0.07520217 -0.25484985 -0.18112084 0.24615724 0.18445173
rooibo -0.095252186 0.27642307 -0.09195328 0.014161084 0.009575905 -0.058513176 -0.30823356 -0.2550902 0.22374137 0.10920426
heart -0.13091947 0.4401891 -0.058415536 0.05433974 -0.08692647 -0.0017524372 -0.4252021 -0.28950125 0.29113838 0.25382096
anytim -0.06127515 0.12319436 0.015959272 0.057729833 0.019309111 0.017183647 -0.16157454 -0.13234237 0.14512235 0.045178965
almond -0.122147694 0.32661566 -0.06549024 0.07967798 -0.0179696 -0.060075916 -0.33420464 -0.30886397 0.25444975 0.1820651
night -0.059461493 0.28400669 -0.006144787 0.09681227 -0.012374099 -0.05981552 -0.2507305 -0.17417292 0.20970048 0.10335802
normal -0.16756071 0.32582065 -0.012530713 0.09876238 -0.0007085532 -0.026757041 -0.25264132 -0.1931847 0.27560326 0.15473245
want -0.09282734 0.30122837 -0.03808673 0.09693608 -0.009691141 -0.07629166 -0.27647087 -0.1919075 0.22583453 0.1300285
spirit -0.13125333 0.22723524 0.0126896165 0.06609557 -0.07670481 -0.0744325 -0.2548498 -0.115176156 0.18680137 0.15186405
month -0.11506902 0.27970433 -0.01580352 0.040271588 0.014044318 -0.06801597 -0.26461616 -0.19537796 0.2667364 0.11353757
point -0.18237886 0.34815758 -0.037741303 0.0314468 -0.059891183 -0.030940164 -0.33888596 -0.31536397 0.34230584 0.15599285
nextra -0.16424486 0.34141544 -0.091942266 0.07643407 -0.014003634 -0.0021553738 -0.31308168 -0.21917798 0.22654928 0.20191447
promot -0.10354941 0.36327842 -0.021656945 0.052145198 -0.012981268 -0.007872675 -0.30900455 -0.2590807 0.2877457 0.15681255
peopl -0.1853602 0.3603521 -0.00465153 0.0972769 -0.09725869 0.0037565604 -0.3350952 -0.30536732 0.2835099 0.15377371
thing -0.119609475 0.3722056 -0.011397389 0.07521307 -0.03600726 -0.0019819478 -0.27315438 -0.20133345 0.30051064 0.18151084
lettuc -0.13560535 0.23323712 -0.044981048 0.0112224305 -0.064379185 -0.02194166 -0.2112668 -0.22811994 0.1942668 0.14287679
differ -0.16046034 0.39728612 -0.08175649 0.06083858 -0.02103193 -0.0605322 -0.35208464 -0.23543403 0.245121 0.1697021
respons -0.15295923 0.3696476 -0.06958282 0.03936167 -0.043652143 -0.078412205 -0.31198326 -0.18950924 0.28940505 0.10590948
carrot -0.12387787 0.2620345 -0.017780902 0.066401124 -0.039973557 0.0064295116 -0.22748902 -0.19794722 0.17759344 0.059526708
defenc -0.16233177 0.41852558 -0.08594635 0.11518726 -0.05936753 -0.08220434 -0.35200012 -0.3281321 0.286109 0.16203313
hot -0.14650759 0.38596937 -0.003211566 0.115943916 -0.050361503 -0.08107486 -0.3334403 -0.22468004 0.24220969 0.21769704
custom -0.17473415 0.43665814 -0.10770736 0.09952016 -0.0626663 -0.009097211 -0.40165868 -0.3212886 0.26311076 0.19425833
stronger -0.06794535 0.25114998 -0.084660836 -0.006256682 -0.02423759 -0.015990322 -0.24573103 -0.21617715 0.19772977 0.0894028
person -0.16794623 0.31106034 -0.0878832 0.07618326 -0.08195995 -0.07284122 -0.25763595 -0.26947904 0.30167332 0.16542627
cere -0.11798583 0.23318996 -0.010020638 0.0864376 -0.0028432545 -0.041494764 -0.15279958 -0.17181101 0.18357685 0.11434609
italian -0.14631936 0.3095196 -0.0136218965 0.018618759 -0.05054252 -0.080374025 -0.33276814 -0.19673654 0.2913137 0.17158931
shape -0.17492229 0.4859217 -0.03316516 0.064844154 -0.034168456 -0.09116681 -0.3739713 -0.31436834 0.36003733 0.2534666
fun -0.14127335 0.3427681 -0.09351544 0.053358916 -0.065298915 -0.036734443 -0.41128105 -0.23963991 0.27007353 0.23596495
max -0.18344198 0.32440948 -0.07026414 0.031209756 -0.059264656 -0.027613351 -0.3189852 -0.23392159 0.29299128 0.12351646
cup -0.08749696 0.26024115 -0.0721078 0.010344549 -0.058054317 -0.06528686 -0.29288152 -0.17006354 0.16141395 0.11371732
skinless -0.07529881 0.14961952 0.013057164 0.09609944 0.01321636 0.022363476 -0.18764053 -0.06765146 0.18292002 0.07303433
pop -0.09183671 0.36655635 -0.026110414 0.05114469 -0.028651498 -0.03462208 -0.31301537 -0.23995088 0.21372004 0.13365723
oro -0.09613572 0.2882004 -0.0461836 0.0128082745 -0.0071664387 -0.055778213 -0.28949302 -0.20340064 0.21357061 0.1723207
simpli -0.08997958 0.35458687 -0.01623906 0.09429525 -0.03359089 -0.02078802 -0.3270722 -0.21865276 0.26861125 0.1963343
ginger -0.14328639 0.269986 0.006978773 0.032356855 0.0070662973 -0.0039715813 -0.3056555 -0.22639267 0.2200077 0.17918709
type -0.16322497 0.35189313 -0.004333427 0.039636996 -0.02938674 -0.027906414 -0.30444002 -0.23287967 0.23076257 0.15326637
johnni -0.13697559 0.32938302 0.013329783 0.055794958 0.004468341 -0.010255628 -0.28694025 -0.15633135 0.2099975 0.13175829
walker -0.08475571 0.32985258 -0.056751933 0.023338731 -0.0286154 -0.013070636 -0.2279534 -0.19368553 0.25121662 0.104880586
rye -0.10285122 0.25595093 -0.045457006 0.08870957 -0.04861039 -0.079356596 -0.2290015 -0.14522965 0.15047026 0.12073466
cut -0.13682835 0.36636674 -0.044006113 0.036961444 -0.03485736 -0.04409146 -0.30609432 -0.21909352 0.27416024 0.17934924
raw -0.10984932 0.32226217 -0.060215592 0.06043695 0.0062146126 -0.06410064 -0.3527284 -0.2599055 0.25515464 0.2063787
nthe -0.18082274 0.3729433 -0.026281651 0.060340542 -0.008970984 -0.033467006 -0.38650402 -0.27259073 0.26441896 0.21555161
dirt -0.1923118 0.4170392 -0.019522741 0.05876837 -0.020229332 -0.060312998 -0.35960698 -0.2575452 0.31824958 0.23291446
handl -0.11801529 0.31893027 -0.08833107 0.042163752 0.017422266 -0.03549471 -0.32249758 -0.2067426 0.19890064 0.13057902
innov -0.1617911 0.36750928 -0.063721314 0.08471677 -0.07654091 -0.04944221 -0.302984 -0.20240293 0.24285695 0.17872901
avail -0.18569483 0.40196395 -0.07797907 0.019829119 -0.06781025 -0.07873528 -0.3730511 -0.28537652 0.24565376 0.15729979
round -0.12392784 0.28254974 -0.055813543 0.037810933 -0.016738776 -0.044723526 -0.30329794 -0.21767625 0.20191571 0.12251401
ball -0.18379347 0.31435043 -0.04825804 0.0692226 -0.070610836 -0.085730545 -0.27423647 -0.22708322 0.30232686 0.16967288
butternut -0.049542237 0.19203298 -0.036029812 0.06814905 0.003010109 -0.003555117 -0.22311613 -0.13096109 0.22091694 0.061185047
moistur -0.1659652 0.37793797 -0.062819384 0.053484205 -0.00058409566 -0.052203473 -0.31798112 -0.21551558 0.2498618 0.21179341
liver -0.026633391 0.21309063 0.022872819 -0.00093126565 0.029459221 -0.014415878 -0.15694548 -0.14854439 0.090203464 0.112600535
gin -0.10166489 0.26745382 -0.025929987 0.016966803 -0.020785151 -0.055914786 -0.23010498 -0.19806083 0.21279418 0.13865648
summer -0.13368419 0.29268265 -0.067535535 0.02295815 0.008318624 -0.0106542315 -0.18463299 -0.17480709 0.21920504 0.14665891
order -0.13667768 0.35839635 -0.008093805 0.054392677 -0.059514545 -0.058148228 -0.31325606 -0.27049255 0.20650266 0.13962084
fast -0.12958767 0.3439348 0.015742755 0.013973741 -0.05786035 0.013894524 -0.296892 -0.19701256 0.2238298 0.17425667
pro -0.095021375 0.24396527 -0.07132927 0.020514466 -0.019878108 -0.02195917 -0.27260557 -0.2502246 0.2570594 0.11822404
ballpoint -0.15393384 0.33104318 -0.037108775 0.06575463 -0.080425784 -0.00059935614 -0.22450735 -0.18081701 0.23937735 0.17114913
nutrit -0.13334765 0.35637286 -0.050327368 0.056917995 -0.08849927 -0.04894983 -0.3981768 -0.2861492 0.27918872 0.22222324
nrb -0.0963801 0.27766743 -0.045324333 0.07945668 -0.07954625 -0.013451875 -0.24970731 -0.20584352 0.2434219 0.16376764
peel -0.0906053 0.36678383 -0.042481653 0.055027608 -0.078647524 -0.08293596 -0.28552985 -0.19990616 0.22158267 0.18351692
household -0.15982506 0.46569106 -0.048525117 0.11724564 -0.09503577 -0.04435354 -0.42512032 -0.30319148 0.32994652 0.20910992
sure -0.14105098 0.36522502 -0.015304398 0.030533412 -0.016166149 -0.08180775 -0.3472695 -0.25386468 0.23096292 0.19412202
craft -0.14833663 0.2595025 -0.074612826 0.003360623 -0.05961105 -0.0023687875 -0.26890007 -0.2330914 0.16660818 0.15452747
flake -0.09842122 0.34621966 -0.017026642 0.038067814 -0.020572688 -0.04569053 -0.2688013 -0.23542769 0.28165326 0.19976579
sweeten -0.11821308 0.29888186 -0.07579272 0.07400097 -0.045914046 0.002794524 -0.23304959 -0.24028154 0.18980291 0.12834172
dark -0.06418756 0.31933418 -0.06571688 0.038804088 0.009523205 -0.03267683 -0.22914927 -0.2004285 0.27596426 0.10668826
cocoa -0.06029117 0.31668046 0.003249106 0.09912607 -0.050281625 -0.07496654 -0.22073938 -0.18078955 0.21962282 0.11045357
dens -0.13429119 0.34053317 -0.028205616 0.034526773 -0.016652007 -0.062490214 -0.33537486 -0.1834742 0.2597243 0.17497009
complet -0.121988215 0.32802907 -0.06900639 0.067054816 -0.05703846 -0.02100844 -0.28727564 -0.21997416 0.16688427 0.1713481
nwash -0.09767503 0.24210358 -0.08195025 0.08115887 -0.071597196 -0.03992956 -0.21348347 -0.23246613 0.16320823 0.06833047
diseas -0.1045324 0.37164456 0.00077821617 0.09188442 -0.016690679 -0.06520929 -0.3060879 -0.22157723 0.22741845 0.1943483
dinu -0.21398479 0.40280166 -0.092488565 0.03400737 -0.08821969 -0.03879121 -0.4560589 -0.27304363 0.30641213 0.20329013
repel -0.078935534 0.31040478 -0.038644604 0.048382714 -0.016732244 -0.04408525 -0.31248692 -0.27716187 0.29149312 0.1177825
fly -0.08443921 0.12644894 -0.04941321 0.0748517 -0.00056054065 -0.039535798 -0.1612604 -0.12581135 0.07571126 0.023328833
gluten -0.10566242 0.23995909 -0.058934823 0.015369189 -0.039333012 -0.079053625 -0.30605924 -0.1847262 0.19626571 0.12861754
stock -0.15311189 0.35461947 -0.07219704 0.069581896 -0.05337547 -0.05996381 -0.32117245 -0.27082217 0.29692256 0.17566681
novalac -0.12160144 0.37869564 -0.08492225 0.09133107 -0.0027906594 -0.041569002 -0.3338504 -0.26210794 0.1984152 0.18207964
paraben -0.12708479 0.24025561 -0.07336244 0.08684733 0.028249837 -0.059337437 -0.256961 -0.13231088 0.18796988 0.15109186
minut -0.112242505 0.26920956 -0.052866425 0.033022963 -0.013180789 -0.07271739 -0.2887639 -0.26197717 0.25938615 0.12400589
berri -0.018205244 0.24462692 -0.06601697 0.041273434 -0.05809724 -0.07775943 -0.1824318 -0.17612642 0.1635775 0.10657309
ultim -0.037463017 0.22776945 -0.025253672 0.061576005 0.00384177 0.018336268 -0.15496898 -0.10690958 0.11365998 0.08176542
consist -0.13589352 0.36828223 -0.031046225 0.07936979 -0.0021958717 -0.029874822 -0.31250843 -0.2061607 0.24109064 0.1634218
piec -0.12168429 0.22888148 -0.00759812 0.06401999 0.018919682 -0.073783666 -0.20850495 -0.20821524 0.26235613 0.11568894
safe -0.08173692 0.286726 -0.020689389 0.04146293 -0.005895932 -0.040675715 -0.29487202 -0.18759094 0.20799816 0.11749411
plastic -0.082445055 0.3233076 -0.0023060418 0.029032452 -0.07149857 -0.0030095559 -0.2275414 -0.22854827 0.1849161 0.12182839
support -0.11475328 0.3183265 -0.07555607 0.026646016 -0.07246995 -0.017409574 -0.34522593 -0.19596002 0.27109224 0.1544388
technolog -0.12111027 0.26579666 0.010049238 0.026025703 -0.0061314767 -0.009934168 -0.23186927 -0.20179318 0.2330467 0.16452907
flow -0.12535411 0.37766328 -0.01500633 0.052656427 -0.03739914 -0.020162959 -0.32124048 -0.24595821 0.23228474 0.2160129
leakag -0.11038753 0.39255118 -0.071628705 0.06427203 0.010548002 -0.031291995 -0.34980816 -0.24601926 0.3267341 0.1628254
dri -0.077248044 0.20436013 0.00013701912 0.04505447 0.0049603484 0.009657477 -0.22508706 -0.1578205 0.17970568 0.113319606
keep -0.051809877 0.1986048 0.010763957 0.053983472 -0.033406835 -0.048588946 -0.2019502 -0.2041537 0.1883308 0.13398217
except -0.014161914 0.21201414 -0.08088431 -0.0057368376 -0.05796246 -0.0061441357 -0.17311454 -0.09755809 0.16652016 0.09345827
litchi -0.11357959 0.27747425 0.019620026 0.04044195 -0.014698227 -0.011249913 -0.2385133 -0.21386023 0.21786906 0.14395739
nourish -0.077168815 0.3315859 -0.042088956 0.023976162 -0.008770751 -0.08004037 -0.2883033 -0.21113236 0.1922333 0.1106713
digest -0.08595111 0.28520852 -0.043203674 0.016296009 -0.04537885 0.011301701 -0.31442228 -0.16367798 0.20994966 0.16864564
irresist -0.044833828 0.1790961 0.0055430694 0.077828355 0.021758256 -0.014921188 -0.2026709 -0.16909964 0.10403416 0.090180844
morn -0.16780876 0.3894831 -0.040383365 0.055559862 0.001813384 -0.017735641 -0.35302088 -0.23031639 0.27030724 0.16773756
wor -0.123540476 0.2540838 -0.052868575 0.0330428 -0.028597957 0.013184669 -0.17589544 -0.14608233 0.14747593 0.13880806
aqueou -0.0591388 0.1443185 -0.066584796 0.09145414 -0.058989577 -0.0019358641 -0.20251584 -0.08366778 0.13738243 0.08662258
pump -0.09050445 0.1496523 -0.06349276 -0.0013537707 -0.03183033 -0.062030554 -0.1616795 -0.14645322 0.14121921 0.099661484
sale -0.13787386 0.32274032 -0.07683085 0.033656158 0.0036744277 -0.066019736 -0.23204611 -0.17486191 0.19709599 0.17491493
handi -0.12829374 0.28207013 -0.007580061 0.09073886 -0.058633972 -0.07814589 -0.24481629 -0.20000018 0.15287729 0.07917445
pineappl -0.117016934 0.13596222 -0.011438205 0.070895895 -0.049707744 -0.013941981 -0.12298407 -0.0999396 0.15198597 0.07425068
versatil -0.113807894 0.25557494 -0.07153854 0.07236481 -0.06073868 -0.04374901 -0.23065929 -0.21077971 0.14948654 0.06946009
know -0.06137256 0.20827205 0.0076304125 0.03792588 -0.005990946 0.0015563199 -0.18323803 -0.17745626 0.14387366 0.13495308
banana -0.13959238 0.28540793 0.0030262338 0.037671685 -0.023454634 -0.00423325 -0.22790311 -0.19974959 0.22460179 0.09587584
farmer -0.085378066 0.29538116 0.0057829083 0.007680671 -0.07752626 -0.07686457 -0.24644855 -0.2097548 0.24099576 0.07739933
pediatr -0.10354436 0.23286054 -0.004470619 0.04588015 0.016144684 0.008807234 -0.18202022 -0.21978705 0.19627008 0.11860711
canderel -0.06095169 0.16650371 0.0030569881 -0.0009955624 -0.005942945 -0.06685446 -0.17992078 -0.16544282 0.13154821 0.07312623
linger -0.083824836 0.26268524 -0.04386404 0.069953874 -0.07478289 0.011629604 -0.25737926 -0.15688841 0.18083028 0.16947374
volum -0.117391415 0.37196192 -0.046792727 0.08965499 -0.10330868 -0.08714592 -0.34088975 -0.2246905 0.2850194 0.15164152
cerebo -0.13400052 0.33850765 -0.0708378 0.01032605 -0.02592541 -0.06382303 -0.3286304 -0.23075706 0.2714404 0.09862324
excess -0.07096904 0.24493064 -0.08699543 0.090611674 0.020727517 -0.004936513 -0.2902554 -0.21938561 0.17256972 0.110484645
croxlei -0.12742925 0.2941873 -0.026739001 0.053471543 -0.067098685 0.0029860826 -0.27733287 -0.2092213 0.20864382 0.13086714
accord -0.1110937 0.3943288 -0.08876328 0.10667051 -0.09022061 -0.09023056 -0.4206204 -0.34107748 0.3138369 0.24046752
grow -0.12987801 0.41421387 -0.025075711 0.06415116 -0.057705287 -0.048567995 -0.35703185 -0.24989203 0.312773 0.20119523
dishwash -0.107570626 0.20778032 -0.0037552253 0.028577924 -0.0044503505 0.0030861478 -0.16891049 -0.16029036 0.18579772 0.09152747
outdoor -0.13499422 0.2258463 -0.0560808 0.040218845 0.030104278 -0.018734168 -0.22915228 -0.12011769 0.19685131 0.1037984
hth -0.08142988 0.30125698 -0.036077123 0.04903702 0.016595038 -0.0696331 -0.28439444 -0.15218745 0.23930582 0.11860126
applic -0.1862713 0.35280412 -0.048860557 0.06805258 -0.07402755 0.00722542 -0.3500549 -0.2895831 0.3130744 0.16980872
grape -0.103703395 0.27873072 -0.060305618 0.044210065 -0.071386606 -0.07461521 -0.17754799 -0.22009915 0.16027988 0.16007188
side -0.11690516 0.4686123 -0.049231198 0.043354347 -0.033647146 -0.026658045 -0.40355423 -0.29288456 0.27832925 0.23786132
panado -0.1291731 0.34638098 0.002297618 0.016487347 -0.034185562 0.012902097 -0.342588 -0.17351209 0.23084769 0.10052987
parmalat -0.11791956 0.27288568 -0.0010978027 0.0295226 -0.03915178 0.011244719 -0.23299706 -0.1770962 0.17810401 0.15319781
child -0.08862108 0.19491206 0.017695189 0.031345207 0.027464753 0.020560682 -0.17583054 -0.06009633 0.15981808 0.09198114
snowflak -0.1074429 0.20640159 0.01133805 0.010516046 -0.0010494652 -0.039557293 -0.12326984 -0.14153285 0.10989926 0.057696626
brm -0.06478032 0.2601497 -0.010966729 0.06743314 -0.007849182 -0.05314462 -0.19303313 -0.13498633 0.17558213 0.06981576
fulli -0.08731381 0.23946573 -0.08167194 0.08758977 -0.06893363 -0.026323033 -0.21719702 -0.1895771 0.25786224 0.15449756
curri -0.017282598 0.17711148 0.023179514 -0.0018624963 0.01872392 -0.024578342 -0.14204982 -0.12763746 0.06989242 0.066417426
whiski -0.07709335 0.28878137 0.010141271 0.058480226 -0.04867336 0.0031930548 -0.3002606 -0.2253782 0.27002412 0.18454447
condition -0.103504054 0.31306282 -0.048320048 0.042787854 -0.03365168 -0.07132533 -0.2148658 -0.20003271 0.20709476 0.10679042
waterless -0.12763572 0.21133839 0.014606914 0.0037439887 -0.030064726 -0.074252784 -0.1751044 -0.12215311 0.10852802 0.047045078
set -0.07123004 0.2485167 -0.01760867 0.033537272 -0.021512842 0.0022297008 -0.26140225 -0.22262818 0.23727709 0.17599425
box -0.17266932 0.3362817 -0.06000333 0.04385494 -0.07665583 -0.04486391 -0.33095193 -0.29423225 0.30211264 0.19668843
metal -0.14436859 0.25727275 -0.08712517 0.019276088 -0.025645047 -0.04154626 -0.23990677 -0.24116315 0.20048355 0.0898892
variant -0.089645624 0.25519997 -0.0149276 0.02290226 -0.057106864 -0.032872073 -0.2038558 -0.18325175 0.10661748 0.07021286
loav -0.10326163 0.17712551 -0.047878493 0.082187474 -0.014927533 -0.032990057 -0.21830504 -0.11968275 0.15440668 0.0746978
tinki -0.026461229 0.14921074 -0.050017536 -0.023697434 -0.058000304 -0.0320395 -0.14229049 -0.04484665 0.10293358 0.07865999
nose -0.11916224 0.3552669 -0.08655827 0.06448668 -0.029188696 -0.0016708011 -0.24019176 -0.19632882 0.22108446 0.12366665
odour -0.08767755 0.2769788 -0.028627725 0.018285137 -0.030623307 -0.078516155 -0.23850192 -0.18820181 0.22875848 0.13610628
test -0.080602184 0.38848093 -0.040108696 0.052298892 -0.0682428 -0.059414495 -0.3633439 -0.22206907 0.2495016 0.17503415
barrier -0.12841238 0.2880271 -0.07135829 0.112030014 -0.05001965 -0.008485789 -0.25449613 -0.23831409 0.21311814 0.13372211
pre -0.04301352 0.26806048 -0.055473916 0.06390035 -0.07016415 -0.026296854 -0.15848139 -0.1296169 0.19011016 0.13110997
cap -0.15448862 0.38840303 -0.09134578 0.08134102 -0.07600184 -0.042177163 -0.36914966 -0.21081601 0.2481636 0.16987512
lax -0.17748798 0.44685265 -0.03184294 0.06596851 -0.010088492 -0.025917422 -0.41841736 -0.33346394 0.35526824 0.21283938
oliv -0.12979223 0.19538546 0.004417336 0.0033197317 -0.046772234 0.0065523763 -0.26524663 -0.20554377 0.12970862 0.07837476
paper -0.08894906 0.21854866 -0.05532841 0.0054024966 0.018014384 -0.006651584 -0.22181149 -0.19637908 0.21029766 0.07473113
choc -0.110693105 0.24641053 -0.07561977 0.005639245 -0.018085131 -0.020701047 -0.26070154 -0.19429614 0.22881974 0.11086498
sprinkl -0.054994207 0.24999823 -0.035499685 0.0014489419 -0.015725153 -0.018363137 -0.24885194 -0.19631657 0.23485474 0.1084684
plant -0.11960809 0.32190388 -0.08086391 0.07925486 -0.015251678 0.0011552755 -0.23764682 -0.23654184 0.2680252 0.16352671
recommend -0.07686982 0.28445253 -0.047504105 0.089744024 0.005825122 -0.049620472 -0.27286786 -0.19546184 0.2482823 0.094142936
easili -0.16005094 0.35169622 -0.031205945 0.060701575 -0.0059478865 -0.031558424 -0.2560626 -0.20725727 0.245561 0.111699864
repair -0.0894946 0.15977308 -0.061829083 0.029757291 0.033915438 0.02748446 -0.14572185 -0.1683258 0.109538 0.11485765
physic -0.086991884 0.354252 -0.04783146 0.038618214 -0.0700605 -0.04513777 -0.31059963 -0.1668911 0.21264395 0.18892866
marker -0.0590478 0.2590143 -0.053052146 0.034450367 -0.044519547 0.0032569035 -0.23414919 -0.17248029 0.22089092 0.113490865
glass -0.1456309 0.31890458 -0.06470697 0.052698325 -0.07687896 -2.2997134e-05 -0.21250838 -0.183341 0.23899886 0.11852474
pool -0.17621179 0.31018147 -0.011033459 0.03671156 -0.07513378 -0.070827655 -0.33620837 -0.19464344 0.25588822 0.20571595
look -0.10713127 0.24432646 -0.06842876 0.09069376 -0.08138352 -0.051841088 -0.26904485 -0.17033464 0.2198741 0.10592452
dog -0.046600066 0.22964507 -0.07985809 0.018198567 -0.017108072 0.0047921455 -0.27103364 -0.2143536 0.1557618 0.10766575
bowl -0.11118035 0.3535551 -0.083727285 0.06319869 0.0012893311 -0.024014346 -0.31973025 -0.20598364 0.27904707 0.12328758
blanc -0.08678503 0.26166242 0.0061226822 0.017928738 -0.033028312 -0.06341062 -0.28372365 -0.19200952 0.24354754 0.18165141
finish -0.16048338 0.30918792 -0.049103364 0.018991008 -0.021826511 -0.06325593 -0.32159576 -0.26957732 0.27310067 0.16332926
store -0.077239044 0.23630522 -0.040301085 0.0037225774 -0.020606607 -0.040710073 -0.19997276 -0.17681688 0.20385201 0.12687324
perfectli -0.15150066 0.3057746 -0.0187514 0.031178482 -0.014944403 -0.06187352 -0.28460756 -0.1614202 0.17722388 0.105523475
honei -0.053850897 0.26820564 -0.07241657 0.09029636 -0.040248178 -0.062392797 -0.21967216 -0.20284067 0.24919464 0.16848765
dip -0.13817666 0.28461844 0.006978024 0.0095839705 -0.033815674 -0.08125531 -0.29746792 -0.18976687 0.18200117 0.096834704
toothach -0.11914049 0.282049 -0.020395828 0.006438525 -0.06390635 -0.07530569 -0.2883647 -0.18687445 0.20836781 0.13729005
commit -0.10859549 0.3884198 -0.050880104 0.031393815 -0.021696938 -0.020834737 -0.30263305 -0.23083971 0.2269468 0.21856517
main -0.114069596 0.21156244 -0.05176385 0.09634858 -0.023149304 0.02372907 -0.1650532 -0.16735673 0.1286264 0.100804955
complement -0.085291475 0.24260825 -0.047309432 0.012527486 -0.008464122 -0.03791934 -0.22316764 -0.20051332 0.2194235 0.1159155
kiln -0.10689377 0.36948314 -0.06612642 0.11485971 -0.092226066 -0.010201419 -0.35786176 -0.21709372 0.22801608 0.19556084
straw -0.06266887 0.26018253 -0.053550676 0.019986214 0.006021278 -0.0012956641 -0.22968529 -0.14794828 0.12677857 0.10746764
characteris -0.018368969 0.11751413 0.029214429 0.02573482 -0.030654563 -0.0059293928 -0.14297903 -0.13871793 0.12819703 0.008511622
nnot -0.13333246 0.32421395 -0.0303775 0.027314883 -0.0066588344 -0.082031846 -0.2157682 -0.25977594 0.25028053 0.09920473
thigh -0.08873497 0.13616785 0.00046791797 0.012185523 0.0004588426 -0.049755216 -0.16740862 -0.03141371 0.11722081 0.084183834
trim -0.108111694 0.2353164 -0.0077622687 0.032120336 0.01929553 -0.049562354 -0.21420223 -0.19561286 0.17116664 0.16753684
charcoal -0.10453912 0.28394678 -0.096144944 0.07997762 -0.075265385 -0.08586087 -0.3434062 -0.25911194 0.27238414 0.1382895
mouth -0.03933381 0.18655121 0.017976345 0.070485756 -0.05846639 -0.06613493 -0.2070818 -0.13819832 0.17127667 0.111892276
soften -0.05173184 0.27582562 -0.00365818 0.07108283 -0.013336197 -0.044143334 -0.2607581 -0.1361612 0.19013575 0.11576633
yellow -0.12135822 0.22141065 -0.032724373 0.056755554 -0.05771779 -0.07515833 -0.19183743 -0.121361546 0.15936208 0.15235706
kill -0.09604774 0.31911933 -0.02991141 0.11007075 -0.07554423 -0.06906736 -0.31236994 -0.26983604 0.21691929 0.15077221
wine -0.13226849 0.2337326 -0.08076496 0.09097679 -0.01357336 -0.014668669 -0.19840668 -0.16587445 0.20802863 0.092117935
nutrient -0.080451526 0.26470137 -0.0025880963 0.05278906 -0.040429268 -0.014015158 -0.2547351 -0.1493932 0.22587292 0.10824592
stroganoff -0.012691525 0.052940443 0.042092334 0.042985056 0.035334963 0.005346921 -0.10071038 0.0372318 0.0078327 0.055647388
shine -0.1125092 0.23552263 -0.07922807 0.08759393 -0.05779205 -0.019821294 -0.2767209 -0.16792518 0.20249866 0.08069123
wholefood -0.12702031 0.3054787 -0.020007877 0.05788791 0.023176437 -0.025528608 -0.18861479 -0.17389612 0.19702785 0.16235785
jungl -0.06421827 0.2453678 -0.0746003 0.06807491 -0.039597947 -0.049628813 -0.16738218 -0.114292294 0.12290231 0.1409595
knorrox -0.072209395 0.16036873 -0.026860867 -0.0084297005 -0.046015147 -0.06041859 -0.10851903 -0.06782093 0.115351945 0.052951712
shell -0.09007008 0.2124702 -0.015910752 0.06953222 0.009426404 -0.05669574 -0.18631591 -0.17302983 0.15057707 0.14706813
nulaid -0.033383317 0.16624023 0.032331865 0.009720894 0.03579514 -0.05600992 -0.12699229 -0.11061726 0.13300695 0.03842474
valdo -0.109629914 0.20202777 -0.006927824 0.08380454 -0.05419753 0.011475273 -0.22093165 -0.13421123 0.18549807 0.07402545
beautifulli -0.104378395 0.15424977 -0.0210747 0.038311645 -0.047077402 -0.017711733 -0.17624958 -0.07749087 0.14213338 0.07612645
mosquito -0.11312887 0.28432587 -0.0798475 0.06209108 -0.040747542 0.017031088 -0.26836133 -0.15473643 0.24473614 0.12198108
thirsti -0.058348045 0.14167526 -0.05615448 0.007123665 0.033469975 -0.04752345 -0.14324762 -0.08793627 0.14302008 0.019156419
drop -0.05161217 0.23796499 -0.08514247 0.07626372 -0.009944789 -0.027997538 -0.2816788 -0.20633641 0.25015697 0.12475678
freezer -0.018928789 0.1639194 -0.0039846236 0.059193134 -0.019317247 0.013409213 -0.1683462 -0.13159609 0.16353469 0.1082568
bean -0.08734712 0.26779187 0.00026354406 0.014675191 -0.07682548 0.0072631687 -0.24618924 -0.1787546 0.24418491 0.1064213
dimens -0.05373088 0.18289325 0.018228155 0.054713793 -0.0403896 0.014505173 -0.21442144 -0.19358005 0.11829353 0.11543604
nour -0.07029163 0.19751765 -0.06525687 0.018678734 -0.070731536 -0.020111322 -0.19191608 -0.14587992 0.20847914 0.068203926
laundri -0.11652788 0.25415066 0.01137074 -0.0038621635 0.016390353 0.019179326 -0.21764433 -0.13036197 0.14133127 0.06451657
deterg -0.12413199 0.26037514 -0.029632358 0.040527232 -0.0020162163 -0.027370606 -0.21314141 -0.16952936 0.21038796 0.117267996
gum -0.15789917 0.3169685 -0.0945966 0.05187017 -0.067608334 -0.012142346 -0.25972703 -0.19254254 0.25020015 0.1469141
acid -0.05421853 0.23748402 -0.027984511 0.012099652 0.015769793 -0.030157078 -0.25888053 -0.14444152 0.22723663 0.09127767
reduc -0.10382032 0.25470272 -0.07056077 0.03165811 -0.058612052 -0.07338487 -0.29365423 -0.16548331 0.19784555 0.14033592
xml -0.0914499 0.22170296 -0.06825198 0.045928188 -0.007796172 0.0029649688 -0.24856201 -0.12251309 0.17516306 0.09338737
option -0.0542307 0.25616193 -0.062062312 0.038155563 0.016107006 -0.030752992 -0.19828433 -0.10789758 0.16609637 0.061879627
approv -0.1027333 0.19378684 -0.03519713 -0.009274797 0.02571873 -0.06940837 -0.19835132 -0.13774978 0.1092464 0.10620749
confid -0.074566655 0.09059099 0.021557374 0.05115539 -0.015528167 -0.0579702 -0.1541896 -0.12811905 0.11460042 0.07840836
allow -0.07569713 0.33549982 0.0068259314 0.018299798 0.011301066 -0.015767995 -0.25420994 -0.20016353 0.2699299 0.15556304
cover -0.14215854 0.287588 -0.004356168 0.014238402 -0.06869052 -0.06402792 -0.2098419 -0.22912511 0.16568069 0.0983174
place -0.10099795 0.2060472 -0.060544312 0.0074999323 -0.007556927 -0.067124344 -0.20765775 -0.13083065 0.20048986 0.11631397
women -0.045255117 0.18109046 -0.017849566 0.026097555 0.02799589 -0.016898504 -0.2464393 -0.12126586 0.16269155 0.089674786
flavor -0.11943718 0.20129277 -0.0020682253 0.035100423 0.009752272 0.010932218 -0.18241814 -0.11461666 0.16416627 0.117316365
incred -0.057405647 0.11400482 -0.055780955 -0.016530689 0.006592588 -0.05414775 -0.14765541 -0.0901251 0.06372249 0.11466928
celebr -0.042658035 0.20425238 0.015320178 0.036116052 0.021637008 -0.0722804 -0.15492785 -0.12174789 0.19287638 0.14224635
drawn -0.054893356 0.13492614 0.024914265 -0.0089497585 0.02475047 0.009484577 -0.20041978 -0.08746509 0.06941257 0.045493893
underground -0.03850154 0.15226293 -0.051694203 0.02016623 0.0068076923 -0.030939711 -0.16347222 -0.11442593 0.06870955 0.04416372
healthier -0.088040076 0.22373095 -0.053782884 0.061328027 0.010627494 -0.037537143 -0.21492559 -0.16670308 0.14659068 0.08996001
sun -0.11046683 0.27643803 -0.032183744 0.04347408 -0.012316602 0.011501963 -0.22979929 -0.22018847 0.21193269 0.09891618
memori -0.12896876 0.277129 -0.06529413 0.007604988 -0.021573892 0.0077673127 -0.2669546 -0.1835479 0.18669428 0.080292694
peanut -0.078634664 0.18136615 -0.048310187 0.08255406 0.009759515 0.012022519 -0.1757738 -0.13376394 0.121599935 0.07017125
simpl -0.118136615 0.24856034 -0.04888225 0.08268017 -0.039798245 -0.03672805 -0.22044483 -0.14360258 0.23695529 0.13233157
pink -0.1268538 0.22569393 -0.06654183 0.079063535 -0.023935074 -0.054600246 -0.25349346 -0.121923335 0.21215211 0.12216082
berocca -0.04123533 0.14787523 -0.015798947 0.006932962 -0.04751725 0.01864153 -0.1508601 -0.088738695 0.18921871 0.083771065
enhanc -0.08190921 0.25318375 -0.07496945 0.06542933 0.014001549 -0.050323393 -0.21809351 -0.10302017 0.20459521 0.11846089
match -0.12677573 0.39706874 -0.03774081 0.107796244 -0.014102961 -0.012265056 -0.3118534 -0.24345562 0.3057443 0.16136996
appear -0.11147125 0.24600692 -0.053634003 0.049621873 -0.048386503 0.010950242 -0.25469193 -0.17100093 0.15647042 0.097548984
especi -0.046152927 0.25616184 -0.0437127 0.037834637 0.007597024 -0.04366586 -0.1668047 -0.18532872 0.17723534 0.08302769
french -0.10572031 0.19347517 -0.006228282 -0.0140727945 -0.063087806 -0.06265076 -0.18951073 -0.16469106 0.11883661 0.052406058
pear -0.13597997 0.29801133 -0.024697118 0.10133837 0.014631424 -0.046513606 -0.28993568 -0.16374102 0.18470037 0.10565212
wide -0.09323384 0.26216996 -0.03891283 0.051591996 -0.066656254 0.0050799367 -0.2730072 -0.18138054 0.23007734 0.10874779
onlin -0.12136086 0.2663272 -0.077989556 0.085629985 -0.015924817 -0.060456358 -0.18778954 -0.18578283 0.14810945 0.14453132
sensat -0.10199555 0.20425248 0.02270504 0.0064680837 -0.052077755 -0.013177303 -0.174716 -0.13590865 0.110134915 0.059194695
mean -0.090873405 0.25825167 -0.040299453 0.05510119 0.02155936 -0.03863821 -0.19307192 -0.15121554 0.18370087 0.06587689
afford -0.07868584 0.26363912 -0.016169004 0.06394954 -0.058093313 -0.0026819087 -0.17870194 -0.20503466 0.18294713 0.083518535
lite -0.09042875 0.23894121 -0.046084672 0.02585677 -0.029448176 -0.022389982 -0.20535108 -0.11015037 0.18102734 0.11462387
zero -0.13246569 0.2579972 -0.002270101 0.08855241 -0.030176563 -0.03309764 -0.23164988 -0.14624162 0.20407115 0.082715884
spinach -0.13935052 0.2431645 -0.032265034 0.024345048 -0.023540532 -0.04193712 -0.18098605 -0.18523352 0.1876777 0.1207885
frequent -0.090887204 0.2494878 -0.029978078 0.04287069 -0.017440945 0.0018108814 -0.19866328 -0.12594174 0.12966001 0.10526356
organis -0.09671253 0.37166086 -0.05308278 0.029860424 -0.038006116 -0.08580389 -0.31801 -0.28917974 0.31735113 0.17999399
nation -0.16876249 0.43019 -0.049956493 0.08493905 -0.017014872 -0.00686394 -0.3784039 -0.22074758 0.33189052 0.148922
institut -0.14738081 0.3724424 0.0012446948 0.07635638 -0.03305319 -0.07170026 -0.3201543 -0.18991415 0.23106627 0.21181399
communic -0.08907852 0.3350384 0.0069943806 0.019010723 -0.08002302 -0.052399255 -0.2715786 -0.18122527 0.19357255 0.0993582
dorito -0.043236386 0.2220457 -0.051783875 0.00015545925 -0.009601044 0.021990532 -0.11635635 -0.09199002 0.10799798 0.09305496
nbreathabl -0.16284682 0.28427583 -0.07068383 0.023050481 -0.05290537 -0.07311843 -0.31162798 -0.22874123 0.29395556 0.16331296
refus -0.08383918 0.26488128 0.019050127 0.0415949 0.017096782 0.0041521713 -0.27188733 -0.15129933 0.19522068 0.108150445
smell -0.10851967 0.18099245 0.01579714 0.04580528 -0.014121551 -0.056454428 -0.2253943 -0.16796358 0.119299695 0.07909062
grandpa -0.07617132 0.15341243 0.01290299 0.05965062 -0.03390389 0.015761899 -0.17879553 -0.074299514 0.15032986 0.10039135
excel -0.04945364 0.24146606 -0.06894109 0.08180784 -0.042478476 -0.06287834 -0.25756833 -0.18718389 0.15728417 0.09055436
cool -0.1432296 0.2925628 -0.014745785 0.011834982 -0.04567167 -0.023412364 -0.23693188 -0.17649235 0.18410954 0.07115619
lipton -0.038060255 0.23588078 0.008031205 0.070393994 -0.006994806 -0.03886421 -0.17855051 -0.17126736 0.18082523 0.070029154
liquifruit -0.06727563 0.14803715 -0.018249586 0.0789626 -0.056788553 -0.046008117 -0.15344036 -0.12323361 0.17890593 0.048384815
skip -0.039466176 0.10866725 -0.03601395 -0.0077173454 -0.03655798 -0.05160556 -0.14218923 -0.15020026 0.092659794 0.08215726
open -0.07436198 0.2161793 -0.08504112 0.039954454 0.010062623 -0.029835192 -0.24492106 -0.17525534 0.17180365 0.09310615
peri -0.11848911 0.20583798 -0.07456565 0.012597578 -0.010906073 -0.013831456 -0.18192588 -0.20204273 0.21850222 0.15366466
marin -0.11202277 0.24594983 -0.04280418 0.051955465 -0.057963632 -0.03892497 -0.26589698 -0.15116306 0.18796551 0.1414008
refriger -0.070786044 0.20401059 -0.052071948 0.026647767 -0.03877735 -0.033701867 -0.22936627 -0.17799139 0.14441836 0.10864385
nwhat -0.15104036 0.3413675 -0.009619415 0.054413937 -0.020932965 -0.07043955 -0.34969458 -0.20579384 0.24424995 0.13785087
solut -0.0958247 0.23789099 0.0044972044 0.04509495 0.0011134928 0.014588529 -0.21068715 -0.1668368 0.1549199 0.05943629
meet -0.11008645 0.2847375 0.015484156 0.09648194 0.008621974 -0.0107394615 -0.19417207 -0.1422813 0.1393777 0.12186498
smart -0.07391488 0.21054457 -0.0725966 0.023983853 -0.033129986 -0.0077793067 -0.17190425 -0.15744373 0.17752162 0.0590524
wholewheat -0.11128659 0.13304421 -0.050519988 0.05322649 -0.001872704 0.024302403 -0.18465696 -0.16107439 0.15031631 0.10937258
indic -0.10303019 0.3739514 -0.054394785 0.030562159 -0.023275593 -0.04768946 -0.3657513 -0.22002795 0.30950207 0.17352265
cotton -0.110419005 0.33857638 -0.04002062 0.045982268 0.010885515 -0.0727264 -0.33684447 -0.2170188 0.24812654 0.1848865
doubl -0.02643107 0.14830428 0.010303867 0.06624626 -0.0037627746 -0.0743657 -0.19815688 -0.17637983 0.11925565 0.12837255
distinguish -0.09459124 0.21760082 -0.07193059 0.07038905 -0.027725238 0.01249792 -0.16273046 -0.13131829 0.12723465 0.13277467
tart -0.042029202 0.19298755 -0.066609964 -0.011250363 -0.061733164 -0.05911156 -0.16929361 -0.110610805 0.16376083 0.05947307
concentr -0.10134834 0.11987907 -0.016181696 0.076466255 0.019226821 -0.05393051 -0.17044374 -0.09603762 0.10655777 0.08337507
dissolv -0.09267062 0.29962274 -0.0095383255 0.09521155 0.0022112245 0.0060801 -0.2323541 -0.22474058 0.2180217 0.10841488
litr -0.10223729 0.1435929 0.0024613522 0.026706321 -0.048897553 -0.0060776244 -0.108766556 -0.12934688 0.15802377 0.078801826
canola -0.012453506 0.08442759 -0.031019354 0.060137108 -0.057049517 -0.045267332 -0.11362197 -0.045171358 0.11780162 0.104215495
benefit -0.07748421 0.26472574 -0.0028157956 0.02052965 -0.045966208 -0.07612968 -0.27532065 -0.16664225 0.20402898 0.17924887
strength -0.08692874 0.1447308 0.024901278 0.06745543 -0.047806952 -0.0004038229 -0.16601853 -0.11607512 0.17309715 0.13295591
gener -0.034081664 0.1733606 -0.016104603 0.033070143 -0.0204564 -0.0026822363 -0.18385325 -0.096151255 0.12996063 0.069840126
attent -0.09137166 0.14070444 5.9994803e-05 -0.00020125089 0.006462845 -0.012739873 -0.13765898 -0.13091326 0.14497112 0.11124609
delight -0.10365741 0.25826794 0.0012939366 0.090991504 -0.05311842 -0.052748162 -0.22901201 -0.1641522 0.19309732 0.07815384
coriand -0.067393415 0.13647643 0.022819743 0.028312793 -0.051469207 -0.05612281 -0.12678982 -0.10825993 0.14455882 0.12224566
sooth -0.11481929 0.279648 0.0069227195 0.0029116576 -0.037957903 0.0023732479 -0.26562348 -0.1529365 0.13619876 0.114607416
sachet -0.041435327 0.19459572 -0.067688696 0.07610695 0.0014335092 -0.033445325 -0.15584457 -0.19290423 0.20566265 0.0798918
supplement -0.15363081 0.22669247 -0.05008873 0.09643849 0.003456752 -0.037034538 -0.2973952 -0.23338631 0.22490162 0.17931898
crystal -0.058131844 0.23602287 0.01718548 0.062042743 -0.057109643 -0.0116205225 -0.14564452 -0.16767189 0.17995192 0.0852823
level -0.10517303 0.23770319 0.015466076 0.08022128 -0.06469971 -0.057349134 -0.17075637 -0.16833217 0.17336768 0.1355197
pencil -0.0923553 0.20817104 -0.052147087 0.024532493 -0.03131679 0.011478556 -0.19951153 -0.18511155 0.18035121 0.09751807
tip -0.14522736 0.2896219 -0.07659115 0.04646826 -0.037046548 -0.049906973 -0.28402442 -0.23913796 0.17802787 0.106477626
lead -0.16767734 0.35811272 -0.010363609 0.021016525 -0.05880434 -0.042433646 -0.33588555 -0.1797655 0.2736904 0.11170071
skincar -0.13016629 0.2151508 -0.009825235 0.055789195 -0.06344234 -0.0033354945 -0.23557514 -0.18450293 0.18637393 0.15427783
contribut -0.070041545 0.20679365 -0.036702763 0.08134361 -0.017158154 -0.037408877 -0.18832545 -0.095709294 0.17132106 0.059646606
filter -0.033856064 0.12078422 -0.033594176 0.027927248 0.02371498 -0.03171136 -0.15905449 -0.06394962 0.13985302 0.0608332
rusk -0.11001369 0.24206719 -0.037291255 -0.001425437 0.031786192 0.021371217 -0.21989396 -0.11893496 0.1316359 0.09128295
eleg -0.010333805 0.18212062 -0.057182822 -0.016149642 -0.06320568 -0.027513146 -0.17428258 -0.06482372 0.13628702 0.121439666
grown -0.11408246 0.17640209 0.0012014793 0.085805036 -0.0010392901 -0.0012931018 -0.22759163 -0.11794444 0.18200716 0.090836965
spritzer -0.05730464 0.27849355 -0.0735303 0.089684576 -0.0749122 0.0015668231 -0.24422514 -0.19432552 0.17980352 0.10233707
splash -0.0640984 0.26367262 -0.018876724 0.021067161 -0.07069462 -0.00088566844 -0.26983297 -0.15560381 0.1876894 0.104217015
that’ -0.06696029 0.23416187 -0.040651746 0.068160534 0.021245472 -0.0217712 -0.17368746 -0.18654038 0.14993134 0.06578353
incept -0.098589495 0.25046158 0.005976813 0.034838717 0.017327992 -0.03722232 -0.2560807 -0.2197587 0.21626082 0.09315955
compon -0.12904692 0.34643456 -0.018904407 0.0309286 -0.0028025156 -0.06256924 -0.34015548 -0.24045414 0.21787035 0.15225337
“qualiti -0.14839852 0.35509217 -0.022224486 0.018535769 -0.0056353584 -0.06760948 -0.30351424 -0.21965419 0.26820228 0.09519897
value” -0.14873746 0.27224794 -0.056558497 0.0869622 -0.05431293 -0.07113876 -0.26696062 -0.17379011 0.2320994 0.15759496
meant -0.04827272 0.2461109 0.015632225 0.043505814 -0.05374185 -0.010963833 -0.20567255 -0.21509571 0.21166363 0.104859546
goal -0.07669618 0.123938315 -0.04876904 0.06548967 0.018851805 -0.02410464 -0.109056346 -0.12734926 0.13499674 0.06792382
save -0.11918865 0.23688535 0.016761575 0.022288417 -0.026264785 0.008181485 -0.19684584 -0.12801868 0.18795525 0.14669077
parti -0.08207855 0.3362109 -0.05946807 0.030758882 -0.016302789 -0.004517961 -0.29288778 -0.2140598 0.25666407 0.17904364
tangi -0.052361485 0.13164067 -0.0031332015 0.04146373 -0.034011785 -0.030833239 -0.17086251 -0.11993968 0.10274033 0.11359326
uht -0.06854829 0.14621401 0.008537857 0.00055365585 -0.046806496 -0.04412419 -0.104950055 -0.1357896 0.11099354 0.07396297
coco -0.05422945 0.19185929 -0.031768464 0.0050013 0.003998887 -0.06631056 -0.2134021 -0.14386754 0.1609431 0.15104336
punch -0.110246286 0.23897961 0.009569626 0.024964023 -0.044571735 -0.055799562 -0.25921294 -0.15440783 0.21362717 0.15102933
plain -0.028801268 0.14394936 -0.013338604 0.008169939 0.030040327 -0.044218734 -0.17148644 -0.12869439 0.09505109 0.037570186
crumb -0.07302289 0.34851837 -0.0695939 0.04837026 0.011129766 0.008162229 -0.2300105 -0.16417457 0.20736878 0.15059309
smoother -0.11443248 0.22791934 -0.008411952 0.02947673 0.022333728 0.024882236 -0.24983352 -0.10460145 0.17100786 0.06523049
domesto -0.09246266 0.33528805 -0.033818316 0.045608144 -0.0022983307 -0.03963348 -0.3016592 -0.2658752 0.24727103 0.2000778
relax -0.07997602 0.09306176 -0.05751646 0.013384906 -0.06394803 0.029065194 -0.15315364 -0.114717446 0.14571768 0.06909983
duracel -0.14940764 0.320389 -0.032482937 0.067900024 0.012273981 -0.023130257 -0.24931568 -0.16921286 0.24298942 0.123415045
junior -0.110905305 0.28192598 -0.04729987 0.09617795 -0.0056325477 -0.009348821 -0.29561904 -0.21775027 0.23994224 0.15517242
ey -0.07861263 0.19178046 -0.0724928 0.028451048 -0.061502904 -0.073035166 -0.18359934 -0.18166304 0.14990449 0.07200917
feinschmeck -0.00023180462 0.14873345 -0.032680806 0.055801764 -0.043203805 -0.052477267 -0.1443313 -0.08790086 0.1188774 0.035026666
vegetarian -0.09902099 0.2751384 0.010785187 0.053676385 -0.031041246 -0.050876778 -0.15896745 -0.18863535 0.13868436 0.14056255
basil -0.036738664 0.14707348 -0.011467726 0.049139798 -0.0117187835 0.024956541 -0.121426046 -0.04337372 0.07125918 0.093657754
andi -0.06487585 0.19942005 0.020073049 0.064420626 0.0024773993 0.013176494 -0.19991642 -0.13424124 0.17038971 0.12028438
trigger -0.055740505 0.17825393 -0.04832211 0.05314857 -0.055134818 0.012598124 -0.1968262 -0.12427536 0.119376525 0.069142304
flavoursom -0.06681289 0.10600058 -0.030919887 0.056144662 -0.029053533 -0.017352257 -0.09503457 -0.10419285 0.067582056 0.062322978
floater -0.083530284 0.31225827 -0.062292878 0.056630436 -0.047008064 0.007696983 -0.27097297 -0.15752426 0.2487054 0.08820624
espresso -0.110929914 0.18878965 -0.04864034 0.038215604 0.0052871397 -0.0680958 -0.14297813 -0.16757344 0.10057939 0.0640613
lip -0.06535764 0.26065147 -0.079364516 0.07056361 -0.017169146 -0.035511572 -0.2630086 -0.23147827 0.20734398 0.13662228
fed -0.05533068 0.2635816 -0.07940946 0.019876052 -0.0042074723 0.0022721232 -0.17530027 -0.18663548 0.13729478 0.08412537
cat -0.100126885 0.20356408 -0.059715923 0.044728592 -0.03093692 -0.0052213254 -0.20825715 -0.106415175 0.19429109 0.060577456
sleep -0.08100385 0.24972284 -0.005193492 0.024764268 -0.014571347 -0.06294901 -0.2808446 -0.16268271 0.15804455 0.11344392
grade -0.103185445 0.20611815 -0.04578876 0.005939331 0.030049352 -0.042118184 -0.17615607 -0.15425253 0.17724472 0.08697404
discov -0.07374851 0.13478293 0.0074946256 0.017646322 0.015165732 -0.04637931 -0.14774148 -0.13894457 0.12145474 0.049599692
rajah -0.08206213 0.088742256 -0.0043438706 0.009107328 -0.048805725 0.031735122 -0.1548866 -0.11299965 0.10999537 0.08067743
nougat -0.04112511 0.093131654 0.032164045 0.066091694 -0.023969699 0.004605679 -0.096536905 -0.057667088 0.06637606 0.054184873
parboil -0.058970176 0.12779623 0.0136014 0.01218 -0.027717717 -0.070559174 -0.20857343 -0.12841591 0.1256564 0.051798392
citronella -0.041365627 0.19417705 0.016228836 0.03711911 -0.010835751 -0.027016807 -0.1391427 -0.17590453 0.14216626 0.1041968
candl -0.09473572 0.21728054 -0.009885991 0.056446105 -0.056603152 -0.029417817 -0.21535735 -0.12254237 0.14444607 0.1460141
insect -0.03711311 0.18073617 -0.06788017 0.071531124 -0.026648553 0.0051073725 -0.19158168 -0.16127698 0.22180182 0.12423504
tru -0.045000743 0.07953152 -0.0117676165 -0.005518499 -0.061669458 0.023573188 -0.09439542 -0.11278322 0.03913906 0.092843175
twinsav -0.00869791 0.15908377 -0.04339321 0.040776312 0.009924736 -0.055557698 -0.13556263 -0.053928357 0.15020646 0.107203886
vick -0.08403368 0.0980351 -0.06727732 0.06724937 -0.025526164 -0.03861004 -0.07934045 -0.09334888 0.083639264 0.10519161
spatchcock -0.05600464 0.22337161 -0.042538557 -0.0024817782 -0.043049823 -0.027122231 -0.18087512 -0.09477374 0.10276574 0.13728642
famou -0.12189442 0.17814162 0.016627178 0.045523014 -0.025932778 0.0039389343 -0.18628277 -0.13961558 0.16646853 0.12553087
cognac -0.11788605 0.23565902 0.016717868 -0.012238158 -0.02977021 0.0060562906 -0.21631876 -0.10503836 0.16846688 0.086085215
ocean -0.070620805 0.23663335 -0.058730174 0.038501654 -0.05777894 0.018415295 -0.14653511 -0.18154877 0.13022889 0.11100637
punnet -0.08753152 0.19020028 -0.05038858 0.069248125 -0.018444367 -0.06862592 -0.13748814 -0.101872586 0.094001696 0.11669668
typic -0.11045493 0.16354106 -0.018595548 0.052011717 -0.06727353 -0.01919352 -0.23078796 -0.10706861 0.14897479 0.13422623
broom -0.023005215 0.23211801 0.017771205 0.029395778 0.01199188 0.007371322 -0.20535362 -0.102467075 0.1533463 0.12344777
mop -0.019025693 0.19135073 -0.016465694 -0.008999449 -0.021544898 -0.010701906 -0.20430398 -0.09496467 0.17078207 0.052159898
